tree
version=v2
num_class=1
num_tree_per_iteration=1
label_index=0
max_feature_idx=799
objective=binary sigmoid:1
feature_names=C1 C10 C11 C12 C13 C14 C2 C3 C4 C5 C6 C7 C8 C9 TransactionAmt dist1 dist2 V263 V217 V110 V188 V154 V220 V332 V174 V333 V229 V181 D14 V17 V8 V200 V194 V32 V130 V119 V81 V297 V295 V93 id_03 D7 V289 V85 V62 V326 V279 D11 V39 V250 D12 V3 V38 V73 V74 V242 V285 V328 V272 V183 V216 V87 V80 V90 V184 V161 V165 V12 V64 V243 V52 V103 V79 V287 V45 V221 V248 V198 V14 V265 V262 V129 V36 V166 V339 V301 V41 id_11 V13 V211 V124 V189 V234 V158 id_01 V292 id_04 V203 V26 V327 V134 V172 V163 V95 V140 V148 V288 V5 D4 V207 V246 id_06 V197 V281 V23 V156 V247 V71 V25 V290 V10 V320 V226 V235 V302 V206 V55 V16 V231 V323 V58 V107 V97 V337 V192 V123 V175 V70 V157 V94 V102 V59 V88 V336 V205 V75 V241 V315 V255 V51 V1 V273 V7 V132 V236 V258 V126 V214 V77 V164 V152 V50 V311 V319 D2 V202 V30 V105 V223 V67 V11 V271 V9 D1 V142 V204 V136 V44 V185 V169 V4 V116 V111 V324 id_07 V318 V294 V304 V233 V2 V186 V54 V276 V24 V283 V29 V114 V312 V317 V86 V213 V40 V20 V138 V291 D3 V135 V306 V331 D13 id_02 V321 V99 V227 D15 V173 V69 V308 V35 V33 V19 V212 V113 V182 V244 V82 V253 V170 V96 V296 D8 V260 V125 D9 V293 V313 V76 V314 V15 V252 V264 V167 V310 V284 V299 V27 V104 V210 V118 V256 V257 V168 V228 V128 V179 V329 V53 V61 V225 V325 V159 V259 V303 V63 V150 V232 V338 V162 V145 V237 V78 V98 V280 V254 V151 V268 V240 V91 V139 V222 V187 V309 V239 V201 V275 V83 V141 id_05 V322 V199 V101 id_09 V144 V66 V37 V106 V21 V146 V209 V143 V316 V133 V305 V277 V28 V307 V224 V251 V249 V176 V208 V278 V48 V171 V131 V238 V230 V274 V190 V178 V121 D6 V215 id_08 V300 V18 V193 V100 V43 V219 V282 V147 V72 V49 V112 V218 V160 V335 V6 V117 D5 V122 V127 V286 V334 V108 V191 V31 V84 V120 V42 V177 V115 V57 V65 V180 V109 V56 V155 V267 D10 V195 V330 V270 V137 V269 V92 V153 V245 V196 V47 V89 V68 V46 V34 V298 V60 V261 id_10 V22 V149 V266 ProductCD_C ProductCD_H ProductCD_R ProductCD_S ProductCD_W card2_100.0 card2_103.0 card2_111.0 card2_122.0 card2_127.0 card2_130.0 card2_142.0 card2_158.0 card2_161.0 card2_170.0 card2_174.0 card2_177.0 card2_181.0 card2_194.0 card2_199.0 card2_204.0 card2_206.0 card2_215.0 card2_225.0 card2_250.0 card2_264.0 card2_268.0 card2_269.0 card2_276.0 card2_296.0 card2_298.0 card2_302.0 card2_310.0 card2_321.0 card2_327.0 card2_343.0 card2_360.0 card2_361.0 card2_369.0 card2_375.0 card2_383.0 card2_390.0 card2_393.0 card2_399.0 card2_404.0 card2_408.0 card2_417.0 card2_418.0 card2_445.0 card2_452.0 card2_453.0 card2_455.0 card2_470.0 card2_476.0 card2_480.0 card2_481.0 card2_490.0 card2_494.0 card2_500.0 card2_512.0 card2_513.0 card2_514.0 card2_517.0 card2_532.0 card2_543.0 card2_545.0 card2_548.0 card2_553.0 card2_555.0 card2_558.0 card2_562.0 card2_567.0 card2_583.0 card2_nan card3_106.0 card3_144.0 card3_146.0 card3_150.0 card3_185.0 card3_nan card4_american_express card4_discover card4_mastercard card4_visa card4_nan card5_102.0 card5_117.0 card5_126.0 card5_137.0 card5_138.0 card5_150.0 card5_162.0 card5_166.0 card5_195.0 card5_197.0 card5_202.0 card5_219.0 card5_224.0 card5_226.0 card5_229.0 card5_nan card6_credit card6_debit card6_nan addr1_110.0 addr1_122.0 addr1_123.0 addr1_126.0 addr1_143.0 addr1_158.0 addr1_170.0 addr1_177.0 addr1_181.0 addr1_184.0 addr1_191.0 addr1_194.0 addr1_203.0 addr1_204.0 addr1_205.0 addr1_220.0 addr1_225.0 addr1_226.0 addr1_231.0 addr1_251.0 addr1_253.0 addr1_264.0 addr1_269.0 addr1_272.0 addr1_299.0 addr1_308.0 addr1_310.0 addr1_315.0 addr1_324.0 addr1_325.0 addr1_327.0 addr1_330.0 addr1_337.0 addr1_343.0 addr1_384.0 addr1_387.0 addr1_420.0 addr1_428.0 addr1_433.0 addr1_436.0 addr1_441.0 addr1_444.0 addr1_469.0 addr1_472.0 addr1_476.0 addr1_485.0 addr1_494.0 addr1_498.0 addr1_512.0 addr1_nan addr2_60.0 addr2_87.0 addr2_nan P_emaildomain_anonymous.com P_emaildomain_aol.com P_emaildomain_att.net P_emaildomain_bellsouth.net P_emaildomain_comcast.net P_emaildomain_cox.net P_emaildomain_gmail.com P_emaildomain_hotmail.com P_emaildomain_icloud.com P_emaildomain_live.com P_emaildomain_me.com P_emaildomain_msn.com P_emaildomain_optonline.net P_emaildomain_outlook.com P_emaildomain_sbcglobal.net P_emaildomain_verizon.net P_emaildomain_yahoo.com P_emaildomain_yahoo.com.mx P_emaildomain_ymail.com P_emaildomain_nan R_emaildomain_anonymous.com R_emaildomain_aol.com R_emaildomain_comcast.net R_emaildomain_gmail.com R_emaildomain_hotmail.com R_emaildomain_icloud.com R_emaildomain_outlook.com R_emaildomain_yahoo.com R_emaildomain_yahoo.com.mx R_emaildomain_nan M1_T M1_nan M2_F M2_T M2_nan M3_F M3_T M3_nan M4_M0 M4_M1 M4_M2 M4_nan M5_F M5_T M5_nan M6_F M6_T M6_nan M7_F M7_T M7_nan M8_F M8_T M8_nan M9_F M9_T M9_nan id_12_Found id_12_NotFound id_12_nan id_13_14.0 id_13_19.0 id_13_20.0 id_13_25.0 id_13_27.0 id_13_33.0 id_13_49.0 id_13_52.0 id_13_63.0 id_13_64.0 id_13_nan id_14_-480.0 id_14_-420.0 id_14_-360.0 id_14_-300.0 id_14_nan id_15_Found id_15_New id_15_Unknown id_15_nan id_16_Found id_16_NotFound id_16_nan id_17_166.0 id_17_225.0 id_17_nan id_18_12.0 id_18_13.0 id_18_15.0 id_18_nan id_19_100.0 id_19_122.0 id_19_153.0 id_19_176.0 id_19_193.0 id_19_215.0 id_19_216.0 id_19_254.0 id_19_266.0 id_19_271.0 id_19_290.0 id_19_312.0 id_19_317.0 id_19_321.0 id_19_341.0 id_19_352.0 id_19_384.0 id_19_390.0 id_19_410.0 id_19_417.0 id_19_427.0 id_19_492.0 id_19_529.0 id_19_542.0 id_19_548.0 id_19_567.0 id_19_621.0 id_19_633.0 id_19_nan id_20_127.0 id_20_146.0 id_20_161.0 id_20_177.0 id_20_214.0 id_20_222.0 id_20_225.0 id_20_256.0 id_20_266.0 id_20_277.0 id_20_280.0 id_20_305.0 id_20_315.0 id_20_325.0 id_20_333.0 id_20_368.0 id_20_391.0 id_20_401.0 id_20_484.0 id_20_489.0 id_20_500.0 id_20_507.0 id_20_533.0 id_20_535.0 id_20_549.0 id_20_561.0 id_20_563.0 id_20_566.0 id_20_595.0 id_20_597.0 id_20_600.0 id_20_611.0 id_20_612.0 id_20_nan id_21_252.0 id_21_nan id_22_14.0 id_22_nan id_23_IP_PROXY:ANONYMOUS id_23_IP_PROXY:TRANSPARENT id_23_nan id_24_11.0 id_24_15.0 id_24_nan id_25_321.0 id_25_nan id_26_nan id_27_Found id_27_nan id_28_Found id_28_New id_28_nan id_29_Found id_29_NotFound id_29_nan id_30_Android id_30_Android_7.0 id_30_Linux id_30_Mac_OS_X_10_10_5 id_30_Mac_OS_X_10_11_6 id_30_Mac_OS_X_10_12_6 id_30_Mac_OS_X_10_13_1 id_30_Mac_OS_X_10_13_2 id_30_Windows_10 id_30_Windows_7 id_30_Windows_8.1 id_30_iOS_10.3.3 id_30_iOS_11.1.2 id_30_iOS_11.2.1 id_30_iOS_11.2.5 id_30_iOS_11.2.6 id_30_iOS_11.3.0 id_30_nan id_31_chrome_62.0 id_31_chrome_62.0_for_android id_31_chrome_63.0 id_31_chrome_63.0_for_android id_31_chrome_64.0 id_31_chrome_64.0_for_android id_31_chrome_65.0 id_31_chrome_65.0_for_android id_31_chrome_66.0 id_31_chrome_66.0_for_android id_31_chrome_generic id_31_chrome_generic_for_android id_31_edge_15.0 id_31_edge_16.0 id_31_firefox_57.0 id_31_firefox_59.0 id_31_ie_11.0_for_desktop id_31_mobile_safari_10.0 id_31_mobile_safari_11.0 id_31_mobile_safari_generic id_31_safari_generic id_31_samsung_browser_6.2 id_31_nan id_32_24.0 id_32_32.0 id_32_nan id_33_1136x640 id_33_1280x1024 id_33_1280x720 id_33_1280x800 id_33_1334x750 id_33_1366x768 id_33_1440x900 id_33_1600x900 id_33_1680x1050 id_33_1920x1080 id_33_1920x1200 id_33_2001x1125 id_33_2048x1536 id_33_2208x1242 id_33_2436x1125 id_33_2560x1440 id_33_2560x1600 id_33_2880x1800 id_33_nan id_34_match_status:1 id_34_match_status:2 id_34_nan id_35_F id_35_T id_35_nan id_36_F id_36_T id_36_nan id_37_F id_37_T id_37_nan id_38_F id_38_T id_38_nan DeviceType_desktop DeviceType_mobile DeviceType_nan DeviceInfo_MacOS DeviceInfo_Trident/7.0 DeviceInfo_Windows DeviceInfo_iOS_Device DeviceInfo_rv:11.0 DeviceInfo_nan
feature_infos=[0:8.4514806480508557] [0:8.0876402877789833] [0:8.0665214904699933] [0:8.0665214904699933] [0:7.9776250987845927] [0:7.2626286009742413] [0:8.6464655271203767] [0:3.2580965380214821] [0:7.7191298409067324] [0:5.8141305318250662] [0:7.7191298409067324] [0:7.7200179404322444] [0:8.1101268019410995] [0:5.3327187932653688] [-1.3823023398503531:8.7136198025709053] [0:8.8729076742598458] [0:9.1417402804839263] [-0.032663748714342473:26.487456907223812] [-0.12481499252905713:36.53504503532492] [-9.6518525820919958:57.300139962614423] [-1.4579025309624336:37.713010757727702] [-1.458687925421728:33.301092143921629] [-0.13718308447366515:17.531195275871486] [-0.084668401391800693:14.551813667638688] [-0.33739044099444249:19.364542105127246] [-0.076999640550167364:17.283039874764796] [-0.12291353558573688:25.270442853467479] [-0.16554070789794878:18.007414582941006] [-0.91051483115071619:5.1785520715221525] [-0.46652541588872432:20.995026863689581] [-5.687797194846679:27.601139376180523] [-0.90846875748973488:33.459224664864564] [-3.0233761695760664:16.28677120008393] [-0.46790757959942181:32.419937087064568] [-0.21590354332275397:119.77590495238448] [-26.88539772495287:26.828399010009534] [-0.42218098830825201:36.272169301978863] [-0.12824616628510926:15.586936499192046] [-0.046672603512168342:48.308269954202991] [-0.46833884664736047:15.115392804254078] [-20.308974002057624:10.800170704179212] [-0.40481998235376099:5.1016401613878699] [-0.3927609683670274:17.747509793376491] [-0.44191386486168294:13.999458558346362] [-1.895651976487881:19.409299370683897] [-0.20067894704886099:12.607674452126888] [-0.049231614215867435:56.896735430560398] [-0.87883854762731828:2.15275298713884] [-0.44252633346160658:26.47995138647364] [-1.6180141845107405:31.834202363087453] [-0.96966244134553781:3.7838233246894202] [-3.1748127567509967:17.347695479954012] [-1.1449295677926909:48.088382044235658] [-0.3945183244524133:15.293943874929756] [-0.40705765106233621:18.88879590042653] [-1.6451475079442419:24.931284754774559] [-0.38185878089489622:30.893087312056061] [-0.16662871072153268:8.7342751219381238] [-0.12136538480967454:58.610978052043869] [-0.14681570227439214:15.465601808788042] [-0.028856586335649897:35.496802686121413] [-1.4190304864844321:30.383975662704625] [-0.44365794871359754:40.32565317220439] [-0.73394217386073135:9.141101122217254] [-0.24536813702951507:29.279677902988947] [-0.09005268297099335:60.360808402501803] [-0.25104690374888067:6.262363994394395] [-1.1085142500655523:4.7809314497116064] [-0.4278793114717046:13.880259401370294] [-0.90734231954234212:42.159846085446148] [-0.4292750117940683:26.097664982513095] [-0.04005594988448296:48.903081838801299] [-0.36888699933416103:17.588534909992365] [-0.35032088264755734:30.123622451271494] [-1.2312218105943036:47.636285349446013] [-0.50924000561278537:152.21308947093553] [-0.079346633299507752:43.353223664773779] [-1.2134273229531125:24.914086010936892] [-55.024864704383717:0.018173602159177894] [-0.036572564829704453:23.42453067142338] [-1.3971671235788481:26.078205722071836] [-0.039519041147961349:225.90029467800179] [-1.0695249619063731:6.3579287289062432] [-0.2249954831698342:27.178684761993082] [-0.037675931396012136:32.762475603548339] [-0.17012757395461797:37.700718880251053] [-48.688910727753537:0.020538557652100577] [-8.6743815910916524:0.22419204018859273] [-1.1227916843680004:10.109104590501692] [-0.050285199475263456:17.709115598212065] [-2.8170190762000535:30.503984840739584] [-1.0220155817380068:25.175340532177941] [-0.14493136323064479:6.5560736522796956] [-1.2040351167403234:33.849715787869748] [-6.1814980478361292:0.7440398136337204] [-0.078405844104397118:111.23477087843811] [-36.079563954446485:0.094585847813219992] [-0.083442513384498845:15.04911520866855] [-4.9970805864182912:59.948868498128121] [-0.20243892846080133:14.603483659684272] [-0.040272040418675326:40.825700810982013] [-0.14122954374314053:33.410930307451025] [-0.094582668400836636:53.5929363652387] [-0.043090256587995195:56.930630934219735] [-0.68920031983887664:16.452565101377949] [-1.4133623341336186:35.786527693465672] [-0.42867352611036746:22.656456567322124] [-1.8363302863249353:10.670496209939323] [-1.1072314977932896:3.1571813426070414] [-0.065169568010541676:60.066662712178214] [-0.31477741284490302:9.8753892577967317] [-5.7522045569241262:0.41643634798020168] [-2.8382764233068931:39.353053956608285] [-0.16399279144244816:32.654234260670179] [-3.8656752045951146:40.736813488892899] [-1.3108800502336273:39.519512983603271] [-4.2358379021537491:62.103506913266877] [-0.47492051632281407:11.485620186145168] [-6.090553627549312:24.641757328498002] [-0.15249224911722323:90.648281903251316] [-0.8806823329151684:6.7747514647660099] [-0.04074760448018875:95.734345004360904] [-0.050244210226727572:47.226091211586784] [-0.22095008412103087:26.962116697524195] [-0.54481171718956412:29.956979263274395] [-0.024609904386443081:176.49038484337683] [-1.9840720202047397:25.574558158473408] [-0.36731375056566778:38.385312014889628] [-0.095763511026976944:37.681242189521562] [-0.095605530489284912:18.179518835498836] [-0.36561223756740974:25.492828194025741] [-66.498514414645598:0.015037929926747256] [-0.057491250068180511:47.633478315726208] [-0.043465628853456402:59.165654934877637] [-0.084208812855364898:19.400056145969319] [-4.3239064975642423:50.032428522493937] [-0.24539224555028899:16.444060073463874] [-0.70153841566021091:8.4956057606350317] [-1.2683087748708908:36.323950996259683] [-0.41142362174770497:2.4298755554122566] [-0.041570640315263162:48.650829302318201] [-0.45227500328139603:26.803043527806075] [-46.41997256369131:0.021542451336609942] [-0.048470183164832065:83.766906766381723] [-0.045724785402224154:127.45720872733983] [-1.0546015345914883:6.7342273735688085] [-44.841265318264441:179.29359136643168] [-0.23016848619697197:34.846782107146417] [-0.95061383566378777:98.01340135317318] [-0.42952827452895259:14.020313049933046] [-188.76911235098228:0.0052974768358318453] [-0.025238757483749204:10.640078652513488] [-3.3832885374280033:21.76818919378065] [-0.033338581898089491:44.813466284396107] [-0.14854746130469437:24.831944334531428] [-0.26893717309227233:11.35917257841465] [-0.044129694163308544:70.389647527914761] [-0.033609336501480298:68.522184949996415] [-1.3597826078445079:29.395909475997591] [-0.1302229370826376:12.652797076089087] [-0.37923560973743753:2.8836342715545591] [-0.52231691943657843:11.409596613188905] [-0.022809944807237741:270.87347406671859] [-0.031365387395201914:144.11393639108263] [-0.9541648389174634:2.4670481323466489] [-0.056450220399710559:17.371636734988222] [-0.69858863552661199:15.855277370587148] [-0.089082331065427123:36.916312902561245] [-0.24304108747285597:40.8990373934584] [-4.329404675112607:29.807790476745762] [-0.85721494632497142:8.1404475032152135] [-0.10079953034159977:36.43721157358658] [-4.599497993024408:26.338488994166525] [-0.60326585556776569:3.230259177182246] [-0.14768996246021532:23.826722845961495] [-0.070208037260103981:14.451797185003668] [-0.06074368747922769:92.155216102514146] [-1.4594860111792134:58.589260359147936] [-0.24688327378599292:44.726852410537539] [-0.18104964250290603:18.397926349274343] [-1.9558458689085789:11.873387090907926] [-6.8541724593589617:33.528855447182352] [-13.560285504926656:108.07919110033025] [-0.095735462421128306:18.141008783115137] [-3.8914098408579476:4.1700072108753821] [-0.044157183755666109:38.247100577658365] [-0.049933794376236323:44.054161565136503] [-0.52004335717375672:27.195843275377477] [-0.098352986656383951:33.891191481323197] [-4.2568603703895125:24.232329337019177] [-0.95829448878043055:30.068622675515936] [-1.1717291417011535:8.1710342918605612] [-0.030784791004604257:63.429016781078623] [-3.1348787720568003:32.232808361881077] [-0.64039966429549178:42.963746530774422] [-0.72194726445874235:7.2328631805179944] [-8.365773040793858:41.268547701594002] [-0.11935976568511882:161.07879894483128] [-0.048701400661024803:37.906627721973187] [-1.5437519593205307:34.238279869270229] [-0.062082066964988303:17.065361509261599] [-0.42166694907795954:23.684908171561396] [-1.9310373341667719:29.276107210703017] [-0.08781438766793323:42.262676627031574] [-0.044515929645529181:86.001059498829221] [-0.42251983434546597:9.0377340854341721] [-0.041058640471590559:121.27592435419818] [-0.04519561051029846:43.125169325538366] [-0.066022694254646005:20.016342110388834] [-0.24239120691684959:11.089530125865716] [-1.0697552268328394:4.7448955605899057] [-0.030735140173111224:99.212512096638463] [-0.35364846967915492:33.629802037301118] [-0.090064008048351851:222.52643990563664] [-1.1212070132991756:2.8885976537898022] [-0.20639196622633307:24.804671064529355] [-0.72331564432441242:9.1772849602267534] [-0.062386147166599216:36.186130365102997] [-1.0580661138432677:4.7836043785474418] [-0.39849022590898281:13.574492030976492] [-2.0440566241195848:15.020727115588642] [-0.070001195406200117:17.829422289848431] [-12.680636295557955:100.96508991816899] [-0.13069913490416327:16.971498883786619] [-1.5777902234486376:26.626801038093578] [-2.0674524542355655:14.869919200774348] [-0.047262857022925049:54.585132519803416] [-0.74605447382361278:22.220198038147434] [-0.076004595225253962:47.492545509737482] [-0.10150676920692167:32.557915865132784] [-0.62690362873054717:6.3515892055071896] [-2.3814495876671078:14.892859705611075] [-3.6176709739867077:41.04460888029255] [-1.7581135229224807:1.2638759644197353] [-0.038338856557277604:57.425270147617951] [-0.22341615655046801:42.572343034368807] [-1.0744018319111643:8.1761512787635429] [-0.23525756684685792:40.625130023843347] [-0.3790143702743361:19.80210660243511] [-3.0492836553533311:62.281261549556675] [-0.042836662548519838:22.273468922544264] [-0.081168590050063646:28.630602059401127] [-0.25123446143282047:112.93997117362829] [-0.26182631506021092:29.5325153848915] [-0.10314608636817633:32.637115858558715] [-0.10683591772767445:18.487019941924249] [-0.13743003535261208:24.516568932508115] [-0.13873817021816032:31.13735280751925] [-22.544433380971242:22.460980383527502] [-0.86267450588710404:87.210175123342552] [-0.3255256790591996:10.396336237880956] [-0.094132418495818132:24.517450748027702] [-0.33306842079186694:11.001042425628359] [-0.058887365628329018:59.217871347974857] [-0.079032645405983093:25.114787786990497] [-0.12937773536456001:14.061240912161894] [-1.158823883434994:8.6478597077687169] [-2.0411053554999614:9.9036687423553058] [-0.17496630502890748:49.847775580171827] [-0.18158464005822891:33.81885441386359] [-0.27047283998652571:3.1188153405850954] [-0.51905753710229985:155.24902910900909] [-0.47679565762439008:31.202349808845032] [-0.46372196480840783:16.395236957615754] [-0.30697992794436929:4.6932795767261659] [-0.10509119046756174:32.650212364464132] [-0.047166006690166747:31.971823379949821] [-0.099406046126679012:44.253232588990059] [-0.32908741892563959:4.6322082829923632] [-0.1634799755533182:28.940401422871599] [-1.1768970111788624:30.064789116776655] [-0.2146278925767936:35.599687557353036] [-0.068391754069990568:47.235883106351515] [-0.96021668176216723:52.280038563128514] [-0.34686585122216768:3.5612569225492168] [-0.039531942903098492:98.481710042341163] [-0.02380112139268464:132.55342866416581] [-0.70801409199300347:10.216672359709881] [-0.81980216413269069:20.852044540815566] [-0.25164988640251701:61.850029153421623] [-0.082488718665694724:27.467746896460671] [-0.048424460189825484:225.27405853146442] [-0.22923482269477144:38.222500015612297] [-0.73438054369596295:32.1427621725649] [-0.029306313144968291:10.506835821912366] [-1.9207458866059257:13.198807194908538] [-0.17872249749532371:21.84807819787693] [-14.216239086711287:9.7897487230784215] [-0.084897840471827787:21.656522585540326] [-0.32872474208115926:9.7656324861914428] [-0.034464424224726918:57.487056190096283] [-31.182880098646262:16.970352334291452] [-0.33503397665165346:6.006045683776386] [-5.0913694728916958:25.521036294342238] [-1.3022318234858206:57.828767873139078] [-0.096598460245879592:36.724360977494825] [-0.47672047461336825:9.637834649089303] [-0.23521319871217575:37.593160834294686] [-0.1128893985260709:28.694931450972859] [-0.12984416384171635:21.520107555443143] [-0.034739046113071249:41.427606386215565] [-0.043780835083412177:42.89485858459301] [-0.002134715117704326:468.44658179988903] [-0.026727756817532301:33.367735830681227] [-0.10657952332620475:18.328132063294788] [-0.083590733914639517:35.781787443395196] [-0.13181137238989546:53.111864515573572] [-1.4290074871957612:27.716656943432671] [-2.120959942766063:42.750084056532316] [-0.3359199464447114:10.151056408404365] [-0.15098200982593205:55.463794850439591] [-0.02301125156202545:33.936344900728663] [-0.71348314776217014:7.3234459726550298] [-0.63391475614882609:21.203677631346284] [-0.098331667421696536:163.54647217877471] [-0.22845290735484935:40.93670878737597] [-0.28251703907894138:10.550912374944843] [-0.033390064888627648:10.11478810298682] [-0.3197296227677715:9.1875979095863318] [-0.078222832270463977:24.718994041062533] [-13.50108180333433:26.789565691149008] [-0.91144621037507789:4.5083199918696009] [-0.044170610395230812:33.899070208005369] [-2.4153106471799206:1.4552920423645352] [-0.16217534334052802:35.064277217847518] [-0.46291560053147118:20.66032641938472] [-0.75821866409899807:23.576443636047475] [-0.30326916268891113:30.918484990771656] [-0.47373990605205185:15.713272266212455] [-0.12679313917583462:34.546394719460153] [-0.79321174631567171:26.259631592766056] [-0.21989349387298845:32.915807351230256] [-0.46208215259049518:22.214623575549666] [-0.6947885096241061:8.7341724514938388] [-11.002686137911327:87.380559413342098] [-0.13785963051645353:31.700961611087937] [-0.27954383636408758:2.2168054243188586] [-0.079238641251733632:74.248209085365218] [-4.3246044578935443:28.756562470749266] [-30.047199209817094:30.008381863581203] [-0.4488265929247221:6.6101810229989084] [-19.140537244969341:38.14768780091191] [-0.077612788353365714:44.881470514927884] [-0.16335664001793815:41.866780335928134] [-0.027805776466825496:90.24410061212086] [-11.537763795723928:68.768575052850792] [-1.6403290836793789:31.105795151173119] [-0.4803082215141527:16.58700476431321] [-0.47003680410466769:16.212243876467625] [-23.531277052927202:46.970900766931649] [-0.49747176232033646:17.853579480661097] [-0.070714828562433649:28.908358852797594] [-5.0294524178309121:24.059819129416994] [-0.37741686408943365:13.411743721431224] [-67.810405850079633:0.014746999187865739] [-0.12841582786109054:15.146844066399339] [-7.3139838598447771:43.000376681901194] [-1.518633189366833:61.193816095624683] [-1.3782562591817487:42.028594389395536] [-0.050089257961156611:74.326298073624884] [-0.66219134694904014:3.4363110930305902] [-1.6736324987906195:26.166403298737873] [-0.14249831144415914:13.808323930360245] [-0.11642852032317591:62.27397775299994] [-0.047352015147619858:100.24468647372537] [-0.021133421861068123:112.67477549675863] [-0.48361978713191078:16.052671341580904] [-1.4913625578977996:34.251032537911549] [-0.56994845782612003:174.33108261375281] [-1.025393774641107:34.310805849124634] [-4.4405186667406253:46.885403869928318] [-0.10743958886698429:18.161160728208941] [-0.1070734371918423:18.304914711909731] [-5.9633971302909252:29.038273626807271] [-0.4048123954389794:33.701484486867706] [-0.097881970029284712:35.747205533951089] [-0.43190225051267828:24.233249049611381] [-0.67162808263933094:28.940445526833464] [-40.226750006948102:0.11036605074204536] [-0.45887031661479583:16.259574449248067] [-1.3401529703191848:33.546024744304042] [-0.02809954751269951:112.48166356626679] [0:1] [0:1] [0:1] [0:1] [0:1] [0:1] [0:1] [0:1] [0:1] [0:1] [0:1] [0:1] [0:1] [0:1] [0:1] [0:1] [0:1] [0:1] [0:1] [0:1] [0:1] [0:1] [0:1] [0:1] [0:1] [0:1] [0:1] [0:1] [0:1] [0:1] [0:1] [0:1] [0:1] [0:1] [0:1] [0:1] [0:1] [0:1] [0:1] [0:1] [0:1] [0:1] [0:1] [0:1] [0:1] [0:1] [0:1] [0:1] [0:1] [0:1] [0:1] [0:1] [0:1] [0:1] [0:1] [0:1] [0:1] [0:1] [0:1] [0:1] [0:1] [0:1] [0:1] [0:1] [0:1] [0:1] [0:1] [0:1] [0:1] [0:1] [0:1] [0:1] [0:1] [0:1] [0:1] [0:1] [0:1] [0:1] [0:1] [0:1] [0:1] [0:1] [0:1] [0:1] [0:1] [0:1] [0:1] [0:1] [0:1] [0:1] [0:1] [0:1] [0:1] [0:1] [0:1] [0:1] [0:1] [0:1] [0:1] [0:1] [0:1] [0:1] [0:1] [0:1] [0:1] [0:1] [0:1] [0:1] [0:1] [0:1] [0:1] [0:1] [0:1] [0:1] [0:1] [0:1] [0:1] [0:1] [0:1] [0:1] [0:1] [0:1] [0:1] [0:1] [0:1] [0:1] [0:1] [0:1] [0:1] [0:1] [0:1] [0:1] [0:1] [0:1] [0:1] [0:1] [0:1] [0:1] [0:1] [0:1] [0:1] [0:1] [0:1] [0:1] [0:1] [0:1] [0:1] [0:1] [0:1] [0:1] [0:1] [0:1] [0:1] [0:1] [0:1] [0:1] [0:1] [0:1] [0:1] [0:1] [0:1] [0:1] [0:1] [0:1] [0:1] [0:1] [0:1] [0:1] [0:1] [0:1] [0:1] [0:1] [0:1] [0:1] [0:1] [0:1] [0:1] [0:1] [0:1] [0:1] [0:1] [0:1] [0:1] [0:1] [0:1] [0:1] [0:1] [0:1] [0:1] [0:1] [0:1] [0:1] [0:1] [0:1] [0:1] [0:1] [0:1] [0:1] [0:1] [0:1] [0:1] [0:1] [0:1] [0:1] [0:1] [0:1] [0:1] [0:1] [0:1] [0:1] [0:1] [0:1] [0:1] [0:1] [0:1] [0:1] [0:1] [0:1] [0:1] [0:1] [0:1] [0:1] [0:1] [0:1] [0:1] [0:1] [0:1] [0:1] [0:1] [0:1] [0:1] [0:1] [0:1] [0:1] [0:1] [0:1] [0:1] [0:1] [0:1] [0:1] [0:1] [0:1] [0:1] [0:1] [0:1] [0:1] [0:1] [0:1] [0:1] [0:1] [0:1] [0:1] [0:1] [0:1] [0:1] [0:1] [0:1] [0:1] [0:1] [0:1] [0:1] [0:1] [0:1] [0:1] [0:1] [0:1] [0:1] [0:1] [0:1] [0:1] [0:1] [0:1] [0:1] [0:1] [0:1] [0:1] [0:1] [0:1] [0:1] [0:1] [0:1] [0:1] [0:1] [0:1] [0:1] [0:1] [0:1] [0:1] [0:1] [0:1] [0:1] [0:1] [0:1] [0:1] [0:1] [0:1] [0:1] [0:1] [0:1] [0:1] [0:1] [0:1] [0:1] [0:1] [0:1] [0:1] [0:1] [0:1] [0:1] [0:1] [0:1] [0:1] [0:1] [0:1] [0:1] [0:1] [0:1] [0:1] [0:1] [0:1] [0:1] [0:1] [0:1] [0:1] [0:1] [0:1] [0:1] [0:1] [0:1] [0:1] [0:1] [0:1] [0:1] [0:1] [0:1] [0:1] [0:1] [0:1] [0:1] [0:1] [0:1] [0:1] [0:1] [0:1] [0:1] [0:1] [0:1] [0:1] [0:1] [0:1] [0:1] [0:1] [0:1] [0:1] [0:1] [0:1] [0:1] [0:1] [0:1] [0:1] [0:1] [0:1] [0:1] [0:1] [0:1] [0:1] [0:1] [0:1] [0:1] [0:1] [0:1] [0:1] [0:1] [0:1] [0:1] [0:1] [0:1] [0:1] [0:1] [0:1] [0:1] [0:1] [0:1] [0:1] [0:1] [0:1] [0:1] [0:1] [0:1] [0:1] [0:1] [0:1] [0:1] [0:1] [0:1] [0:1] [0:1] [0:1] [0:1] [0:1] [0:1] [0:1] [0:1] [0:1] [0:1] [0:1] [0:1] [0:1] [0:1] [0:1] [0:1] [0:1] [0:1] [0:1] [0:1] [0:1] [0:1] [0:1]
tree_sizes=2538 2583 2589 2603 2631 2630 2611 2636 2650 2620 2667 2640 2640 2670 2646 2658 2625 2650 2657 2666 2661 2673 2658 2674 2674 2665 2670 2661 2683 2649 2663 2654 2699 2657 2645 2693 2653 2628 2669 2671 2634 2672 2673 2647 2636 2656 2679 2671 2679 2670 2676 2681 2651 2658 2680 2653 2690 2698 2690 2659 2664 2673 2647 2688 2670 2642 2679 2672 2700 2655 2671 2708 2668 2703 2651 2683 2638 2647 2645 2663 2654 2693 2669 2691 2662 2663 2660 2668 2655 2677 2683 2669 2678 2686 2664 2699 2659 2676 2674 2661 2703 2694 2670 2632 2664 2647 2675 2665 2687 2681 2679 2673 2667 2658 2680 2632 2671 2687 2696 2673 2683 2683 2693 2681 2662 2674 2703 2659 2670 2663 2657 2707 2688 2709 2699 2652 2703 2695 2656 2648 2687 2661 2663 2678 2656 2683 2707 2697 2662 2714 2667 2705 2681 2670 2691 2702 2687 2682 2669 2658 2706 2678 2698 2705 2651 2656 2660 2671 2728 2668 2691 2684 2669 2633 2661 2687 2650 2693 2678 2715 2732 2698 2672 2681 2675 2702 2697 2670 2685 2700 2695 2691 2696 2677 2663 2674 2709 2657 2699 2679 2682 2672 2693 2696 2666 2663 2684 2698 2668 2663 2635 2644 2690 2712 2678 2686 2670 2686 2725 2647 2660 2682 2610 2649 2635 2615 2698 2691 2659 2671 2657 2697 2672 2656 2635 2679 2683 2697 2682 2650 2651 2693 2673 2633 2646 2632 2653 2658 2648 2634 2697 2673 2674 2660 2648 2647 2713 2640 2655 2633 2687 2673 2680 2640 2630 2643 2698 2722 2686 2664 2661 2645 2681 2689 2653 2629 2678 2652 2606 2659 2696 2706 2623 2670 2647 2642 2657 2713 2658 2669 2659 2638 2702 2679 2618 2632 2663 2694 2633 2655 2683 2650 2611 2626 2651 2658 2653 2603 2652 2650 2618 2677 2629 2659 2618 2626 2658 2650 2663 2631 2664 2677 2650 2597 2687 2673 2621 2691 2646 2630 2614 2609 2669 2693 2602 2652 2659 2659 2620 2629 2655 2676 2657 2664 2611 2646 2663 2674 2653 2606 2696 2617 2666 2619 2646 2661 2654 2633 2626 2643 2658 2637 2627 2594 2662 2695 2603 2652 2637 2662 2621 2675 2614 2685 2600 2661 2660 2593 2631 2649 2733 2636 2628 2606 2632 2654 2644 2628 2623 2631 2639 2575 2626 2645 2699 2594 2653 2660 2645 2612 2629 2630 2648 2676 2644 2658 2686 2639 2641 2635 2641 2617 2629 2663 2586 2655 2663 2671 2681 2602 2640 2593 2630 2645 2617 2600 2706 2627 2670 2623 2606 2629 2688 2645 2649 2641 2643 2595 2646 2625 2615 2638 2637 2623 2633 2610 2595 2650 2672 2603 2682 2603 2669 2642 2612 2625 2612 2611 2671 2639 2639 2605 2683 2616 2607 2621 2652 2631 2635 2633 2607 2658 2621 2663 2633 2672 2699 2632 2639 2618 2676 2634 2645 2655 2661 2665 2568 2611 2630 2655 2616 2638 2642 2643 2589 2635 2629 2627 2628 2635 2620 2579 2672 2605 2605 2670 2654 2632 2669 2680 2615 2634 2613 2594 2615 2636 2636 2629 2675 2682 2586 2644 2629 2637 2602 2617 2581 2581 2681 2644 2633 2658 2664 2638 2613 2615 2619 2659 2634 2623 2620 2611 2611 2617 2669 2604 2601 2613 2628 2675 2630 2623 2630 2615 2619 2600 2643 2620 2586 2657 2602 2643 2574 2600 2638 2596 2655 2670 2647 2644 2601 2629 2616 2610 2633 2659 2649 2611 2625 2631 2599 2643 2632 2625 2628 2619 2641 2618 2696 2615 2600 2638 2644 2648 2636 2655 2617 2592 2593 2662 2645 2658 2597 2617 2640 2603 2693 2637 2618 2626 2656 2671 2630 2677 2651 2634 2668 2678 2622 2656 2624 2616 2619 2607 2623 2663 2621 2635 2611 2620 2628 2659 2610 2566 2621 2633 2614 2637 2636 2591 2630 2603 2586 2641 2661 2611 2584 2622 2644 2622 2674 2636 2604 2624 2653 2588 2633 2585 2630 2596 2609 2660 2621 2666 2636 2654 2599 2663 2596 2640 2576 2597 2615 2593 2648 2652 2616 2643 2653 2617 2666 2613 2678 2625 2627 2628 2635 2655 2578 2661 2624 2611 2627 2622 2660 2635 2645 2631 2673 2640 2641 2614 2612 2620 2597 2594 2614 2669 2617 2650 2614 2605 2654 2617 2630 2594 2658 2612 2653 2625 2619 2619 2615 2657 2595 2595 2624 2642 2616 2627 2643 2590 2587 2637 2611 2599 2626 2621 2624 2614 2624 2694 2641 2583 2662 2579 2587 2628 2626 2628 2607 2593 2637 2647 2640 2670 2609 2568 2619 2628 2651 2623 2577 2622 2612 2614 2631 2624 2545 2586 2626 2645 2598 2633 2607 2595 2622 2615 2655 2597 2657 2594 2618 2634 2607 2618 2611 2635 2621 2622 2612 2660 2624 2632 2637 2618 2591 2630 2625 2654

Tree=0
num_leaves=31
num_cat=0
split_feature=155 3 0 115 4 5 186 0 5 0 537 12 44 380 194 34 4 115 4 61 331 91 455 164 235 460 533 80 74 61
split_gain=61919.6 11350.5 10622.4 8695.27 6890.53 5862.85 5209.78 4886.72 4406.5 3743.15 2807.76 2061.02 1942.78 1932.94 1774.24 1710.08 1694.99 1477.26 1409.23 1339.94 1304.15 1286.78 1171.1 1148.31 1119.75 1066.51 975.819 926.858 784.591 772.939
threshold=0.17829781735030162 1.7005986908310777 1.4978661367769956 1.2410195143811786 2.602003343538398 6.4792771020676119 -0.032786012354652824 0.89587973461402759 1.4978661367769956 2.4414009612931857 1.0000000180025095e-35 2.524928003624769 3.4305858603050639 1.276310358277557 6.092593498178541 -0.14631373561937019 1.4978661367769956 1.2410195143811786 3.1567740231385479 1.0000000180025095e-35 1.0000000180025095e-35 1.0000000180025095e-35 1.0000000180025095e-35 -0.93545508048086268 1.5230017188014588 1.0000000180025095e-35 1.0000000180025095e-35 3.4110231244100215 2.5695843018532774 3.0333903744020363
decision_type=10 10 8 10 10 8 10 8 8 10 2 8 10 10 10 8 10 8 8 10 10 10 2 8 10 2 2 10 10 10
left_child=1 3 8 5 9 6 21 10 25 16 19 18 24 -5 -14 -4 -3 -10 -9 22 -15 23 -7 -1 29 -2 -26 -25 -6 -8
right_child=2 4 15 13 28 7 12 11 17 -11 -12 -13 14 20 -16 -17 -18 -19 -20 -21 -22 -23 -24 27 26 -27 -28 -29 -30 -31
leaf_value=-3.295716300636073 -3.2850427682294772 -2.8254687634582809 -2.5792366805741693 -3.2316632258074542 -3.2543565073451828 -3.2164354895095864 -3.2981394375316073 -3.1837231687246259 -3.0812941274497834 -2.5936965686236149 -3.2975606270471034 -3.2053610002796034 -3.1940553513293795 -3.0353506969251134 -2.7613021255310075 -3.3170758867875456 -3.3086641526473946 -2.660172918476432 -2.7363733553109291 -2.9883066694118301 -2.6192223103680714 -3.196674271323285 -2.6313204914250772 -3.3373087439010076 -3.230751024633133 -3.0343615036730105 -2.629658563635914 -2.7814481858675379 -2.6236456611388022 -2.9934947875183542
leaf_count=18479 1095 371 3133 325 2166 5231 53564 251 310 978 25807 725 1202 318 318 86 402 830 774 876 576 1780 90 463531 6134 770 70 77 51 220
internal_value=0 -0.181912 17.0701 -0.244657 8.98746 -0.275259 -0.411488 1.9256 9.69572 17.0478 1.44076 10.7732 1.0803 14.2569 7.15067 23.9381 8.04754 18.1124 15.7314 4.72933 18.3784 -0.601131 3.69766 -0.6182 0.926088 4.52878 3.11487 -0.671231 2.6058 0.673399
internal_count=590540 584316 6224 580348 3968 579129 545375 33754 3005 1751 32004 1750 61508 1219 1520 3219 773 1140 1025 6197 894 483867 5321 482087 59988 1865 6204 463608 2217 53784
shrinkage=1


Tree=1
num_leaves=31
num_cat=0
split_feature=155 8 5 0 186 4 0 258 91 537 147 280 155 225 164 3 4 2 194 205 230 273 460 0 307 74 416 185 80 645
split_gain=35055.6 8487.71 6787.73 5030.05 4679.45 3500.51 4430.93 3039.31 2158.84 1803.37 1449.96 1180.5 1164.1 1100.42 1080.26 819.726 823.828 761.93 746.599 705.379 778.988 661.057 804.642 614.632 612.275 602.229 584.131 520.903 519.691 512.373
threshold=0.17829781735030162 1.2424533248940004 5.6784281396601708 0.89587973461402759 -0.032786012354652824 3.0677824455408698 1.4978661367769956 1.2962908092417027 1.0000000180025095e-35 1.0000000180025095e-35 1.0873858787275921 1.0000000180025095e-35 0.35719181352733126 1.5619843289808448 -0.93545508048086268 3.2384861814448418 0.89587973461402759 0.89587973461402759 4.1688811660431035 1.0000000000000001e+300 -0.42744272086596807 1.295726337089133 1.0000000180025095e-35 2.1383330595080281 1.3033985531756547 2.5695843018532774 1.0000000180025095e-35 0.086614290889238318 4.7847917666925559 1.0000000180025095e-35
decision_type=10 10 8 8 10 10 10 10 10 2 10 10 10 10 8 8 10 10 10 8 8 10 2 10 10 10 2 10 10 2
left_child=1 2 4 8 11 6 -3 12 9 19 25 14 21 26 -1 16 -8 -5 -15 -4 -21 22 -2 -18 -11 -6 27 -12 29 -16
right_child=7 5 3 17 10 -7 15 -9 -10 24 13 -13 -14 18 28 -17 23 -19 -20 20 -22 -23 -24 -25 -26 -27 -28 -29 -30 -31
leaf_value=0.019837429056949359 0.093087676715388701 0.013667783768416483 0.028120686748320609 0.22509902760887579 0.016503837079691733 0.038314768982777463 0.42136761208711676 0.056690175080296085 0.30792805237195253 0.016994299753556135 0.032075335625770203 0.085267771819575344 0.37785982061023538 0.12976695966521179 -0.020427591297760974 0.44997116806712067 0.028283701953746757 0.42358445174227544 0.42402831478560538 0.27984780802091963 0.11412464045974907 0.43284386846856632 0.28269902020279986 0.2813211552947652 0.38930613886021276 0.28698383737370181 0.37401053499322828 0.10664384650331257 0.43648369099379242 0.12690213423306626
leaf_count=18365 703 1398 1646 1179 50240 3547 431 994 608 25690 5977 2703 3070 534 460418 928 352 466 281 793 3403 280 1177 477 102 170 145 3786 39 638
internal_value=0 -0.178824 -0.258622 2.0228 -0.412207 5.23225 8.33226 10.0069 1.47888 1.2631 0.979804 -0.597417 11.0972 2.72015 -0.618842 11.847 9.4501 9.5953 8.28731 3.79348 4.89381 8.50491 7.4827 6.57329 0.622464 0.588769 2.21324 2.05323 -0.671848 -0.674084
internal_count=590540 584316 577183 33887 543296 7133 3586 6224 32242 31634 61133 482163 5230 10723 479460 2188 1260 1645 815 5842 4196 2160 1880 829 25792 50410 9908 9763 461095 461056
shrinkage=0.03


Tree=2
num_leaves=31
num_cat=0
split_feature=155 0 186 5 5 11 562 8 25 194 0 164 164 44 109 483 115 360 91 0 5 205 88 623 44 164 176 14 94 460
split_gain=26219.4 6644.12 5543.9 3710.02 2974.9 2126.19 2060.84 1926.05 1373.82 1171.68 1055.35 1049.14 812.435 708.077 654.61 619.076 577.542 560.305 534.104 518.898 551.148 513.924 510.228 499.556 482.301 1064.64 471.093 450.733 449.977 429.21
threshold=1.0000000180025095e-35 1.4978661367769956 -0.032786012354652824 6.473118495426589 1.4978661367769956 0.89587973461402759 1.0000000180025095e-35 1.2424533248940004 -0.074938135857723701 2.2451688339076652 1.0000000180025095e-35 -0.93545508048086268 -0.94080072574846285 3.4305858603050639 -0.065010579990235948 1.0000000180025095e-35 2.9422858907910494 -0.65517336331893794 1.4036655399208777 1.4978661367769956 3.0677824455408698 1.0000000000000001e+300 3.5571650968277049 1.0000000180025095e-35 1.300090725587886 -0.19775603355203852 4.5782449421203211 4.3175281119363964 -2.6494737384865052 1.0000000180025095e-35
decision_type=10 8 8 8 8 10 2 10 10 10 8 8 10 10 10 2 10 8 10 10 10 8 10 2 10 10 10 2 10 2
left_child=2 4 3 5 18 11 23 9 21 15 29 27 17 22 -3 26 -13 -7 -2 -9 -21 -6 -11 -5 -17 -26 -4 -1 -25 -8
right_child=1 14 7 6 8 12 10 19 -10 13 -12 16 -14 -15 -16 24 -18 -19 -20 20 -22 -23 -24 28 25 -27 -28 -29 -30 -31
leaf_value=-0.002995233459199186 0.031060149007398927 0.27611071532163306 0.0098077843581592401 0.0099952093580534095 0.095913489897976253 0.22257360747391933 0.052003463425956672 0.025581550735327908 0.064288347661927273 0.057985684935316036 0.23895690508856904 -0.020008730874908776 0.0085602764903458407 0.18697066769738974 0.16254092474394544 0.040118030499802816 0.34594279772836717 0.051388073863340752 0.23152726195517379 0.26893142296618067 0.049690517652392026 0.25925274944798959 0.37820431730820919 0.30309311570505992 0.10116372655696748 0.65381016997624752 0.55314903699977658 0.04772243847515166 0.063107404015994004 0.15540943951091687
leaf_count=10206 8933 3785 40767 18684 377 897 3080 401 1453 9709 1000 458954 1335 927 858 12349 51 643 243 714 353 1822 115 136 1084 95 38 8003 2242 1286
internal_value=0 5.26912 -0.253885 -0.45888 3.0683 -0.577038 1.42161 1.16082 6.12557 0.9994 4.13358 -0.6101 3.5166 2.53672 8.62533 0.673961 -0.663787 5.51618 1.27785 6.0959 7.39167 7.84699 2.06713 0.65149 1.64763 4.83898 0.345031 0.643789 2.69407 2.86765
internal_count=590540 17471 573069 506517 12828 480089 26428 66552 3652 65084 5366 477214 2875 10751 4643 54333 459005 1540 9176 1468 1067 2199 9824 21062 13528 1179 40805 18209 2378 4366
shrinkage=0.03


Tree=3
num_leaves=31
num_cat=0
split_feature=155 186 0 5 12 562 1 129 5 4 147 164 25 0 4 0 483 432 3 168 256 375 4 537 61 580 94 455 191 209
split_gain=21630.1 5143.52 4302.61 3447.34 2020.65 1623.07 1531.06 1433.41 1268.35 1198.85 1011.07 988.127 699.13 697.358 796.049 664.674 653.376 633.681 632.984 613.817 543.79 462.496 438.92 435.424 411.943 411.143 444.382 2187.79 430.915 407.329
threshold=1.0000000180025095e-35 -0.032786012354652824 0.89587973461402759 6.4792771020676119 1.2424533248940004 1.0000000180025095e-35 1.2424533248940004 -0.063225792066201755 0.89587973461402759 0.89587973461402759 1.0873858787275921 -0.93545508048086268 -0.074938135857723701 2.1383330595080281 3.2769667020129059 1.0000000180025095e-35 1.0000000180025095e-35 1.0000000180025095e-35 1.8688348091416842 1.0000000180025095e-35 1.7831811939261193 2.7928508931949394 3.2769667020129059 1.0000000180025095e-35 3.0333903744020363 1.0000000180025095e-35 -2.6494737384865052 1.0000000180025095e-35 3.4996525750797032 0.098770533326309126
decision_type=10 8 8 8 10 2 10 10 8 10 10 8 10 10 10 8 2 2 8 10 10 8 10 2 10 2 8 2 8 10
left_child=1 3 8 4 11 23 10 19 -2 -6 24 -1 -10 17 -15 -7 21 -11 -8 29 -18 -12 -20 -5 -3 26 27 -13 -28 -4
right_child=2 6 7 5 9 15 18 -9 12 13 16 25 -14 14 -16 -17 20 -19 22 -21 -22 -23 -24 -25 -26 -27 28 -29 -30 -31
leaf_value=0.017653001813048477 0.014267322977271088 0.016878735281106779 0.21753049608626301 0.065536182332794096 0.23743846973809316 0.076962191328028853 0.045019907684647219 0.046827267559716404 0.16759049013857669 -0.0019691078334727404 0.042079759074060058 -0.0057921608248847189 0.028638619119985598 0.20155025979528438 0.01850077777331028 0.18847991994085822 0.10472572619389313 0.41376440904061274 0.22706599575337891 0.12085370256446017 0.31414193581998834 0.58783285525218898 0.064636840793141678 0.0079478664374513439 0.19997434937324177 -0.025012050043850514 -0.015600810129402861 0.7591748282802866 0.23415376370918828 0.10283604699562003
leaf_count=18123 6652 53240 5181 3158 572 4366 1141 1335 1512 5165 7645 706 1171 566 1145 996 2760 59 797 1216 223 34 510 17889 202 238158 215317 109 188 404
internal_value=0 -0.248585 4.46153 -0.451248 -0.569068 1.32359 1.08827 6.08694 1.88478 2.0323 0.908796 -0.619314 4.14903 1.3354 3.67652 3.576 2.27852 0.197878 4.50385 6.59016 4.15897 1.48612 6.19846 0.621135 0.597796 -0.673256 -0.496717 3.57698 -0.512499 7.01543
internal_count=590540 573069 17471 506517 480108 26409 66552 8136 9335 7507 64104 472601 2683 6935 1711 5362 10662 5224 2448 6801 2983 7679 1307 21047 53442 454478 216320 815 215505 5585
shrinkage=0.03


Tree=4
num_leaves=31
num_cat=0
split_feature=155 186 5 0 12 5 562 1 164 164 164 194 183 583 0 483 61 432 185 4 580 503 13 67 229 580 483 94 455 214
split_gain=18339.2 4785.2 3214.87 3105.33 1855.07 1381.68 1313.42 1218.98 1070.28 993.889 948.699 885.723 631.871 526.356 496.484 486.833 484.824 462.383 461.975 448.697 429.99 508.477 596.591 425.27 1370.64 409.267 433.245 595.78 647.582 397.086
threshold=1.0000000180025095e-35 -0.032786012354652824 6.4792771020676119 1.2424533248940004 1.2424533248940004 1.2424533248940004 1.0000000180025095e-35 1.2424533248940004 -0.79646830352325815 -0.90338120887526163 -0.93545508048086268 2.2451688339076652 -0.067563354935747846 1.0000000180025095e-35 1.4978661367769956 1.0000000180025095e-35 1.0000000180025095e-35 1.0000000180025095e-35 0.60489016988313826 0.89587973461402759 1.0000000180025095e-35 1.0000000180025095e-35 0.89587973461402759 1.8362085998230273 0.77643469945812416 1.0000000180025095e-35 1.0000000180025095e-35 -2.6494737384865052 1.0000000180025095e-35 -0.50865603965106765
decision_type=10 8 8 8 10 8 2 10 10 10 8 10 10 2 10 2 10 2 10 10 2 2 10 10 10 2 2 8 2 10
left_child=1 2 4 5 10 -2 -4 11 -5 19 -1 15 -7 18 -9 23 -8 -11 -13 -6 21 29 -23 -3 -25 26 -12 28 -28 -17
right_child=3 7 6 8 9 12 16 14 -10 17 25 13 -14 -15 -16 20 -18 -19 -20 -21 -22 22 -24 24 -26 -27 27 -29 -30 -31
leaf_value=0.016841931632887181 0.025364211782433636 0.0056302541405096537 0.017758314995701612 0.17596963730265991 0.20741253441902394 0.14518760016483662 0.082699596034445294 0.037419027681783755 0.024275504367312052 -0.0052107517500950091 -0.018357317263132191 0.070188589999731002 0.016254652564599591 0.0081220858435819294 0.15740053115931116 0.081381075200111952 0.2327487075738352 0.3060195412896009 0.18179160609893777 0.083094395032599994 0.0021381271534626455 0.041662083071533636 0.73065221946052095 0.027989059408427802 0.50289373275884963 -0.024844502536286187 0.0039105203282847143 -0.0014189850978320454 0.38798546835606346 0.014894697941790954
leaf_count=18123 8151 39239 21047 5132 485 2364 5097 1152 871 4531 174821 6952 953 2893 1296 5440 265 53 705 2438 4324 60 57 943 146 238158 264 41130 105 3345
internal_value=0 -0.243395 -0.44374 3.88162 -0.561239 2.17759 1.23696 1.02346 5.47681 1.86495 -0.61149 0.858752 4.05465 2.12783 3.90019 0.572021 3.15207 0.115018 2.75996 3.70536 1.40784 2.03169 12.5141 0.278695 3.45878 -0.665747 -0.488803 0.0271922 6.10963 1.89274
internal_count=590540 573069 506517 17471 480108 11468 26409 66552 6003 7507 472601 64104 3317 10550 2448 53554 5362 4584 7657 2923 13226 8902 117 40328 1089 454478 216320 41499 369 8785
shrinkage=0.03


Tree=5
num_leaves=31
num_cat=0
split_feature=155 186 5 0 12 8 0 1 164 34 5 164 44 67 218 483 577 198 449 3 183 214 503 283 580 483 94 4 0 169
split_gain=15854.6 4455.35 3005.41 2363.25 1713.33 1120.89 1221.61 994.862 914.267 858.92 809.428 808.587 776.496 538.432 662.911 531.309 530.609 469.479 463.519 683.089 419.741 412.536 419.699 398.12 391.22 404.458 479.621 387.213 553.224 382.576
threshold=1.0000000180025095e-35 -0.032786012354652824 6.4792771020676119 0.89587973461402759 1.2424533248940004 6.972604494584286 1.0000000180025095e-35 1.2424533248940004 -0.9301094352132625 -0.21372682117317196 0.89587973461402759 -0.89803556360766146 3.4305858603050639 1.8362085998230273 1.0000000180025095e-35 1.0000000180025095e-35 1.0000000180025095e-35 0.19499593565214063 1.0000000180025095e-35 1.0000000180025095e-35 -0.067563354935747846 -0.52538098091108421 1.0000000180025095e-35 0.81642807499558712 1.0000000180025095e-35 1.0000000180025095e-35 -2.6494737384865052 3.2384861814448418 1.7005986908310777 -1.0000000180025095e-35
decision_type=10 8 8 8 10 8 8 10 8 10 8 10 10 10 10 2 2 10 2 8 10 10 2 10 2 2 8 10 10 8
left_child=1 2 4 10 8 6 -4 12 -1 -5 -2 27 13 15 17 18 -17 -15 -3 -20 -12 -18 29 24 25 -10 -27 28 -6 -23
right_child=3 7 5 9 11 -7 -8 -9 23 -11 20 -13 -14 14 -16 16 21 -19 19 -21 -22 22 -24 -25 -26 26 -28 -29 -30 -31
leaf_value=0.014551772651567495 0.012589737748476085 0.0090063129952704397 0.042079359913558156 0.1409414692579059 0.037310749317760378 0.0035523506244547476 0.1521353131586837 0.1031710727687703 -0.018326436583149901 -0.0010593958282305543 0.11551614501289445 0.0029808420629691698 0.11386228428185728 0.11135081124867434 0.032477696202919147 0.018741979196850073 0.10411494488213288 0.36070084733302277 0.73346202760875212 -0.028724796919250908 -0.0028280589423692812 0.00039735034224817824 0.31439441803423418 0.2348746894203374 -0.024763223627217727 0.15163149398080938 -0.0018856860472950142 0.015652903671914537 0.16922160539574105 0.23995546424349781
leaf_count=20174 6652 45154 10475 7232 1087 14422 1512 2448 173710 904 1903 4555 1456 404 1182 9349 3648 189 51 58 780 2416 69 132 237437 366 40782 955 910 128
internal_value=0 -0.238263 -0.436213 3.44339 -0.553371 1.15938 2.13875 0.963773 -0.603635 4.46135 1.58156 1.72248 0.811853 0.707427 3.29227 0.620911 1.39498 7.14761 0.326517 10.7844 3.16148 2.46804 0.931973 -0.66094 -0.66431 -0.489759 0.0100291 3.26252 4.11494 0.516318
internal_count=590540 573069 506517 17471 480108 26409 11987 66552 472601 8136 9335 7507 64104 62648 1775 60873 15610 593 45263 109 2683 6261 2613 452427 452295 214858 41148 2952 1997 2544
shrinkage=0.03


Tree=6
num_leaves=31
num_cat=0
split_feature=155 186 5 0 12 8 0 5 164 1 194 34 164 583 580 483 94 183 305 44 0 432 455 5 0 77 483 169 581 256
split_gain=13891.4 4155.63 2814.88 1851.62 1590.52 962.733 931.282 911.317 879.681 823.965 722.707 675.453 674.393 566.893 395.077 407.157 394.079 380.816 369.673 351.149 344.952 344.666 334.578 312.553 446.909 312.35 293.968 402.597 358.883 356.42
threshold=1.0000000180025095e-35 -0.032786012354652824 6.4792771020676119 1.2424533248940004 1.2424533248940004 6.972604494584286 1.0000000180025095e-35 1.2424533248940004 -0.9301094352132625 1.2424533248940004 1.6039313898625192 -0.1187407626894272 -0.89803556360766146 1.0000000180025095e-35 1.0000000180025095e-35 1.0000000180025095e-35 -2.6494737384865052 -0.067563354935747846 -0.030652990973375614 3.4305858603050639 1.4978661367769956 1.0000000180025095e-35 1.0000000180025095e-35 3.2384861814448418 1.8688348091416842 0.6528236294676022 1.0000000180025095e-35 1.0000000180025095e-35 1.0000000180025095e-35 1.7831811939261193
decision_type=10 8 8 8 10 8 8 8 8 10 10 10 10 2 2 2 8 10 10 10 10 2 2 10 10 10 2 10 2 8
left_child=1 2 4 7 8 6 -4 -2 18 10 26 -5 23 19 15 -10 22 -9 -1 -12 -11 -14 -17 24 -6 -16 29 -28 -29 -3
right_child=3 9 5 11 12 -7 -8 17 14 20 13 -13 21 -15 25 16 -18 -19 -20 -21 -22 -23 -24 -25 -26 -27 27 28 -30 -31
leaf_value=0.0036428542636874469 0.022020236322533727 0.0013649306667664904 0.039271071002011618 0.13113915964245007 0.038454360276337293 0.0034343598287497113 0.13051112353832062 0.11079896718927866 -0.018021490859759546 0.029006356202027885 0.055186439552024583 -0.018568501040117907 -0.0055558509975690363 0.0058982373226648295 -0.024639685822600076 -0 -0.001427437743156021 0.014154196586291481 0.05752628083540872 0.12769016817851064 0.12173260639910805 0.23471514386186956 0.23945182503684501 0.003060516201665519 0.14687856900797219 0.32958301400701451 0.025342298155255742 0.069256162813920316 0.28183072728038971 0.060978532700574635
leaf_count=16401 8151 33619 10475 5357 1278 14422 1512 2364 173759 1152 10381 646 4502 5142 237422 261 40836 953 3773 976 1296 53 105 766 908 44 10847 545 163 2431
internal_value=0 -0.233215 -0.428781 3.0959 -0.54553 1.08969 1.96075 1.82147 -0.595757 0.9095 0.768854 4.17774 1.60213 1.60968 -0.65336 -0.477234 0.0227273 3.17999 0.464131 2.15959 3.06705 0.0961145 4.30958 2.93182 3.54999 -0.817579 0.431821 1.10005 4.36795 0.190175
internal_count=590540 573069 506517 17471 480108 26409 11987 11468 472601 66552 64104 6003 7507 16499 452427 214961 41202 3317 20174 11357 2448 4555 366 2952 2186 237466 47605 11555 708 36050
shrinkage=0.03


Tree=7
num_leaves=31
num_cat=0
split_feature=283 12 198 0 5 4 4 0 164 635 537 5 113 0 137 305 484 483 645 2 480 129 14 577 212 6 642 236 256 313
split_gain=12329.3 4016.01 3365.82 2045.28 1946.74 1379.18 1272.94 1243.54 1044.77 690.773 677.225 676.868 606.423 564.452 441.927 406.175 405.513 320.794 367.813 314.742 306.02 303.492 302.663 504.149 287.422 284.773 283.171 278.077 381.099 266.674
threshold=1.0000000180025095e-35 1.0000000180025095e-35 -0.00040725813860889478 1.7005986908310777 5.6784281396601708 3.2384861814448418 1.0000000180025095e-35 1.2424533248940004 -0.91941814467806215 1.0000000180025095e-35 1.0000000180025095e-35 1.2424533248940004 1.0000000180025095e-35 0.89587973461402759 -1.0000000180025095e-35 -0.032923030165564922 1.0000000180025095e-35 1.0000000180025095e-35 1.0000000180025095e-35 2.6735537653587347 1.0000000180025095e-35 -0.076177687435435015 6.7267846571182277 1.0000000180025095e-35 2.1564927609500706 1.8688348091416842 1.0000000180025095e-35 3.5508747234261895 1.7831811939261193 6.9537232767943911
decision_type=10 10 10 10 8 10 10 8 8 2 2 8 10 8 8 10 2 2 2 10 2 10 2 2 8 10 2 10 10 8
left_child=1 2 4 6 8 -5 13 11 15 19 16 24 22 -3 17 -1 -6 27 -19 -8 -14 -13 -4 -24 29 -22 -12 -10 -29 -2
right_child=7 3 12 5 10 -7 9 -9 14 -11 26 21 20 -15 -16 -17 -18 18 -20 -21 25 -23 23 -25 -26 -27 -28 28 -30 -31
leaf_value=0.0010557312742588854 0.020824418577478663 0.043951442038728868 0.020858890755658128 0.1308026217720123 0.096693136411502886 0.01653212187478733 -0.0094580369376469874 0.12184273934471362 -0.017449467405483962 0.23166655042353229 0.0072291259275602928 0.11028268333098167 0.040284109010467722 0.13557596380029932 -0.024817445572660513 0.04443915599755293 0.028083278117292439 -0.0026753343214580769 0.14733176288469121 0.17064405362227458 0.089056454348714759 0.021327767433806946 -0.022337233195613145 0.18776098615315884 0.43443924721277444 0.23733014066646088 0.15132354501430595 0.039599960171640823 0.64297507411932686 0.35511155942986544
leaf_count=21875 6122 5060 26929 2681 2455 2825 20342 4852 181022 175 22245 1914 2939 1096 230412 6573 2777 42755 198 62 2698 885 430 545 24 214 277 95 32 31
internal_value=0 -0.205464 -0.339682 1.39183 -0.472 3.17867 0.603318 3.14834 -0.571432 -0.116321 0.762779 1.97726 1.13232 2.35846 -0.645592 0.388564 2.02871 -0.466934 -0.0350721 -0.239731 2.40584 3.17307 0.79793 3.41545 0.86696 3.38039 0.309845 -0.575108 7.1722 0.786493
internal_count=590540 576712 544471 32241 510716 5506 26735 13828 482962 20579 27754 8976 33755 6156 454514 28448 5232 224102 42953 20404 5851 2799 27904 975 6177 2912 22522 181149 127 6153
shrinkage=0.03


Tree=8
num_leaves=31
num_cat=0
split_feature=155 186 5 12 0 164 562 0 483 10 164 5 4 256 186 580 47 169 511 483 539 463 14 94 14 111 558 559 4 449
split_gain=11004.8 3660.55 2493.59 1381.14 1278.07 797.565 779.627 682.212 660.918 516.195 496.38 476.495 466.559 429.259 745.519 392.598 383.476 371.47 433.36 363.732 341.001 328.322 326.336 314.259 298.177 294.595 287.464 284.605 281.999 276.46
threshold=1.0000000180025095e-35 -0.032786012354652824 6.4792771020676119 0.89587973461402759 0.89587973461402759 -0.93545508048086268 1.0000000180025095e-35 1.8688348091416842 1.0000000180025095e-35 1.0000000180025095e-35 -0.80181394879085832 0.89587973461402759 2.602003343538398 1.7831811939261193 0.51594301233601902 1.0000000180025095e-35 -0.69959846418493943 1.0000000180025095e-35 1.0000000180025095e-35 1.0000000180025095e-35 1.0000000180025095e-35 1.0000000180025095e-35 4.3175281119363964 -2.6494737384865052 5.8141454569754396 0.07716109821046363 1.0000000180025095e-35 1.0000000180025095e-35 1.0000000180025095e-35 1.0000000180025095e-35
decision_type=10 8 8 10 8 8 2 10 2 10 10 8 10 8 10 2 10 10 2 2 2 2 2 8 2 8 2 2 10 2
left_child=1 2 3 5 11 22 25 28 13 21 27 -2 -9 17 26 19 20 29 -19 -7 -11 -10 -1 -21 -25 -4 -15 -6 -5 -3
right_child=4 8 6 7 10 15 -8 12 9 16 -12 -13 -14 14 -16 -17 -18 18 -20 23 -22 -23 -24 24 -26 -27 -28 -29 -30 -31
leaf_value=-0.0052396029191073548 0.010638574945125804 0.0051947968982144306 0.062172789838210459 0.1226725255103549 0.10596375020655543 -0.017549963916106713 0.067943638911457521 0.12304337754677334 0.01911277881293897 0.099464611532268599 0.015627854777870404 0.069619568237077295 0.022348006244183313 0.023586860278739911 0.28267897956232263 -0.024327118166607813 0.014412948261940305 0.047052780717512677 0.66192923801826209 0.10823118025470027 -0.0036853932630254611 0.11930390655417722 0.036190325504095823 -0.006005863629197329 0.048127234330284263 0.0076081239291137907 0.1202949113373762 0.029681346818785679 -0.00035913085619746377 0.22616369138059467
leaf_count=10037 6652 40815 2037 380 6593 173652 5362 817 10017 4403 1051 2683 1539 3224 143 236732 1819 4093 24 353 585 637 7937 37377 3173 19010 700 492 8111 92
internal_value=0 -0.223336 -0.414507 -0.530384 2.58435 -0.587422 0.973831 1.1622 0.82086 1.55664 3.22723 1.26777 2.74313 0.504179 1.93081 -0.642344 2.4253 0.352422 1.68315 -0.46517 2.94501 0.859836 0.461778 0.00811864 -0.0591933 0.467797 1.40724 3.40811 0.236401 0.196686
internal_count=590540 573069 506517 480108 17471 469261 26409 10847 66552 17461 8136 9335 2356 49091 4067 451287 6807 45024 4117 214555 4988 10654 17974 40903 40550 21047 3924 7085 8491 40907
shrinkage=0.03


Tree=9
num_leaves=31
num_cat=0
split_feature=155 186 5 12 0 164 8 0 164 483 1 214 109 5 9 2 256 194 580 177 483 173 301 5 415 10 550 164 405 257
split_gain=9899.45 3427.42 2346.2 1300.93 1072.89 768.542 682.878 616.223 600.701 576.895 437.579 462.359 429.454 409.682 380.574 568.809 615.468 463.249 379.683 364.525 352.698 330.824 831.564 326.677 310.691 810.759 396.068 344.792 332.471 461.784
threshold=1.0000000180025095e-35 -0.032786012354652824 6.4792771020676119 0.89587973461402759 0.89587973461402759 -0.9301094352132625 6.9622430158902029 1.0000000180025095e-35 -0.91941814467806215 1.0000000180025095e-35 1.2424533248940004 -0.51701851028107593 -0.014097981321897832 0.89587973461402759 5.344720891341141 1.0000000180025095e-35 1.7831811939261193 2.886406277952811 1.0000000180025095e-35 -1.0000000180025095e-35 1.0000000180025095e-35 2.4066502834273611 0.15447149086239395 1.0000000180025095e-35 1.0000000180025095e-35 2.3502401828962087 1.0000000180025095e-35 -0.93545508048086268 1.0000000180025095e-35 1.0000000180025095e-35
decision_type=10 8 8 10 8 8 8 8 10 2 8 10 10 8 8 10 8 10 2 8 2 10 8 8 2 10 2 10 2 10
left_child=1 2 3 5 13 -1 7 -4 -5 14 -11 -12 -6 -2 -3 21 17 24 20 -18 -7 -16 -23 -19 27 26 -26 -17 -29 -30
right_child=4 9 6 8 12 18 -8 -9 -10 10 11 -13 -14 -15 15 16 19 23 -20 -21 -22 22 -24 -25 25 -27 -28 28 29 -31
leaf_value=0.011898922630659168 0.010218227083106327 -0.009741776125970724 0.032136057179949017 0.065308605798338581 0.094342187470603495 -0.017453296480678525 0.002704146158467498 0.10025396743842636 -0.0020196018309051418 0.010299122025862466 0.074960349021432324 0.020509832331245922 0.025732769986390507 0.064032139106637964 0.0043703597222544584 0.055922524751701772 0.027625316995401925 0.14801224928200318 -0.024167487679983061 0.17135669879980858 0.00016153731335191669 -0 0.53774565133925156 0.032763524159150452 0.042522520352851735 0.57780537952640809 0.62124533913829261 -0.0068961262059168841 0.56066805261703356 -0.028936523960204869
leaf_count=20005 6652 11811 10475 4093 6873 172596 14438 1496 6754 5872 7100 4489 1263 2683 22794 2674 466 826 236048 691 40612 233 95 753 816 77 27 7712 50 66
internal_value=0 -0.218491 -0.407243 -0.522622 2.38662 -0.579542 0.920591 1.59243 1.09948 0.778494 1.44979 1.89533 2.95382 1.19284 0.481942 0.716488 1.44533 1.08952 -0.637375 4.175 -0.461656 0.215476 5.35677 3.17594 0.69369 3.53421 2.07571 0.461669 -0.10093 8.18514
internal_count=590540 573069 506517 480108 17471 469261 26409 11971 10847 66552 17461 11589 8136 9335 49091 37280 14158 13001 449256 1157 213208 23122 328 1579 11422 920 843 10502 7828 116
shrinkage=0.03


Tree=10
num_leaves=31
num_cat=0
split_feature=283 12 198 5 0 4 4 164 0 635 537 583 23 460 137 483 415 13 475 571 272 217 47 4 15 484 186 483 645 270
split_gain=9011.74 3236.15 2797.9 1644.86 1379.61 973.796 949.715 936.316 780.207 536.096 499.729 465.306 437.832 487.274 432.769 416.903 357.933 491.338 523.569 356.983 353.784 339.686 325.325 320.343 315.629 303.719 291.917 289.209 285.854 277.401
threshold=1.0000000180025095e-35 1.0000000180025095e-35 -0.00040725813860889478 5.6784281396601708 1.7005986908310777 1.0000000180025095e-35 3.2384861814448418 -0.91941814467806215 1.2424533248940004 1.0000000180025095e-35 1.0000000180025095e-35 1.0000000180025095e-35 -0.08366214324955483 1.0000000180025095e-35 -1.0000000180025095e-35 1.0000000180025095e-35 1.0000000180025095e-35 1.7005986908310777 1.0000000180025095e-35 1.0000000180025095e-35 1.0000000180025095e-35 -0.0064095266224779368 -0.69959846418493943 2.1383330595080281 4.4248287033199567 1.0000000180025095e-35 0.20728293594751609 1.0000000180025095e-35 1.0000000180025095e-35 1.3425938055917441
decision_type=10 10 10 8 10 10 10 8 8 2 2 2 8 2 8 2 2 10 2 2 10 10 10 10 10 2 10 2 2 10
left_child=1 2 3 7 5 20 -6 21 12 -7 25 15 -2 -14 27 16 19 18 29 23 -3 -1 -17 -4 -21 -5 -26 -9 -29 -18
right_child=8 4 11 10 6 9 -8 14 -10 -11 -12 -13 13 -15 -16 22 17 -19 -20 24 -22 -23 -24 -25 26 -27 -28 28 -30 -31
leaf_value=-0.0010525383603748753 0.11241454193992222 0.080327574032202642 0.029319056761917386 0.078061541945510252 0.10174232560522083 -0.0074130119375073814 0.012175147476768662 -0.016569435362018374 0.09398636020559635 0.18382487315275253 0.0075530298143321505 -0.0069365715520512648 0.0050777627166387774 0.064804026080744023 -0.024333821633137361 0.07983490561703295 0.016454285182094998 0.21023524770654445 0.38214364134637313 0.02118390517873665 0.014461073953844505 0.035112132877593023 0.015358499649974464 -0.011604931188596462 0.062821685084398962 0.022242402974806688 0.21813821026580277 -0.0026700436125680722 0.11969132208925856 0.24144906778982803
leaf_count=20240 751 3834 8602 2455 2681 20404 2825 181149 4852 175 22522 6520 4571 3654 230412 4508 1842 281 86 1136 2322 8208 1990 7836 577 2777 287 42755 198 90
internal_value=0 -0.193416 -0.321428 -0.45079 1.18106 0.523509 2.5204 -0.549056 2.47944 -0.12811 0.64413 0.964006 1.5967 1.24266 -0.623871 1.21699 0.849146 2.54292 1.53505 0.613967 1.94486 0.343008 2.11058 0.366143 2.43871 1.65625 4.37299 -0.445247 -0.0374217 1.01065
internal_count=590540 576712 544471 510716 32241 26735 5506 482962 13828 20579 27754 33755 8976 8225 454514 27235 20737 2299 2018 18438 6156 28448 6498 16438 2000 5232 864 224102 42953 1932
shrinkage=0.03


Tree=11
num_leaves=31
num_cat=0
split_feature=283 12 217 5 164 0 164 0 137 4 537 5 432 483 198 147 14 14 257 235 577 455 484 256 4 0 177 205 214 414
split_gain=8149.51 3006.67 2639.55 1729.94 1240.54 847.846 690.806 674.745 571.845 514.626 409.108 399.628 398.235 379.001 349.485 334.474 312.063 699.944 318.833 269.932 259.85 256.822 250.89 242.977 242.799 481.78 228.644 227.777 218.287 361.208
threshold=1.0000000180025095e-35 1.0000000180025095e-35 0.0042958470921656425 5.6784281396601708 -0.89803556360766146 0.89587973461402759 -0.89268991834006128 1.2424533248940004 -1.0000000180025095e-35 0.89587973461402759 1.0000000180025095e-35 1.2424533248940004 1.0000000180025095e-35 1.0000000180025095e-35 0.041898501433560963 2.1932288163355662 6.7267846571182277 6.9017422368123595 1.5423268738566187 0.82573942640950504 1.0000000180025095e-35 1.0000000180025095e-35 1.0000000180025095e-35 1.7831811939261193 5.1845846780664209 2.1383330595080281 -1.0000000180025095e-35 -0.38819380415758625 1.3478124402107741 1.0000000180025095e-35
decision_type=10 10 10 8 10 8 8 8 8 10 2 8 2 2 10 8 2 2 10 8 2 2 2 10 10 10 8 8 10 2
left_child=1 2 3 8 5 -3 16 11 13 -7 22 -2 15 27 -8 -6 18 20 -4 -17 -18 -15 -5 28 25 -11 -25 -1 -16 -30
right_child=7 4 6 10 12 9 14 -9 -10 24 -12 -13 -14 21 23 19 17 -19 -20 -21 -22 -23 -24 26 -26 -27 -28 -29 29 -31
leaf_value=-0.0019572922359706204 0.01992450842667489 0.017411650248475352 0.031527747524187723 0.071078367430374434 -0.0091620973663667487 0.10449007240085753 -0.0032699922570624978 0.086839911444942686 -0.023908673814739691 0.017281117913603265 0.00857514758647928 0.06905701110991215 0.17455981351277003 -0.0002938208061263172 0.015539730639751774 0.63178540249560466 -0.029455471552278806 -0.003612857607579806 0.089980165605285392 0.052061786827991507 0.27837750866675787 0.068035661191831104 0.021327624648436648 0.00827399018220327 0.0095377128989781075 0.095018002077337599 0.14590646489646836 -0.017926587919400008 0.060105134337400119 0.38695029499507777
leaf_count=28982 6177 9899 12898 2455 14538 2456 27036 4852 231372 2324 21558 2799 111 43490 12184 29 60 418 1477 36 313 1134 2766 362 1687 1161 273 156673 974 46
internal_value=0 -0.189234 -0.315018 -0.471817 1.11896 1.74359 0.694833 2.30358 -0.577975 2.42796 0.65752 1.49457 -0.12002 -0.379936 0.304414 -0.244971 1.48487 4.11354 1.32407 10.2934 7.98718 0.0691764 1.54582 0.867997 1.69924 2.14255 3.08506 -0.501756 0.694898 2.79482
internal_count=590540 576712 544471 488430 32241 17527 56041 13828 461651 7628 26779 8976 14714 230279 40875 14603 15166 791 14375 65 373 44624 5221 13839 5172 3485 635 185655 13204 1020
shrinkage=0.03


Tree=12
num_leaves=31
num_cat=0
split_feature=155 186 5 12 0 164 562 5 277 0 2 4 235 580 483 483 67 0 4 514 555 6 503 14 581 164 10 94 299 121
split_gain=7435.6 2894.8 1986.04 1085.13 742.853 702.348 535.737 477.329 443.823 434.56 397.73 582.835 373.338 361.012 305.845 302.28 301.224 306.381 297.935 283.113 277.136 375.322 321.885 270.173 366.639 266.241 283.686 245.662 245.28 244.036
threshold=1.0000000180025095e-35 -0.032786012354652824 6.4792771020676119 0.89587973461402759 1.4978661367769956 -0.91941814467806215 1.0000000180025095e-35 1.4978661367769956 1.0000000180025095e-35 1.8688348091416842 1.0000000180025095e-35 3.5972184255501678 1.3512345284374034 1.0000000180025095e-35 1.0000000180025095e-35 1.0000000180025095e-35 1.8362085998230273 1.0000000180025095e-35 1.8688348091416842 1.0000000180025095e-35 1.0000000180025095e-35 0.89587973461402759 1.0000000180025095e-35 6.6508157059703743 1.0000000180025095e-35 -0.91941814467806215 0.89587973461402759 -2.6494737384865052 -0.067560067986466452 2.3267084974138297
decision_type=10 8 8 10 8 8 2 8 10 10 10 10 10 2 2 2 8 10 10 2 2 10 2 2 2 10 10 8 10 10
left_child=1 2 3 5 7 15 -4 -2 10 -5 12 16 -3 14 29 -1 19 -18 -11 25 -13 -22 -23 -17 -25 26 -12 -16 -9 -7
right_child=4 8 6 9 -6 13 -8 28 -10 18 11 20 -14 -15 27 23 17 -19 -20 -21 21 22 -24 24 -26 -27 -28 -29 -30 -31
leaf_value=-0.0011618861056177097 0.018364098729517851 0.0069204191981417492 0.011203300452056364 0.0052881102069504476 0.078186385836095745 -0.017115561867381172 0.053255626497241429 0.068842647151690722 -0.011222167270294325 0.10359358963883075 0.036016568248967276 -0.013659404700057375 0.047649680889573921 -0.02372493915453501 0.088730117769579397 0.031061656652087734 0.0061351767405597385 0.12118576456362178 0.030270514741281992 0.29092438662380327 0.29305914268285527 -0.0085744970038871705 0.24169412717245434 -0.013704451603725716 0.31415275579209118 0.025093961108337171 0.087047894467665976 -0.0022699340243439391 -0.010514496119421733 0.18363246927221649
leaf_count=17972 9176 28258 21047 8491 4643 170469 5362 3134 9268 547 4518 5660 4258 234704 348 5456 554 1016 1809 81 102 659 51 120 137 9965 2162 39863 518 192
internal_value=0 -0.204537 -0.387058 -0.500693 1.94234 -0.556886 0.793396 1.31081 0.684178 0.929138 0.822084 1.23288 0.461985 -0.619817 -0.445391 0.301881 1.59457 3.12015 2.0601 1.39251 -0.0493 2.42029 1.1037 1.30171 5.82136 1.3528 1.9522 -0.0106763 2.06285 -0.562777
internal_count=590540 573069 506517 480108 17471 469261 26409 12828 66552 10847 57284 24768 32516 445576 210872 23685 18296 1570 2356 16726 6472 812 710 5713 257 16645 6680 40211 3652 170661
shrinkage=0.03


Tree=13
num_leaves=31
num_cat=0
split_feature=283 12 217 5 164 0 113 0 5 137 509 623 483 4 198 326 272 559 214 10 147 455 577 14 400 460 236 483 214 6
split_gain=6835.39 2630.37 2412.41 1586.61 1036.72 678.244 604.187 563.099 500.78 465.195 392.895 341.451 331.027 327.173 320.521 251.758 244.084 236.23 233.953 301.13 232.466 223.728 218.188 233.518 214.055 213.669 207.27 205.264 198.225 292.649
threshold=1.0000000180025095e-35 1.0000000180025095e-35 -0.018749663757742004 5.6784281396601708 -0.89803556360766146 1.2424533248940004 1.0000000180025095e-35 0.89587973461402759 3.0677824455408698 -1.0000000180025095e-35 1.0000000180025095e-35 1.0000000180025095e-35 1.0000000180025095e-35 1.0000000180025095e-35 0.041898501433560963 -1.0000000180025095e-35 1.0000000180025095e-35 1.0000000180025095e-35 -0.29541303858585616 1.0000000180025095e-35 2.1932288163355662 1.0000000180025095e-35 1.0000000180025095e-35 6.7267846571182277 1.0000000180025095e-35 1.0000000180025095e-35 3.5508747234261895 1.0000000180025095e-35 1.3478124402107741 1.4978661367769956
decision_type=10 10 10 8 10 8 10 8 10 8 2 2 2 10 10 8 10 2 10 8 8 2 2 2 2 2 10 2 8 10
left_child=1 2 3 9 5 13 14 15 -7 12 20 -5 26 16 -4 25 -3 -9 19 -8 24 -14 -16 28 -6 -2 -1 -13 -24 -30
right_child=7 4 6 11 10 8 18 17 -10 -11 -12 27 21 -15 22 -17 -18 -19 -20 -21 -22 -23 23 -25 -26 -27 -28 -29 29 -31
leaf_value=-0.015860237488721219 0.0045885634391330992 0.06352730004459789 0.00069779838482318755 0.0092508126531177029 -0.010541959067848872 0.081404076130638159 0.029121546540729168 0.076250611718875969 0.009414011930855358 -0.023746087125010973 0.156336792957052 0.02269970173641957 -0.0015504914711441929 -0.0047159693684610026 0.0024602753360773088 0.10009107802488303 0.0065570539840838112 0.013122273685391986 -0.0012744478490049542 0.074965383967532759 0.21801977292835537 0.061529471836792728 0.023923704121328444 0.11264489524652695 0.38738804895001144 0.048463038704252129 0.17645868971170175 0.073048732913733441 0.13683713511622217 -0.019624696642253105
leaf_count=176771 4053 3158 45028 21699 14457 3798 5638 6200 1772 227059 156 2189 41617 6611 5857 465 2188 523 2030 3888 65 1075 8409 485 36 2587 116 1628 609 373
internal_value=0 -0.181523 -0.303133 -0.479785 1.01712 1.56349 0.530405 2.03398 2.29043 -0.588099 -0.124289 0.603749 -0.401981 0.732929 0.290424 1.09054 1.43287 2.42994 1.4095 1.67162 -0.261262 0.0268948 0.823596 1.2155 -0.320222 0.838701 -0.522212 1.5453 1.02767 2.91464
internal_count=590540 576712 544471 472154 32241 17527 72317 13828 5570 446638 14714 25516 219579 11957 60761 7105 5346 6723 11556 9526 14558 42692 15733 9876 14493 6640 176887 3817 9391 982
shrinkage=0.03


Tree=14
num_leaves=31
num_cat=0
split_feature=155 186 5 12 0 164 0 111 5 195 5 137 2 4 235 14 416 147 504 415 4 460 555 225 13 360 14 214 0 158
split_gain=6259.93 2595.81 1781.56 966.796 612.426 603.617 595.716 469.051 395.477 384.546 381.815 376.111 360.911 506.474 313.711 302.533 327.582 291.928 291.099 614.574 282.157 276.596 247.525 256.692 244.644 316.799 237.811 236.572 235.691 224.098
threshold=1.0000000180025095e-35 -0.032786012354652824 6.4792771020676119 1.0000000180025095e-35 1.4978661367769956 -0.94080072574846285 1.4978661367769956 0.07716109821046363 1.4978661367769956 1.0000000180025095e-35 1.2424533248940004 -1.0000000180025095e-35 1.0000000180025095e-35 3.6505739029280164 1.3512345284374034 5.9660826324501004 1.0000000180025095e-35 1.7834328619447903 1.0000000180025095e-35 1.0000000180025095e-35 1.0000000180025095e-35 1.0000000180025095e-35 1.0000000180025095e-35 -1.0000000180025095e-35 2.1383330595080281 -0.042269459623354051 4.6545837708663731 1.7617547363961845 1.0000000180025095e-35 1.7157866005397022
decision_type=10 8 8 10 8 8 10 8 8 10 10 8 10 10 10 2 2 8 2 2 10 2 2 8 10 10 2 10 10 10
left_child=1 2 3 5 8 26 17 -4 -2 12 -8 15 14 24 -3 -7 -17 20 -11 -20 -5 -9 -15 -24 25 -14 -1 -26 -18 -16
right_child=4 9 7 6 -6 11 10 21 -10 18 -12 -13 13 22 29 16 28 -19 19 -21 -22 -23 23 -25 27 -27 -28 -29 -30 -31
leaf_value=-0.0027741310198238374 0.01618729831351861 0.0059719765469646961 0.059249306708798861 0.044831260715303453 0.069316672969068932 -0.01452989727207782 0.10001852249211195 0.0049034757949265361 0.054771885193947031 -0.015274750916459166 0.026155699720817063 -0.023778710993240835 0.049176849485862477 -0.015341081339338937 0.036848546264914413 0.011426723099891617 0.32993771489271767 0.18855279200836181 -0.022548437916784573 0.60760310860606381 -0.012511227391361993 0.040189235006537885 0.14494331984808131 -0.0030900447183376265 0.11301788931760927 0.0062637630907199197 0.03581111940500474 0.5125847526138233 -0.0088128083886120524 0.187564991566919
leaf_count=9590 9176 28438 3497 2267 4643 206110 849 19525 3652 8806 2715 227555 14224 5410 4163 9902 142 173 107 51 15355 3387 266 559 255 4129 5360 26 90 118
internal_value=0 -0.195572 -0.373886 -0.486203 1.72646 -0.557776 0.541916 0.721135 1.16668 0.631105 1.75746 -0.607969 0.75264 1.13401 0.413214 -0.433571 0.558175 -0.031082 -0.381421 6.4312 -0.110761 0.443324 -0.0933884 2.11968 1.44807 1.37248 0.42123 4.55781 6.89348 1.4061
internal_count=590540 573069 506517 480108 17471 458749 21359 26409 12828 66552 3564 443799 57588 24869 32719 216244 10134 17795 8964 158 17622 22912 6235 825 18634 18353 14950 281 232 4281
shrinkage=0.03


Tree=15
num_leaves=31
num_cat=0
split_feature=283 186 5 12 164 313 0 164 169 67 10 580 483 14 4 10 360 509 511 574 3 94 14 0 247 326 121 108 357 0
split_gain=5803.12 2347.91 1858.36 1212.39 654.463 541.109 475.265 420.304 394.535 366.21 355.092 348.85 284.467 283.203 264.988 248.391 242.264 223.051 220.651 220.454 217.335 213.54 213.876 213.462 212.26 206.036 200.549 865.17 199.908 193.847
threshold=1.0000000180025095e-35 -0.032786012354652824 6.473118495426589 0.89587973461402759 -0.91941814467806215 -1.0000000180025095e-35 0.89587973461402759 -0.91941814467806215 -1.0000000180025095e-35 1.8362085998230273 0.89587973461402759 1.0000000180025095e-35 1.0000000180025095e-35 5.9134219198087843 1.0000000180025095e-35 1.0000000180025095e-35 -0.4399551986624734 1.0000000180025095e-35 1.0000000180025095e-35 1.0000000180025095e-35 1.7005986908310777 -2.6494737384865052 5.8141454569754396 1.0000000180025095e-35 -0.054224010471829863 -1.0000000180025095e-35 2.3267084974138297 1.2194214198465139 1.8171353896220777 1.0000000180025095e-35
decision_type=10 8 8 10 8 8 8 10 8 10 8 2 2 2 10 8 10 2 2 2 10 8 2 8 10 8 10 10 10 10
left_child=1 2 3 4 14 23 25 -5 9 13 18 12 26 19 -1 -11 17 -12 -10 20 -3 -14 -23 -4 -8 29 -6 -28 -21 -2
right_child=6 8 5 7 11 -7 24 -9 10 15 16 -13 21 -15 -16 -17 -18 -19 -20 28 -22 22 -24 -25 -26 -27 27 -29 -30 -31
leaf_value=0.035070624255996323 0.12130560432095343 0.00080043855523449098 0.029194971712062989 0.0464730457936057 -0.016468066997418679 0.0027067826230664335 0.072286881906060557 -0.0035523466144973537 0.017514601454898665 0.0084897351989496918 0.070341816805753188 -0.023137019846576706 0.078455010602184544 0.043374518989922659 -0.0013721322669101666 0.1027562260090414 0.0054404153944241709 0.25103643023336986 0.28196988666792233 0.023455809296169298 0.054434251190824838 -0.0058501325010581508 0.039245951202620824 0.064333207340685095 0.041242070112578987 0.087248800091099393 -0.029869099164186629 0.81705517585884768 0.12442235299068063 0.01811446580433293
leaf_count=6092 157 42118 9082 4589 170719 15979 4668 7041 8105 759 2576 235550 365 3889 17683 822 994 88 41 7442 519 36867 3105 1832 2055 465 153 39 263 6483
internal_value=0 -0.174044 -0.345977 -0.464699 -0.533091 0.729189 1.81865 0.88734 0.592024 0.408559 1.25054 -0.59701 -0.423994 0.32949 0.287282 2.22243 2.07612 2.50161 0.645582 0.225833 0.0931444 -0.00551084 -0.0697466 1.31432 2.17166 0.97202 -0.541021 5.04556 0.967524 0.744361
internal_count=590540 576712 509096 482203 470573 26893 13828 11630 67616 55812 11804 446798 211248 54231 23775 1581 3658 2664 8146 50342 42637 40337 39972 10914 6723 7105 170911 192 7705 6640
shrinkage=0.03


Tree=16
num_leaves=31
num_cat=0
split_feature=283 277 2 164 5 147 562 483 0 74 5 0 256 229 515 14 23 460 14 45 6 428 47 562 566 10 130 14 460 645
split_gain=5340.9 2254.52 1577.04 1629.53 1054.74 1022.48 666.148 449.931 437.018 343.255 327.403 386.15 307.774 306.606 556.833 306.15 284.156 333.419 272.137 259.311 247.067 258.459 247.082 242.806 227.339 222.556 213.587 210.508 244.061 206.183
threshold=1.0000000180025095e-35 1.0000000180025095e-35 1.0000000180025095e-35 -0.77508572245285745 3.4811217321331038 0.41533642510011259 1.0000000180025095e-35 1.0000000180025095e-35 1.2424533248940004 -1.0000000180025095e-35 1.0000000180025095e-35 1.2424533248940004 1.7831811939261193 3.5858473991862714 1.0000000180025095e-35 6.4985004752973081 -0.08366214324955483 1.0000000180025095e-35 5.9660826324501004 1.7354674970125898 1.2424533248940004 1.0000000180025095e-35 -0.31456421086427416 1.0000000180025095e-35 1.0000000180025095e-35 0.89587973461402759 3.5131538271715628 5.6055630656284157 1.0000000180025095e-35 1.0000000180025095e-35
decision_type=10 10 8 10 8 8 2 2 8 8 10 10 10 10 2 2 8 2 2 10 10 2 8 2 2 10 8 2 2 2
left_child=1 2 4 6 5 13 10 -7 16 26 11 25 -5 18 -15 -9 -2 -18 19 29 -12 22 -22 -6 -21 -4 -8 28 -25 -1
right_child=8 -3 3 12 23 7 9 15 -10 -11 20 -13 -14 14 -16 -17 17 -19 -20 24 21 -23 -24 27 -26 -27 -28 -29 -30 -31
leaf_value=-0.016340040026863258 0.07974874849869884 -0.02236224713095707 0.023626120392562004 -0.0073732151361954037 0.010397908759057425 0.0037815891817301788 0.019953403212889499 0.034713298270836003 0.064839036739398656 0.083420891695373686 -0.003087327514391522 0.096826390855416264 0.088113047831084146 -0.029913999822947301 0.45677608778617462 0.1246740406507538 0 0.045611778771079012 0.014500206112152452 -0.030594904543648271 0.07098484123881417 0.40033042028372956 0.017027686736147893 0.011201850743887548 0.16684896236683364 0.077158189185188075 0.086149971988467772 0.12585300184030176 0.057244524556093232 0.058709429121258642
leaf_count=225036 751 196241 10986 47786 19761 20829 3109 6624 4852 3309 12592 857 399 170 61 482 4571 3654 9054 250 1951 51 8482 3807 109 1120 710 372 1985 579
internal_value=0 -0.170129 0.0510681 0.599414 -0.173676 -0.316321 1.15977 0.554296 1.72071 2.09996 0.83256 1.38757 -0.182216 -0.468367 5.43055 1.46958 1.11192 0.843213 -0.476278 -0.519456 0.46535 0.914434 0.875592 0.641003 2.92598 1.05899 1.19647 1.25137 1.08805 -0.531436
internal_count=590540 576712 380471 91352 289119 263194 43167 27935 13828 7128 36039 12963 48185 235259 231 7106 8976 8225 235028 225974 23076 10484 10433 25925 359 12106 3819 6164 5792 225615
shrinkage=0.03


Tree=17
num_leaves=31
num_cat=0
split_feature=155 186 5 12 164 0 562 0 792 137 4 483 484 1 5 4 214 9 2 194 256 14 147 173 384 115 415 285 4 4
split_gain=4938.62 2220.35 1516.56 843.59 554.639 506.605 456.208 450.796 382.808 349.999 329.261 328.686 260.104 258.147 252.188 247.988 245.645 233.729 317.263 262.641 250.804 233.594 208.753 205.518 200.45 195.603 195.354 326.002 233.114 231.848
threshold=1.0000000180025095e-35 -0.032786012354652824 6.5475022567614491 1.0000000180025095e-35 -0.9301094352132625 2.0126758453675748 1.0000000180025095e-35 1.4978661367769956 1.0000000180025095e-35 -1.0000000180025095e-35 2.602003343538398 1.0000000180025095e-35 1.0000000180025095e-35 1.2424533248940004 2.0126758453675748 1.0000000180025095e-35 -0.51701851028107593 5.344720891341141 1.0000000180025095e-35 3.5276437219979568 1.7831811939261193 4.3175281119363964 2.1932288163355662 2.2688829775629076 1.0000000180025095e-35 1.2410195143811786 1.0000000180025095e-35 1.0000000180025095e-35 3.3140206880897671 2.1383330595080281
decision_type=10 8 8 10 8 8 2 10 2 8 10 2 2 8 8 10 10 8 10 10 8 2 10 10 2 8 2 10 8 10
left_child=1 2 3 4 21 6 14 15 -4 12 -9 17 -6 -13 -2 -5 -15 -3 23 20 26 -1 -17 -19 -24 -8 29 28 -28 -20
right_child=5 11 8 7 9 -7 25 10 -10 -11 -12 13 -14 16 -16 22 -18 18 19 -21 -22 -23 24 -25 -26 -27 27 -29 -30 -31
leaf_value=-0.0080932029946608006 -7.1346369076053808e-05 -0.0092008489251171662 0.009548808204360909 0.042042670631423897 -0.00075148180401426762 0.064616178942236077 0.018969594404003528 0.068669459718887396 0.04510117106221765 -0.023332041059818558 0.0044374768794251734 0.0060798524268277348 -0.016070522447261853 0.050994706510757389 0.038148832692735855 -0.01207859134162028 0.014214251391792375 0.0019592891327499368 0.028451229227988505 0.07210497993255191 0.072657108896052217 0.025393076146231992 0.35969378128153201 0.09713256180164781 -0.0074568687338882429 0.05969428678405328 0.027465562059237742 0.01871213820247505 0.27142493540449097 -0.011715137094225237
leaf_count=10249 6217 11811 21147 2290 41937 3249 2022 1482 5158 226262 2186 5872 171696 7100 1945 15406 4489 22710 5433 1327 935 8605 44 412 55 4038 122 698 114 5529
internal_value=0 -0.182823 -0.35491 -0.464466 -0.535459 1.47819 1.10231 0.475814 0.630945 -0.592183 1.46422 0.564003 -0.420635 1.02392 0.5097 -0.0381504 1.32351 0.342992 0.507576 0.993026 0.747488 0.296621 -0.333376 0.132673 5.89881 1.70254 0.515716 2.45311 6.20125 0.338117
internal_count=590540 573069 506517 480212 458749 17471 14222 21463 26305 439895 3668 66552 213633 17461 8162 17795 11589 49091 37280 14158 12831 18854 15505 23122 99 6060 11896 934 236 10962
shrinkage=0.03


Tree=18
num_leaves=31
num_cat=0
split_feature=283 277 2 164 5 217 562 0 14 74 5 0 256 237 113 6 47 229 515 10 562 45 498 488 247 645 0 236 130 10
split_gain=4599.98 2104.3 1400.52 1398.75 929.064 948.944 552.994 383.149 358.076 282.788 272.551 325.035 260.061 246.011 221.146 214.959 213.771 208.031 528.384 247.165 206.854 205.489 188.563 187.893 187.579 186.807 182.641 179.69 178.551 177.664
threshold=1.0000000180025095e-35 1.0000000180025095e-35 1.0000000180025095e-35 -0.77508572245285745 3.4811217321331038 -0.011404375686564208 1.0000000180025095e-35 0.89587973461402759 5.858261618000121 -1.0000000180025095e-35 1.0000000180025095e-35 1.2424533248940004 1.7831811939261193 1.5633097731737029 -1.0000000180025095e-35 1.2424533248940004 -0.31456421086427416 1.1276112869241426 1.0000000180025095e-35 1.0000000180025095e-35 1.0000000180025095e-35 1.7354674970125898 1.0000000180025095e-35 1.0000000180025095e-35 -0.054224010471829863 1.0000000180025095e-35 1.0000000180025095e-35 3.5508747234261895 3.5131538271715628 0.89587973461402759
decision_type=10 10 8 10 8 10 2 8 2 8 10 10 10 10 8 10 8 10 2 10 2 10 2 2 10 2 10 10 8 10
left_child=1 2 4 6 5 21 10 -2 14 28 11 29 -5 22 17 -12 -17 -7 23 -20 -6 25 -10 -19 -9 27 -15 -1 -8 -4
right_child=7 -3 3 12 20 8 9 24 13 -11 15 -13 -14 26 -16 16 -18 18 19 -21 -22 -23 -24 -25 -26 -27 -28 -29 -30 -31
leaf_value=-0.014930687837374926 0.024762382259039983 -0.021988650804437983 0.021477097534844027 -0.0071277862152485487 0.0093717054241909663 -0.0048207248898077893 0.017953849460955032 0.062613486429603279 0.008130815949208085 0.074617483490212883 -0.0031185709480502657 0.086589661946961979 0.077304677909217745 0.10310152239169304 0.027977676468115584 0.065088314297890346 0.016508152000351259 -0.014267433629459571 -0.028310898149439975 0.35508809445075407 0.03393828391168182 0.07782418274387877 0.19111966002077385 0.39361853658894513 0.034406016466423751 0.055642150992952909 0.014252168796906104 0.1288602262274407 0.076638737988617908 0.067489278054909646
leaf_count=230201 7105 196241 10986 47786 19761 20823 3109 4668 2630 3309 12592 857 399 1166 5833 1961 8523 759 52 98 6164 340 63 24 2055 573 475 157 710 1120
internal_value=0 -0.163008 0.0478933 0.558098 -0.166932 -0.30468 1.06119 1.56233 0.459827 1.89266 0.764965 1.25633 -0.176186 1.62535 0.230004 0.42992 0.838361 -0.0515466 2.33969 9.04475 0.583192 -0.46807 0.567038 0.070403 1.86944 -0.478796 2.68293 -0.491633 1.08484 0.958795
internal_count=590540 576712 380471 91352 289119 263194 43167 13828 31923 7128 36039 12963 48185 4334 27589 23076 10484 21756 933 150 25925 231271 2693 783 6723 230931 1641 230358 3819 12106
shrinkage=0.03


Tree=19
num_leaves=31
num_cat=0
split_feature=283 277 2 164 5 147 562 283 483 227 14 74 577 214 5 0 256 129 185 229 515 792 3 14 622 645 121 340 751 509
split_gain=4258.99 2027.59 1307.44 1278.17 872.643 903.782 492.285 367.699 353.595 345.83 259.084 246.78 244.064 252.412 243.553 287.005 235.61 218.846 206.173 200.695 273.533 198.224 195.548 177.778 229.094 177.194 168.195 167.947 166.721 166.19
threshold=1.0000000180025095e-35 1.0000000180025095e-35 1.0000000180025095e-35 -0.77508572245285745 3.4811217321331038 0.41533642510011259 1.0000000180025095e-35 0.81642807499558712 1.0000000180025095e-35 0.52984844350811211 5.9660826324501004 -1.0000000180025095e-35 1.0000000180025095e-35 -0.61736815784117549 1.0000000180025095e-35 1.2424533248940004 1.7831811939261193 -0.011418210589268752 0.044023126058867205 2.5323176367882163 1.0000000180025095e-35 1.0000000180025095e-35 2.602003343538398 4.8290731602869377 1.0000000180025095e-35 1.0000000180025095e-35 0.34941210970924713 -0.42478365145359248 1.0000000180025095e-35 1.0000000180025095e-35
decision_type=10 10 8 10 8 8 2 10 2 10 2 8 2 10 10 10 10 10 8 10 2 2 10 2 2 2 10 8 2 2
left_child=1 2 4 6 5 10 14 9 -7 -2 17 -8 -10 26 15 -4 27 19 22 25 -21 -6 -16 24 -23 -1 -14 -5 29 -19
right_child=7 -3 3 16 21 8 11 -9 12 -11 -12 -13 13 -15 18 -17 -18 28 -20 20 -22 23 -24 -25 -26 -27 -28 -29 -30 -31
leaf_value=-0.01581015691805001 0.045608286333882787 -0.021785875802098127 0.027235234953978248 0.010560234083430481 0.009495454526738915 0.0035309018192510406 0.030890691388146749 0.057974032433515461 0.0072947688910858293 0.0058671962242055785 0.014522518481997758 0.069643102240089905 0.06191640678633354 -0.0011936863688913688 0.00076460084072617254 0.080534177437779034 0.071684521903318407 -0.024865173058689884 0.04282308441432589 -0.030176302216229207 0.22384898132846709 0.043854655452219088 0.044995437070260838 0.071419408039173279 -0.0078945996101328509 0.051138901149817305 0.14850121200640992 -0.012726022436080625 0.3981856631307289 0.12459832110558501
leaf_count=224826 4992 196241 12106 10028 20006 20829 3819 4543 2999 4293 9064 3309 2723 1157 19803 857 399 336 2307 270 79 2032 966 1488 2399 579 227 37758 21 84
internal_value=0 -0.159337 0.0462406 0.535621 -0.162995 -0.29841 1.00799 1.48743 0.504817 1.0082 -0.447852 1.77902 1.27856 1.87786 0.729363 1.18622 -0.171884 -0.491641 0.412667 -0.50457 3.12488 0.557519 0.208345 1.13935 0.792647 -0.513736 2.40529 -0.232005 2.30082 1.74425
internal_count=590540 576712 380471 91352 289119 263194 43167 13828 27935 9285 235259 7128 7106 4107 36039 12963 48185 226195 23076 225754 349 25925 20769 5919 4431 225405 2950 47786 441 420
shrinkage=0.03


Tree=20
num_leaves=31
num_cat=0
split_feature=283 137 2 164 5 147 562 0 483 14 23 460 448 256 74 577 214 197 504 45 360 126 229 515 792 6 508 389 54 247
split_gain=3948.5 1954.48 1213.07 1162.3 824.265 855.749 446.456 356.15 317.168 245.26 233.693 270.512 225.291 219.505 217.704 209.892 215.438 209.594 232.207 208.988 206.361 182.158 179.71 210.128 176.854 172.651 166.683 467.686 285.273 166.392
threshold=1.0000000180025095e-35 1.0000000180025095e-35 1.0000000180025095e-35 -0.77508572245285745 2.0126758453675748 0.41533642510011259 1.0000000180025095e-35 1.2424533248940004 1.0000000180025095e-35 5.9660826324501004 -0.08366214324955483 1.0000000180025095e-35 1.0000000180025095e-35 1.7831811939261193 -1.0000000180025095e-35 1.0000000180025095e-35 -0.61736815784117549 0.50643648695047438 1.0000000180025095e-35 1.7354674970125898 -0.037590803869952644 11.795243069134338 2.5323176367882163 1.0000000180025095e-35 1.0000000180025095e-35 0.89587973461402759 1.0000000180025095e-35 1.0000000180025095e-35 -1.0000000180025095e-35 -0.054224010471829863
decision_type=10 10 8 10 8 8 2 8 2 2 8 2 2 10 8 2 10 10 2 10 10 8 10 2 2 10 2 2 8 10
left_child=1 2 4 6 5 9 12 10 -7 19 -2 -12 20 26 -8 -10 -17 -3 -19 22 -4 -13 -1 -24 -6 -20 -5 28 -28 -9
right_child=7 17 3 13 24 8 14 29 15 -11 11 21 -14 -15 -16 16 -18 18 25 -21 -22 -23 23 -25 -26 -27 27 -29 -30 -31
leaf_value=-0.015104828333058547 0.066932194621103405 -0.022727889679294556 0.02497559218636286 -0.0079225661840542777 0.0092247523639635686 0.0034176575364659226 0.029327595170495629 0.060690684498930912 0.0070708998615831636 0.013842068034418866 -0.0023933792063066642 0.030736150226917322 0.1518500790341423 0.067852709406955772 0.065246105359231851 0.066042657616525613 -0.00099776638547588621 0.010233542945876251 -0.025767360766032185 0.074079433753373433 -0.0011401941591610701 0.11003802497628361 -0.030133184931920381 0.18549677143060594 0.032277736575476668 0.45738197910927214 0.019107711051152668 0.88392589541317623 0.6374283148499077 0.031399721356552036
leaf_count=226124 751 191840 26794 46534 20191 20917 3819 3514 2990 9036 4571 3469 116 390 3309 2952 1174 3736 29 353 9683 185 270 78 5922 38 375 22 20 1338
internal_value=0 -0.155738 0.0441964 0.513333 -0.158221 -0.29162 0.952827 1.41814 0.482861 -0.439289 0.893477 0.658761 0.689672 -0.173447 1.67594 1.2007 1.73619 -0.72105 0.547978 -0.482615 0.659623 1.23566 -0.494427 2.82573 0.534213 9.47527 -0.23348 3.48536 1.95036 1.80521
internal_count=590540 576712 381069 91062 290007 263894 43721 13828 28033 235861 8976 8225 36593 47341 7128 7116 4126 195643 3803 226825 36477 3654 226472 348 26113 67 46951 417 395 4852
shrinkage=0.03


Tree=21
num_leaves=31
num_cat=0
split_feature=155 186 5 12 164 0 562 580 0 94 483 4 483 14 10 4 5 94 642 9 2 405 194 415 164 257 285 449 539 14
split_gain=3679.17 1870.53 1237.05 692.263 511.911 427.139 363.317 349.628 344.16 314.249 279.232 264.788 244.839 225.042 222.76 209.653 205.495 201.504 196.765 181.861 229.423 232.533 203.38 220.09 236.047 192.189 190.741 185.053 180.027 172.057
threshold=1.0000000180025095e-35 -0.032786012354652824 6.5475022567614491 1.0000000180025095e-35 -0.94080072574846285 2.0126758453675748 1.0000000180025095e-35 1.0000000180025095e-35 1.4978661367769956 0.086113716794084735 1.0000000180025095e-35 2.602003343538398 1.0000000180025095e-35 5.8141454569754396 1.0000000180025095e-35 1.0000000180025095e-35 2.0126758453675748 -2.6494737384865052 1.0000000180025095e-35 5.344720891341141 1.0000000180025095e-35 1.0000000180025095e-35 2.886406277952811 1.0000000180025095e-35 -0.93545508048086268 1.0000000180025095e-35 1.0000000180025095e-35 1.0000000180025095e-35 1.0000000180025095e-35 4.3175281119363964
decision_type=10 8 8 10 8 8 2 2 10 8 2 10 2 2 10 10 8 8 2 8 10 2 10 2 10 10 10 2 2 2
left_child=1 2 3 4 29 6 16 10 15 -4 -6 -10 19 17 -14 -5 -2 -12 -11 27 -21 22 23 24 -22 -23 -25 -3 -16 -1
right_child=5 12 9 8 7 -7 -8 -9 11 18 13 -13 14 -15 28 -17 -18 -19 -20 20 21 25 -24 26 -26 -27 -28 -29 -30 -31
leaf_value=-0.0054362476711538044 -0.0021558303059707115 -0.010137089456137983 0.043177479040532069 0.03616972097775193 -0.015115387132601526 0.055212024401462667 0.042375600209919297 -0.022454416589670772 0.057856762653651875 0.0074288026687441503 0.074034290748065598 0.002100590831265322 0.013926001924680732 0.040652104458261284 0.046491221512054606 -0.010139762812466457 0.031354016195435458 -0.005183991548425821 0.11098617879361618 0.0038381932864614138 0.034871330515741074 0.29568040521003619 0.053582108017810916 0.10636429127638353 -0.0054641930777012257 0.018922235028453024 0.011331355255669001 0.20360295947774959 -0.013802323580071605 0.026346093997378389
leaf_count=8103 6217 11764 3577 2290 171540 3249 6060 232682 1482 22557 317 2186 10654 3217 6082 15505 1945 36043 171 23122 3107 65 1839 394 7947 88 718 47 725 6847
internal_value=0 -0.166701 -0.332063 -0.438046 -0.506884 1.23182 0.900011 -0.558769 0.396913 0.531116 -0.383372 1.2225 0.504483 0.040877 0.887649 -0.0573945 0.382473 -0.100792 0.296933 0.312558 0.451719 0.846526 0.788573 0.533217 0.314969 5.8308 2.11866 -0.276031 1.36144 0.379788
internal_count=590540 573069 506517 480212 458749 17471 14222 443799 21463 26305 211117 3668 66552 39577 17461 17795 8162 36360 22728 49091 37280 14158 14005 12166 11054 153 1112 11811 6807 14950
shrinkage=0.03


Tree=22
num_leaves=31
num_cat=0
split_feature=283 277 2 164 5 217 792 91 147 74 460 5 2 179 416 56 415 543 2 285 202 584 173 438 186 645 562 13 270 130
split_gain=3446.85 1823.43 1086.97 1015.77 724.586 819.438 390.128 326.047 318.459 303 277.878 238.379 275.491 203.63 200.047 188.194 187.501 388.947 446.456 181.764 178.359 169.134 280.132 212.738 294.826 166.142 165.237 164.149 161.216 157.61
threshold=1.0000000180025095e-35 1.0000000180025095e-35 1.0000000180025095e-35 -0.77508572245285745 2.0126758453675748 -0.042719677871898197 1.0000000180025095e-35 1.0000000180025095e-35 1.0873858787275921 -1.0000000180025095e-35 1.0000000180025095e-35 1.0000000180025095e-35 1.2424533248940004 2.2635524616783114 1.0000000180025095e-35 0.77037607516119178 1.0000000180025095e-35 1.0000000180025095e-35 1.4978661367769956 -1.0000000180025095e-35 1.4125852956407063 1.0000000180025095e-35 1.6459351597410306 1.0000000180025095e-35 0.070100679774848143 1.0000000180025095e-35 1.0000000180025095e-35 1.2424533248940004 1.3425938055917441 3.5131538271715628
decision_type=10 10 8 10 8 10 2 10 8 8 2 10 10 10 2 8 2 2 10 8 10 2 10 2 10 2 2 10 10 8
left_child=1 2 4 6 5 25 11 10 21 29 15 12 -4 -9 -10 -2 -5 19 -19 20 -18 -7 -23 24 -24 -1 -6 -14 -13 -8
right_child=7 -3 3 16 26 8 9 13 14 -11 -12 28 27 -15 -16 -17 17 18 -20 -21 -22 22 23 -25 -26 -27 -28 -29 -30 -31
leaf_value=-0.014995216241540989 -0.00051659724337491705 -0.021201322390849542 0.024830625250260224 -0.0079583106606845502 0.0074594915038038844 -0.0088915125922926202 0.010341145713637116 0.053978468767706109 0.023374320848773469 0.064206211057799167 0.041333434155353808 0.0066238317264016387 0.066435215919725413 0.018192380968644024 0.12116682244969514 0.2125475205319895 0.043081191148411649 -0.025561762166070298 0.81621678591712432 -0.0072467901793749111 0.20105442041856017 0.0057302846803227248 -0.00687025601172682 0.16836232607789939 0.18880533689205636 0.050143935516145363 0.028719383792709288 0.20800156731239577 0.051948364457112921 0.0671257330738326
leaf_count=211529 4214 196241 11854 44883 19881 23206 3437 5823 10137 3471 2495 22229 667 1253 192 43 710 40 34 2449 69 16009 1040 306 106 546 6167 96 829 584
internal_value=0 -0.149099 0.0421783 0.480753 -0.152522 -0.281106 0.88436 1.30604 0.265345 1.55546 0.738029 0.642403 1.07789 1.62543 0.888921 0.0672058 -0.162255 1.04398 14.0642 0.790641 2.29936 0.00956907 0.39978 2.55703 1.28016 -0.485418 0.486724 2.57952 0.332502 0.740824
internal_count=590540 576712 380471 91352 289119 263071 43167 13828 50996 7492 6752 35675 12617 7076 10329 4257 48185 3302 74 3228 779 40667 17461 1452 1146 212075 26048 763 23058 4021
shrinkage=0.03


Tree=23
num_leaves=31
num_cat=0
split_feature=283 137 186 5 0 4 164 283 227 0 3 197 4 14 147 50 455 74 504 140 2 164 503 383 225 191 164 623 14 383
split_gain=3207.8 1756.41 1009.56 959.588 662.392 483.681 455.617 323.052 284.005 253.558 221.096 204.722 202.58 200.794 192.469 185.224 236.311 228.182 168.341 159.354 154.577 165.94 163.679 148.617 145.82 145.127 164.44 139.345 160.766 195.388
threshold=1.0000000180025095e-35 1.0000000180025095e-35 -0.032786012354652824 7.0030650455631518 1.8688348091416842 2.524928003624769 -0.90872685414286181 0.81642807499558712 0.52984844350811211 1.0000000180025095e-35 2.3502401828962087 0.50643648695047438 1.0000000180025095e-35 5.8141454569754396 1.0873858787275921 0.75680879105156385 1.0000000180025095e-35 -1.0000000180025095e-35 1.0000000180025095e-35 1.1141633661052202 1.0000000180025095e-35 0.23524123312357573 1.0000000180025095e-35 1.0000000180025095e-35 1.5619843289808448 3.4996525750797032 -0.28863200310124149 1.0000000180025095e-35 5.0103685896443038 1.0000000180025095e-35
decision_type=10 10 8 8 10 10 8 10 10 8 10 10 10 2 10 8 2 8 2 10 10 10 2 2 8 10 10 2 2 2
left_child=1 2 3 4 6 -6 12 8 -2 27 14 -3 -1 15 19 16 17 -8 -13 20 -4 22 -22 -15 -16 -17 -27 28 -5 -30
right_child=7 11 10 9 5 -7 13 -9 -10 -11 -12 18 -14 23 24 25 -18 -19 -20 -21 21 -23 -24 -25 -26 26 -28 -29 29 -31
leaf_value=0.032958555146467221 0.037895167460105197 -0.022189131215982424 0.0040921332806152779 -0.0051330577285796297 0.057696979944332635 0.0011865241715133424 -0.0083580443583455236 0.049829766340547497 0.0029787953753644719 0.042594412922487626 0.054966445419124932 0.01068342033883353 0.00085720577374802463 0.0083131380311704806 0.021718802008597826 -0.016016121053529092 0.085890430336877613 0.048403566060444325 0.2198075665944724 -0.031179290086482032 0.02226048381864441 -0.015397292681333238 0.1371150026327059 0.22248911402337801 0.057607900643116543 -0.028690221767694802 0.31922474786640381 0.029934747445809286 0.012784713334614622 0.079320409032629699
leaf_count=5973 4992 191840 26791 9845 1766 9410 30691 4543 4293 2781 742 3736 14767 11275 8201 223681 299 1440 67 2132 16500 2769 115 85 1193 66 44 3212 6515 776
internal_value=0 -0.145678 0.0402736 -0.121939 -0.255982 0.78246 -0.334641 1.25035 0.818167 0.626832 0.528966 -0.701408 0.373901 -0.419936 0.475436 -0.459132 -0.0448842 -0.132904 0.554883 0.339856 0.388781 0.657423 0.785675 0.341285 0.941447 -0.529024 4.94683 0.406349 0.198766 0.715281
internal_count=590540 576712 381069 322626 299497 11176 288321 13828 9285 23129 58443 195643 20740 267581 57701 256221 32430 32131 3803 48307 46175 19384 16615 11360 9394 223791 110 20348 17136 7291
shrinkage=0.03


Tree=24
num_leaves=31
num_cat=0
split_feature=283 277 2 164 5 217 562 0 14 77 460 229 515 214 15 256 74 448 108 237 314 360 314 247 340 645 504 415 562 126
split_gain=2989.27 1692.56 972.146 885.271 644.715 755.722 340.916 315.134 293.367 200.948 241.086 186.199 202.862 198.507 188.547 175.082 173.436 171.483 165.496 164.188 159.003 157.13 155.876 151.66 150.711 147.005 146.25 233.712 144.202 144.084
threshold=1.0000000180025095e-35 1.0000000180025095e-35 1.0000000180025095e-35 -0.77508572245285745 2.0126758453675748 -0.042719677871898197 1.0000000180025095e-35 1.2424533248940004 5.858261618000121 0.6528236294676022 1.0000000180025095e-35 1.1276112869241426 1.0000000180025095e-35 -0.53374345154109248 1.0000000180025095e-35 1.7831811939261193 -1.0000000180025095e-35 1.0000000180025095e-35 0.11085288271938364 1.5633097731737029 -0.065691765388839057 -0.037590803869952644 0.21404065430191102 -0.054224010471829863 -0.42478365145359248 1.0000000180025095e-35 1.0000000180025095e-35 1.0000000180025095e-35 1.0000000180025095e-35 11.795243069134338
decision_type=10 10 8 10 8 10 2 8 2 10 2 8 2 10 8 10 8 2 8 10 8 10 8 10 8 2 2 2 2 8
left_child=1 2 4 6 5 25 17 9 11 10 -2 13 14 20 18 24 -8 21 -13 -10 -7 -4 -3 -9 -5 -1 -24 -28 -6 -12
right_child=7 22 3 15 28 8 16 23 19 -11 29 12 -14 -15 -16 -17 -18 -19 -20 -21 -22 -23 26 -25 -26 -27 27 -29 -30 -31
leaf_value=-0.014580185382847662 -0.0064660123685556211 -0.022267195098077435 0.021244971877025509 0.010084650313360186 0.0067789676796619182 -0.0025198108619090753 0.024667397050242169 0.052980307953153893 0.012633942716429473 0.054338110804144024 0.024759612487890308 0.47532460705301827 0.15384873170731633 -0.01160607412794667 0.0025826369964497393 0.058216904930321049 0.055743753071472939 0.12425540531243791 -0.025181969069848174 0.060893862031377095 0.020689889526539683 -0.001527736688508848 -0.0018394051801298875 0.025664081992779798 -0.012018398265987882 0.045344285169990825 -0.029341755829512425 0.32770502868091367 0.02636505077526825 0.092115489314832724
leaf_count=211529 4398 186528 26608 10028 19881 12856 3819 3514 2881 1002 3393 26 158 20627 993 399 3309 117 34 1662 11759 9314 9556 1338 37758 546 119 38 6167 183
internal_value=0 -0.142321 0.0396013 0.450685 -0.146592 -0.270652 0.819143 1.19871 0.248842 0.724605 0.492262 0.103943 1.99657 0.0481088 0.707781 -0.15608 1.42927 0.592144 9.19786 1.25238 0.314412 0.565133 -0.692916 1.55965 -0.211944 -0.471787 0.0597894 4.7238 0.447929 1.01052
internal_count=590540 576712 380471 91352 289119 263071 43167 13828 50996 8976 7974 46453 1211 45242 1053 48185 7128 36039 60 4543 24615 35922 196241 4852 47786 212075 9713 157 26048 3576
shrinkage=0.03


Tree=25
num_leaves=31
num_cat=0
split_feature=155 137 186 5 2 155 164 4 0 562 448 10 74 197 14 14 14 4 94 623 455 144 113 3 14 575 0 25 191 474
split_gain=2799.6 1565.51 976.815 808.156 477.03 377.431 374.839 355.939 253.294 234.038 230.871 505.03 202.595 195.093 189.476 182.611 176.317 162.088 156.813 153.996 215.897 148.585 209.333 178.343 157.753 145.857 143.526 149.006 143.156 139.736
threshold=1.0000000180025095e-35 1.0000000180025095e-35 -0.032786012354652824 7.1902991025390088 0.89587973461402759 0.35719181352733126 -0.90872685414286181 1.2424533248940004 0.89587973461402759 1.0000000180025095e-35 1.0000000180025095e-35 1.2424533248940004 2.5695843018532774 0.50643648695047438 5.8141454569754396 6.7267846571182277 4.9280031232190735 1.0000000180025095e-35 -0.32941855489410615 1.0000000180025095e-35 1.0000000180025095e-35 -0.035155283872803429 1.0000000180025095e-35 2.3502401828962087 5.6348074599932376 1.0000000180025095e-35 2.1383330595080281 -0.075317886722121211 3.4996525750797032 1.0000000180025095e-35
decision_type=10 10 8 8 8 10 8 10 8 2 2 8 10 10 2 2 2 10 8 2 2 10 10 10 2 2 8 8 10 2
left_child=1 2 3 4 6 9 15 16 18 26 -9 -12 21 -3 19 17 -6 -1 -5 28 -21 22 23 24 25 -4 27 -2 -8 -24
right_child=5 13 12 8 7 -7 14 10 -10 -11 11 -13 -14 -15 -16 -17 -18 -19 -20 20 -22 -23 29 -25 -26 -27 -28 -29 -30 -31
leaf_value=0.026276358691071134 0.040370716753934041 -0.021803555387271207 0.012723083097592555 0.039385483420058306 0.032556800755768327 0.048190262114254943 -0.016554521720845723 0.0010990090916039141 0.051526334196583722 0.034710586764398081 0.84868419933647798 -0.027568734680148772 0.077939696975258349 0.015859604737374664 0.0096194035143937137 0.092593598060760257 0.1024464505124609 -0.0033788538874322369 0.0079406090594333692 -0.0051114061224624037 0.081714860984152801 -0.015639564069853534 0.035259312627502565 0.055812845476050636 0.030150251735232142 -0.0047111256866329675 0.04019364439934861 -0.0018255812254406845 0.16322116130313633 -0.01564250140380348
leaf_count=5667 867 191840 25130 1985 3463 3528 211389 22389 1071 5815 28 49 298 3803 10744 285 733 13736 19418 28761 259 2760 8066 475 4957 14700 568 6693 70 993
internal_value=0 -0.151883 0.0256086 -0.13813 -0.262572 1.04932 -0.356957 0.381687 0.565328 0.740968 0.0676987 9.57873 0.508032 -0.687644 -0.440405 0.299482 1.51322 0.214383 0.406724 -0.481408 -0.0736316 0.477032 0.525219 0.385414 0.333017 0.227747 0.343407 0.144323 -0.546993 1.03392
internal_count=590540 573069 377426 320047 297573 17471 270911 26662 22474 13943 22466 77 57379 195643 251223 19688 4196 19403 21403 240479 29020 57081 54321 45262 44787 39830 8128 7560 211459 9059
shrinkage=0.03


Tree=26
num_leaves=31
num_cat=0
split_feature=280 277 74 217 5 0 147 109 483 194 754 14 56 145 385 4 533 14 50 455 314 383 467 571 13 15 14 15 14 352
split_gain=2650.82 1660.73 946.877 767.73 1077.28 804.111 287.046 254.425 254.021 201.873 200.177 181.605 175.537 169.607 161.695 155.813 157.695 152.858 178.801 209.031 151.712 151.117 151.112 147.993 143.873 138.916 130.135 129.286 127.416 143.716
threshold=1.0000000180025095e-35 1.0000000180025095e-35 1.4836396982968256 -0.023069167637453956 1.8688348091416842 2.1383330595080281 1.1384115357529874 -0.065010579990235948 1.0000000180025095e-35 0.32145650177222718 1.0000000180025095e-35 6.4905869527718147 5.0501055405123765 1.0000000180025095e-35 1.0000000180025095e-35 2.1383330595080281 1.0000000180025095e-35 5.4686928300974662 1.2380098125106433 1.0000000180025095e-35 0.21404065430191102 1.0000000180025095e-35 1.0000000180025095e-35 1.0000000180025095e-35 0.89587973461402759 3.5114340430413216 5.9134219198087843 6.6352899567741668 4.9492702681019676 7.0910773935223839
decision_type=10 10 10 8 8 10 10 10 2 8 2 2 10 10 2 8 2 2 8 2 8 2 2 2 10 10 2 10 2 10
left_child=1 2 3 4 5 9 12 -2 28 17 -10 -7 22 -4 15 24 -17 18 19 -1 -3 -19 23 -5 26 -25 -8 -27 29 -6
right_child=7 20 13 6 8 11 14 -9 10 -11 -12 -13 -14 -15 -16 16 -18 21 -20 -21 -22 -23 -24 25 -26 27 -28 -29 -30 -31
