tree
version=v2
num_class=1
num_tree_per_iteration=1
label_index=0
max_feature_idx=6584
objective=binary sigmoid:1
feature_names=C1 C10 C11 C12 C13 C14 C2 C3 C4 C5 C6 C7 C8 C9 D1 D10 D11 D12 D13 D14 D15 D2 D3 D4 D5 D6 D7 D8 D9 TransactionAmt TransactionDT V1 V10 V100 V101 V102 V103 V104 V105 V106 V107 V108 V109 V11 V110 V111 V112 V113 V114 V115 V116 V117 V118 V119 V12 V120 V121 V122 V123 V124 V125 V126 V127 V128 V129 V13 V130 V131 V132 V133 V134 V135 V136 V137 V138 V139 V14 V140 V141 V142 V143 V144 V145 V146 V147 V148 V149 V15 V150 V151 V152 V153 V154 V155 V156 V157 V158 V159 V16 V160 V161 V162 V163 V164 V165 V166 V167 V168 V169 V17 V170 V171 V172 V173 V174 V175 V176 V177 V178 V179 V18 V180 V181 V182 V183 V184 V185 V186 V187 V188 V189 V19 V190 V191 V192 V193 V194 V195 V196 V197 V198 V199 V2 V20 V200 V201 V202 V203 V204 V205 V206 V207 V208 V209 V21 V210 V211 V212 V213 V214 V215 V216 V217 V218 V219 V22 V220 V221 V222 V223 V224 V225 V226 V227 V228 V229 V23 V230 V231 V232 V233 V234 V235 V236 V237 V238 V239 V24 V240 V241 V242 V243 V244 V245 V246 V247 V248 V249 V25 V250 V251 V252 V253 V254 V255 V256 V257 V258 V259 V26 V260 V261 V262 V263 V264 V265 V266 V267 V268 V269 V27 V270 V271 V272 V273 V274 V275 V276 V277 V278 V279 V28 V280 V281 V282 V283 V284 V285 V286 V287 V288 V289 V29 V290 V291 V292 V293 V294 V295 V296 V297 V298 V299 V3 V30 V300 V301 V302 V303 V304 V305 V306 V307 V308 V309 V31 V310 V311 V312 V313 V314 V315 V316 V317 V318 V319 V32 V320 V321 V322 V323 V324 V325 V326 V327 V328 V329 V33 V330 V331 V332 V333 V334 V335 V336 V337 V338 V339 V34 V35 V36 V37 V38 V39 V4 V40 V41 V42 V43 V44 V45 V46 V47 V48 V49 V5 V50 V51 V52 V53 V54 V55 V56 V57 V58 V59 V6 V60 V61 V62 V63 V64 V65 V66 V67 V68 V69 V7 V70 V71 V72 V73 V74 V75 V76 V77 V78 V79 V8 V80 V81 V82 V83 V84 V85 V86 V87 V88 V89 V9 V90 V91 V92 V93 V94 V95 V96 V97 V98 V99 dist1 dist2 id_01 id_02 id_03 id_04 id_05 id_06 id_07 id_08 id_09 id_10 id_11 ProductCD_C ProductCD_H ProductCD_R ProductCD_S ProductCD_W card2_100.0 card2_101.0 card2_102.0 card2_103.0 card2_104.0 card2_105.0 card2_106.0 card2_107.0 card2_108.0 card2_109.0 card2_110.0 card2_111.0 card2_112.0 card2_113.0 card2_114.0 card2_115.0 card2_116.0 card2_117.0 card2_118.0 card2_119.0 card2_120.0 card2_121.0 card2_122.0 card2_123.0 card2_124.0 card2_125.0 card2_126.0 card2_127.0 card2_128.0 card2_129.0 card2_130.0 card2_131.0 card2_132.0 card2_133.0 card2_134.0 card2_135.0 card2_136.0 card2_137.0 card2_138.0 card2_139.0 card2_140.0 card2_141.0 card2_142.0 card2_143.0 card2_144.0 card2_145.0 card2_146.0 card2_147.0 card2_148.0 card2_149.0 card2_150.0 card2_151.0 card2_152.0 card2_153.0 card2_154.0 card2_155.0 card2_156.0 card2_157.0 card2_158.0 card2_159.0 card2_160.0 card2_161.0 card2_162.0 card2_163.0 card2_164.0 card2_165.0 card2_166.0 card2_167.0 card2_168.0 card2_169.0 card2_170.0 card2_171.0 card2_172.0 card2_173.0 card2_174.0 card2_175.0 card2_176.0 card2_177.0 card2_178.0 card2_179.0 card2_180.0 card2_181.0 card2_182.0 card2_183.0 card2_184.0 card2_185.0 card2_186.0 card2_187.0 card2_188.0 card2_189.0 card2_190.0 card2_191.0 card2_192.0 card2_193.0 card2_194.0 card2_195.0 card2_196.0 card2_197.0 card2_198.0 card2_199.0 card2_200.0 card2_201.0 card2_202.0 card2_203.0 card2_204.0 card2_205.0 card2_206.0 card2_207.0 card2_208.0 card2_209.0 card2_210.0 card2_211.0 card2_212.0 card2_213.0 card2_214.0 card2_215.0 card2_216.0 card2_217.0 card2_218.0 card2_219.0 card2_220.0 card2_221.0 card2_222.0 card2_223.0 card2_224.0 card2_225.0 card2_226.0 card2_227.0 card2_228.0 card2_229.0 card2_230.0 card2_231.0 card2_232.0 card2_233.0 card2_234.0 card2_235.0 card2_236.0 card2_237.0 card2_238.0 card2_239.0 card2_240.0 card2_241.0 card2_242.0 card2_243.0 card2_244.0 card2_245.0 card2_246.0 card2_247.0 card2_248.0 card2_249.0 card2_250.0 card2_251.0 card2_252.0 card2_253.0 card2_254.0 card2_255.0 card2_256.0 card2_257.0 card2_258.0 card2_259.0 card2_260.0 card2_261.0 card2_262.0 card2_263.0 card2_264.0 card2_265.0 card2_266.0 card2_267.0 card2_268.0 card2_269.0 card2_270.0 card2_271.0 card2_272.0 card2_273.0 card2_274.0 card2_275.0 card2_276.0 card2_277.0 card2_278.0 card2_279.0 card2_280.0 card2_281.0 card2_282.0 card2_283.0 card2_284.0 card2_285.0 card2_286.0 card2_287.0 card2_288.0 card2_289.0 card2_290.0 card2_291.0 card2_292.0 card2_293.0 card2_294.0 card2_295.0 card2_296.0 card2_297.0 card2_298.0 card2_299.0 card2_300.0 card2_301.0 card2_302.0 card2_303.0 card2_304.0 card2_305.0 card2_306.0 card2_307.0 card2_308.0 card2_309.0 card2_310.0 card2_311.0 card2_312.0 card2_313.0 card2_314.0 card2_315.0 card2_316.0 card2_317.0 card2_318.0 card2_319.0 card2_320.0 card2_321.0 card2_322.0 card2_323.0 card2_324.0 card2_325.0 card2_326.0 card2_327.0 card2_328.0 card2_329.0 card2_330.0 card2_331.0 card2_332.0 card2_333.0 card2_334.0 card2_335.0 card2_336.0 card2_337.0 card2_338.0 card2_339.0 card2_340.0 card2_341.0 card2_342.0 card2_343.0 card2_344.0 card2_345.0 card2_346.0 card2_347.0 card2_348.0 card2_349.0 card2_350.0 card2_351.0 card2_352.0 card2_353.0 card2_354.0 card2_355.0 card2_356.0 card2_357.0 card2_358.0 card2_359.0 card2_360.0 card2_361.0 card2_362.0 card2_363.0 card2_364.0 card2_365.0 card2_366.0 card2_367.0 card2_368.0 card2_369.0 card2_370.0 card2_371.0 card2_372.0 card2_373.0 card2_374.0 card2_375.0 card2_376.0 card2_377.0 card2_378.0 card2_379.0 card2_380.0 card2_381.0 card2_382.0 card2_383.0 card2_384.0 card2_385.0 card2_386.0 card2_387.0 card2_388.0 card2_389.0 card2_390.0 card2_391.0 card2_392.0 card2_393.0 card2_394.0 card2_395.0 card2_396.0 card2_397.0 card2_398.0 card2_399.0 card2_400.0 card2_401.0 card2_402.0 card2_403.0 card2_404.0 card2_405.0 card2_406.0 card2_407.0 card2_408.0 card2_409.0 card2_410.0 card2_411.0 card2_412.0 card2_413.0 card2_414.0 card2_415.0 card2_416.0 card2_417.0 card2_418.0 card2_419.0 card2_420.0 card2_421.0 card2_422.0 card2_423.0 card2_424.0 card2_425.0 card2_426.0 card2_427.0 card2_428.0 card2_429.0 card2_430.0 card2_431.0 card2_432.0 card2_433.0 card2_434.0 card2_435.0 card2_436.0 card2_437.0 card2_438.0 card2_439.0 card2_440.0 card2_441.0 card2_442.0 card2_443.0 card2_444.0 card2_445.0 card2_446.0 card2_447.0 card2_448.0 card2_449.0 card2_450.0 card2_451.0 card2_452.0 card2_453.0 card2_454.0 card2_455.0 card2_456.0 card2_457.0 card2_458.0 card2_459.0 card2_460.0 card2_461.0 card2_462.0 card2_463.0 card2_464.0 card2_465.0 card2_466.0 card2_467.0 card2_468.0 card2_469.0 card2_470.0 card2_471.0 card2_472.0 card2_473.0 card2_474.0 card2_475.0 card2_476.0 card2_477.0 card2_478.0 card2_479.0 card2_480.0 card2_481.0 card2_482.0 card2_483.0 card2_484.0 card2_485.0 card2_486.0 card2_487.0 card2_488.0 card2_489.0 card2_490.0 card2_491.0 card2_492.0 card2_493.0 card2_494.0 card2_495.0 card2_496.0 card2_497.0 card2_498.0 card2_499.0 card2_500.0 card2_501.0 card2_502.0 card2_503.0 card2_504.0 card2_505.0 card2_506.0 card2_507.0 card2_508.0 card2_509.0 card2_510.0 card2_511.0 card2_512.0 card2_513.0 card2_514.0 card2_515.0 card2_516.0 card2_517.0 card2_518.0 card2_519.0 card2_520.0 card2_521.0 card2_522.0 card2_523.0 card2_524.0 card2_525.0 card2_526.0 card2_527.0 card2_528.0 card2_529.0 card2_530.0 card2_531.0 card2_532.0 card2_533.0 card2_534.0 card2_535.0 card2_536.0 card2_537.0 card2_538.0 card2_539.0 card2_540.0 card2_541.0 card2_542.0 card2_543.0 card2_544.0 card2_545.0 card2_546.0 card2_547.0 card2_548.0 card2_549.0 card2_550.0 card2_551.0 card2_552.0 card2_553.0 card2_554.0 card2_555.0 card2_556.0 card2_557.0 card2_558.0 card2_559.0 card2_560.0 card2_561.0 card2_562.0 card2_563.0 card2_564.0 card2_565.0 card2_566.0 card2_567.0 card2_568.0 card2_569.0 card2_570.0 card2_571.0 card2_572.0 card2_573.0 card2_574.0 card2_575.0 card2_576.0 card2_577.0 card2_578.0 card2_579.0 card2_580.0 card2_581.0 card2_582.0 card2_583.0 card2_584.0 card2_585.0 card2_586.0 card2_587.0 card2_588.0 card2_589.0 card2_590.0 card2_591.0 card2_592.0 card2_593.0 card2_594.0 card2_595.0 card2_596.0 card2_597.0 card2_598.0 card2_599.0 card2_600.0 card2_nan card3_100.0 card3_101.0 card3_102.0 card3_105.0 card3_106.0 card3_107.0 card3_108.0 card3_109.0 card3_111.0 card3_112.0 card3_113.0 card3_114.0 card3_115.0 card3_116.0 card3_117.0 card3_118.0 card3_119.0 card3_120.0 card3_121.0 card3_122.0 card3_123.0 card3_124.0 card3_125.0 card3_126.0 card3_127.0 card3_128.0 card3_129.0 card3_130.0 card3_131.0 card3_133.0 card3_134.0 card3_135.0 card3_136.0 card3_137.0 card3_138.0 card3_140.0 card3_141.0 card3_142.0 card3_143.0 card3_144.0 card3_145.0 card3_146.0 card3_147.0 card3_148.0 card3_149.0 card3_150.0 card3_151.0 card3_152.0 card3_153.0 card3_155.0 card3_156.0 card3_157.0 card3_158.0 card3_159.0 card3_160.0 card3_161.0 card3_162.0 card3_163.0 card3_164.0 card3_165.0 card3_166.0 card3_167.0 card3_168.0 card3_169.0 card3_171.0 card3_173.0 card3_174.0 card3_175.0 card3_176.0 card3_177.0 card3_179.0 card3_180.0 card3_181.0 card3_182.0 card3_183.0 card3_184.0 card3_185.0 card3_186.0 card3_187.0 card3_188.0 card3_189.0 card3_190.0 card3_191.0 card3_192.0 card3_193.0 card3_194.0 card3_195.0 card3_197.0 card3_198.0 card3_199.0 card3_200.0 card3_201.0 card3_202.0 card3_203.0 card3_204.0 card3_205.0 card3_206.0 card3_207.0 card3_208.0 card3_210.0 card3_211.0 card3_212.0 card3_213.0 card3_214.0 card3_215.0 card3_216.0 card3_217.0 card3_218.0 card3_219.0 card3_220.0 card3_222.0 card3_223.0 card3_224.0 card3_225.0 card3_226.0 card3_227.0 card3_229.0 card3_231.0 card3_nan card4_american_express card4_discover card4_mastercard card4_visa card4_nan card5_100.0 card5_101.0 card5_102.0 card5_104.0 card5_105.0 card5_106.0 card5_107.0 card5_109.0 card5_111.0 card5_112.0 card5_113.0 card5_114.0 card5_116.0 card5_117.0 card5_118.0 card5_119.0 card5_120.0 card5_121.0 card5_122.0 card5_123.0 card5_125.0 card5_126.0 card5_127.0 card5_128.0 card5_129.0 card5_130.0 card5_131.0 card5_132.0 card5_133.0 card5_134.0 card5_135.0 card5_136.0 card5_137.0 card5_138.0 card5_139.0 card5_140.0 card5_141.0 card5_142.0 card5_143.0 card5_144.0 card5_145.0 card5_146.0 card5_147.0 card5_148.0 card5_149.0 card5_150.0 card5_151.0 card5_152.0 card5_153.0 card5_155.0 card5_156.0 card5_157.0 card5_158.0 card5_159.0 card5_160.0 card5_161.0 card5_162.0 card5_163.0 card5_164.0 card5_166.0 card5_167.0 card5_168.0 card5_169.0 card5_170.0 card5_171.0 card5_172.0 card5_174.0 card5_176.0 card5_177.0 card5_179.0 card5_180.0 card5_182.0 card5_183.0 card5_184.0 card5_185.0 card5_186.0 card5_188.0 card5_189.0 card5_190.0 card5_191.0 card5_192.0 card5_194.0 card5_195.0 card5_197.0 card5_198.0 card5_199.0 card5_200.0 card5_201.0 card5_202.0 card5_203.0 card5_204.0 card5_205.0 card5_207.0 card5_210.0 card5_211.0 card5_212.0 card5_213.0 card5_214.0 card5_215.0 card5_216.0 card5_217.0 card5_219.0 card5_220.0 card5_222.0 card5_223.0 card5_224.0 card5_225.0 card5_226.0 card5_227.0 card5_228.0 card5_229.0 card5_230.0 card5_231.0 card5_232.0 card5_233.0 card5_235.0 card5_236.0 card5_237.0 card5_nan card6_charge_card card6_credit card6_debit card6_debit_or_credit card6_nan addr1_100.0 addr1_102.0 addr1_103.0 addr1_104.0 addr1_105.0 addr1_106.0 addr1_110.0 addr1_111.0 addr1_112.0 addr1_113.0 addr1_115.0 addr1_118.0 addr1_119.0 addr1_122.0 addr1_123.0 addr1_125.0 addr1_126.0 addr1_127.0 addr1_130.0 addr1_133.0 addr1_134.0 addr1_141.0 addr1_142.0 addr1_143.0 addr1_144.0 addr1_145.0 addr1_146.0 addr1_148.0 addr1_152.0 addr1_154.0 addr1_155.0 addr1_157.0 addr1_158.0 addr1_159.0 addr1_160.0 addr1_161.0 addr1_167.0 addr1_168.0 addr1_170.0 addr1_171.0 addr1_172.0 addr1_173.0 addr1_174.0 addr1_176.0 addr1_177.0 addr1_178.0 addr1_181.0 addr1_184.0 addr1_191.0 addr1_193.0 addr1_194.0 addr1_197.0 addr1_198.0 addr1_199.0 addr1_201.0 addr1_202.0 addr1_203.0 addr1_204.0 addr1_205.0 addr1_206.0 addr1_208.0 addr1_210.0 addr1_214.0 addr1_215.0 addr1_216.0 addr1_218.0 addr1_220.0 addr1_221.0 addr1_222.0 addr1_223.0 addr1_224.0 addr1_225.0 addr1_226.0 addr1_227.0 addr1_228.0 addr1_231.0 addr1_236.0 addr1_237.0 addr1_239.0 addr1_242.0 addr1_243.0 addr1_246.0 addr1_247.0 addr1_250.0 addr1_251.0 addr1_252.0 addr1_253.0 addr1_254.0 addr1_258.0 addr1_259.0 addr1_260.0 addr1_264.0 addr1_265.0 addr1_266.0 addr1_268.0 addr1_269.0 addr1_270.0 addr1_271.0 addr1_272.0 addr1_273.0 addr1_274.0 addr1_275.0 addr1_276.0 addr1_277.0 addr1_278.0 addr1_284.0 addr1_286.0 addr1_290.0 addr1_294.0 addr1_295.0 addr1_296.0 addr1_297.0 addr1_298.0 addr1_299.0 addr1_300.0 addr1_301.0 addr1_302.0 addr1_303.0 addr1_304.0 addr1_305.0 addr1_307.0 addr1_308.0 addr1_310.0 addr1_311.0 addr1_314.0 addr1_315.0 addr1_318.0 addr1_320.0 addr1_321.0 addr1_322.0 addr1_324.0 addr1_325.0 addr1_327.0 addr1_330.0 addr1_332.0 addr1_333.0 addr1_337.0 addr1_339.0 addr1_341.0 addr1_343.0 addr1_345.0 addr1_346.0 addr1_348.0 addr1_349.0 addr1_350.0 addr1_351.0 addr1_355.0 addr1_356.0 addr1_359.0 addr1_360.0 addr1_361.0 addr1_364.0 addr1_366.0 addr1_369.0 addr1_370.0 addr1_371.0 addr1_372.0 addr1_373.0 addr1_374.0 addr1_375.0 addr1_379.0 addr1_381.0 addr1_384.0 addr1_385.0 addr1_387.0 addr1_391.0 addr1_393.0 addr1_396.0 addr1_399.0 addr1_400.0 addr1_403.0 addr1_404.0 addr1_406.0 addr1_408.0 addr1_409.0 addr1_410.0 addr1_411.0 addr1_418.0 addr1_420.0 addr1_424.0 addr1_426.0 addr1_427.0 addr1_428.0 addr1_429.0 addr1_430.0 addr1_431.0 addr1_432.0 addr1_433.0 addr1_435.0 addr1_436.0 addr1_439.0 addr1_441.0 addr1_442.0 addr1_443.0 addr1_444.0 addr1_445.0 addr1_448.0 addr1_450.0 addr1_452.0 addr1_453.0 addr1_454.0 addr1_456.0 addr1_458.0 addr1_459.0 addr1_464.0 addr1_465.0 addr1_466.0 addr1_468.0 addr1_469.0 addr1_470.0 addr1_471.0 addr1_472.0 addr1_474.0 addr1_476.0 addr1_477.0 addr1_478.0 addr1_479.0 addr1_480.0 addr1_481.0 addr1_482.0 addr1_483.0 addr1_485.0 addr1_486.0 addr1_489.0 addr1_491.0 addr1_492.0 addr1_494.0 addr1_496.0 addr1_497.0 addr1_498.0 addr1_499.0 addr1_500.0 addr1_501.0 addr1_502.0 addr1_503.0 addr1_504.0 addr1_505.0 addr1_507.0 addr1_508.0 addr1_509.0 addr1_511.0 addr1_512.0 addr1_513.0 addr1_514.0 addr1_515.0 addr1_517.0 addr1_518.0 addr1_520.0 addr1_521.0 addr1_523.0 addr1_524.0 addr1_527.0 addr1_528.0 addr1_529.0 addr1_532.0 addr1_535.0 addr1_536.0 addr1_537.0 addr1_540.0 addr1_nan addr2_10.0 addr2_12.0 addr2_13.0 addr2_16.0 addr2_17.0 addr2_18.0 addr2_19.0 addr2_20.0 addr2_21.0 addr2_23.0 addr2_24.0 addr2_26.0 addr2_27.0 addr2_28.0 addr2_29.0 addr2_30.0 addr2_31.0 addr2_32.0 addr2_34.0 addr2_36.0 addr2_38.0 addr2_39.0 addr2_40.0 addr2_41.0 addr2_43.0 addr2_44.0 addr2_45.0 addr2_46.0 addr2_47.0 addr2_48.0 addr2_51.0 addr2_52.0 addr2_53.0 addr2_54.0 addr2_56.0 addr2_57.0 addr2_59.0 addr2_60.0 addr2_61.0 addr2_62.0 addr2_63.0 addr2_65.0 addr2_66.0 addr2_67.0 addr2_68.0 addr2_69.0 addr2_71.0 addr2_72.0 addr2_73.0 addr2_74.0 addr2_76.0 addr2_77.0 addr2_78.0 addr2_79.0 addr2_81.0 addr2_84.0 addr2_86.0 addr2_87.0 addr2_88.0 addr2_90.0 addr2_92.0 addr2_93.0 addr2_94.0 addr2_95.0 addr2_96.0 addr2_97.0 addr2_98.0 addr2_100.0 addr2_101.0 addr2_102.0 addr2_nan P_emaildomain_aim.com P_emaildomain_anonymous.com P_emaildomain_aol.com P_emaildomain_att.net P_emaildomain_bellsouth.net P_emaildomain_cableone.net P_emaildomain_centurylink.net P_emaildomain_cfl.rr.com P_emaildomain_charter.net P_emaildomain_comcast.net P_emaildomain_cox.net P_emaildomain_earthlink.net P_emaildomain_embarqmail.com P_emaildomain_frontier.com P_emaildomain_frontiernet.net P_emaildomain_gmail P_emaildomain_gmail.com P_emaildomain_gmx.de P_emaildomain_hotmail.co.uk P_emaildomain_hotmail.com P_emaildomain_hotmail.de P_emaildomain_hotmail.es P_emaildomain_hotmail.fr P_emaildomain_icloud.com P_emaildomain_juno.com P_emaildomain_live.com P_emaildomain_live.com.mx P_emaildomain_live.fr P_emaildomain_mac.com P_emaildomain_mail.com P_emaildomain_me.com P_emaildomain_msn.com P_emaildomain_netzero.com P_emaildomain_netzero.net P_emaildomain_optonline.net P_emaildomain_outlook.com P_emaildomain_outlook.es P_emaildomain_prodigy.net.mx P_emaildomain_protonmail.com P_emaildomain_ptd.net P_emaildomain_q.com P_emaildomain_roadrunner.com P_emaildomain_rocketmail.com P_emaildomain_sbcglobal.net P_emaildomain_sc.rr.com P_emaildomain_scranton.edu P_emaildomain_servicios-ta.com P_emaildomain_suddenlink.net P_emaildomain_twc.com P_emaildomain_verizon.net P_emaildomain_web.de P_emaildomain_windstream.net P_emaildomain_yahoo.co.jp P_emaildomain_yahoo.co.uk P_emaildomain_yahoo.com P_emaildomain_yahoo.com.mx P_emaildomain_yahoo.de P_emaildomain_yahoo.es P_emaildomain_yahoo.fr P_emaildomain_ymail.com P_emaildomain_nan R_emaildomain_aim.com R_emaildomain_anonymous.com R_emaildomain_aol.com R_emaildomain_att.net R_emaildomain_bellsouth.net R_emaildomain_cableone.net R_emaildomain_centurylink.net R_emaildomain_cfl.rr.com R_emaildomain_charter.net R_emaildomain_comcast.net R_emaildomain_cox.net R_emaildomain_earthlink.net R_emaildomain_embarqmail.com R_emaildomain_frontier.com R_emaildomain_frontiernet.net R_emaildomain_gmail R_emaildomain_gmail.com R_emaildomain_gmx.de R_emaildomain_hotmail.co.uk R_emaildomain_hotmail.com R_emaildomain_hotmail.de R_emaildomain_hotmail.es R_emaildomain_hotmail.fr R_emaildomain_icloud.com R_emaildomain_juno.com R_emaildomain_live.com R_emaildomain_live.com.mx R_emaildomain_live.fr R_emaildomain_mac.com R_emaildomain_mail.com R_emaildomain_me.com R_emaildomain_msn.com R_emaildomain_netzero.com R_emaildomain_netzero.net R_emaildomain_optonline.net R_emaildomain_outlook.com R_emaildomain_outlook.es R_emaildomain_prodigy.net.mx R_emaildomain_protonmail.com R_emaildomain_ptd.net R_emaildomain_q.com R_emaildomain_roadrunner.com R_emaildomain_rocketmail.com R_emaildomain_sbcglobal.net R_emaildomain_sc.rr.com R_emaildomain_scranton.edu R_emaildomain_servicios-ta.com R_emaildomain_suddenlink.net R_emaildomain_twc.com R_emaildomain_verizon.net R_emaildomain_web.de R_emaildomain_windstream.net R_emaildomain_yahoo.co.jp R_emaildomain_yahoo.co.uk R_emaildomain_yahoo.com R_emaildomain_yahoo.com.mx R_emaildomain_yahoo.de R_emaildomain_yahoo.es R_emaildomain_yahoo.fr R_emaildomain_ymail.com R_emaildomain_nan M1_F M1_T M1_nan M2_F M2_T M2_nan M3_F M3_T M3_nan M4_M0 M4_M1 M4_M2 M4_nan M5_F M5_T M5_nan M6_F M6_T M6_nan M7_F M7_T M7_nan M8_F M8_T M8_nan M9_F M9_T M9_nan id_12_Found id_12_NotFound id_12_nan id_13_11.0 id_13_12.0 id_13_13.0 id_13_14.0 id_13_15.0 id_13_16.0 id_13_17.0 id_13_18.0 id_13_19.0 id_13_20.0 id_13_21.0 id_13_22.0 id_13_24.0 id_13_25.0 id_13_26.0 id_13_27.0 id_13_28.0 id_13_30.0 id_13_31.0 id_13_32.0 id_13_33.0 id_13_35.0 id_13_36.0 id_13_37.0 id_13_38.0 id_13_39.0 id_13_41.0 id_13_42.0 id_13_43.0 id_13_44.0 id_13_45.0 id_13_46.0 id_13_47.0 id_13_48.0 id_13_49.0 id_13_51.0 id_13_52.0 id_13_53.0 id_13_54.0 id_13_55.0 id_13_56.0 id_13_57.0 id_13_58.0 id_13_60.0 id_13_61.0 id_13_62.0 id_13_63.0 id_13_64.0 id_13_nan id_14_-660.0 id_14_-600.0 id_14_-540.0 id_14_-480.0 id_14_-420.0 id_14_-360.0 id_14_-300.0 id_14_-240.0 id_14_-210.0 id_14_-180.0 id_14_-120.0 id_14_0.0 id_14_60.0 id_14_120.0 id_14_180.0 id_14_240.0 id_14_270.0 id_14_300.0 id_14_330.0 id_14_360.0 id_14_420.0 id_14_480.0 id_14_540.0 id_14_570.0 id_14_600.0 id_14_720.0 id_14_nan id_15_Found id_15_New id_15_Unknown id_15_nan id_16_Found id_16_NotFound id_16_nan id_17_100.0 id_17_101.0 id_17_102.0 id_17_106.0 id_17_107.0 id_17_108.0 id_17_109.0 id_17_110.0 id_17_111.0 id_17_113.0 id_17_114.0 id_17_116.0 id_17_117.0 id_17_118.0 id_17_119.0 id_17_120.0 id_17_121.0 id_17_122.0 id_17_123.0 id_17_124.0 id_17_125.0 id_17_126.0 id_17_127.0 id_17_128.0 id_17_129.0 id_17_130.0 id_17_131.0 id_17_133.0 id_17_134.0 id_17_135.0 id_17_136.0 id_17_137.0 id_17_138.0 id_17_140.0 id_17_141.0 id_17_142.0 id_17_143.0 id_17_144.0 id_17_145.0 id_17_146.0 id_17_147.0 id_17_148.0 id_17_149.0 id_17_150.0 id_17_151.0 id_17_152.0 id_17_153.0 id_17_155.0 id_17_156.0 id_17_157.0 id_17_158.0 id_17_159.0 id_17_161.0 id_17_162.0 id_17_163.0 id_17_164.0 id_17_165.0 id_17_166.0 id_17_167.0 id_17_168.0 id_17_169.0 id_17_170.0 id_17_171.0 id_17_174.0 id_17_176.0 id_17_177.0 id_17_178.0 id_17_179.0 id_17_180.0 id_17_182.0 id_17_183.0 id_17_184.0 id_17_185.0 id_17_186.0 id_17_188.0 id_17_189.0 id_17_190.0 id_17_191.0 id_17_192.0 id_17_193.0 id_17_194.0 id_17_195.0 id_17_197.0 id_17_198.0 id_17_199.0 id_17_200.0 id_17_201.0 id_17_202.0 id_17_203.0 id_17_204.0 id_17_205.0 id_17_207.0 id_17_208.0 id_17_210.0 id_17_212.0 id_17_213.0 id_17_214.0 id_17_215.0 id_17_216.0 id_17_217.0 id_17_218.0 id_17_222.0 id_17_223.0 id_17_225.0 id_17_226.0 id_17_228.0 id_17_nan id_18_11.0 id_18_12.0 id_18_13.0 id_18_14.0 id_18_15.0 id_18_17.0 id_18_18.0 id_18_20.0 id_18_21.0 id_18_23.0 id_18_24.0 id_18_25.0 id_18_26.0 id_18_27.0 id_18_28.0 id_18_29.0 id_18_nan id_19_100.0 id_19_101.0 id_19_102.0 id_19_103.0 id_19_104.0 id_19_105.0 id_19_106.0 id_19_107.0 id_19_108.0 id_19_109.0 id_19_110.0 id_19_111.0 id_19_112.0 id_19_113.0 id_19_114.0 id_19_116.0 id_19_117.0 id_19_118.0 id_19_119.0 id_19_120.0 id_19_121.0 id_19_122.0 id_19_123.0 id_19_124.0 id_19_125.0 id_19_126.0 id_19_127.0 id_19_128.0 id_19_129.0 id_19_130.0 id_19_131.0 id_19_132.0 id_19_133.0 id_19_134.0 id_19_136.0 id_19_137.0 id_19_138.0 id_19_139.0 id_19_140.0 id_19_141.0 id_19_142.0 id_19_144.0 id_19_145.0 id_19_146.0 id_19_147.0 id_19_148.0 id_19_149.0 id_19_150.0 id_19_151.0 id_19_152.0 id_19_153.0 id_19_154.0 id_19_155.0 id_19_156.0 id_19_157.0 id_19_158.0 id_19_159.0 id_19_160.0 id_19_161.0 id_19_162.0 id_19_163.0 id_19_164.0 id_19_165.0 id_19_166.0 id_19_167.0 id_19_168.0 id_19_169.0 id_19_170.0 id_19_171.0 id_19_173.0 id_19_175.0 id_19_176.0 id_19_177.0 id_19_178.0 id_19_179.0 id_19_180.0 id_19_181.0 id_19_182.0 id_19_183.0 id_19_184.0 id_19_185.0 id_19_186.0 id_19_187.0 id_19_188.0 id_19_189.0 id_19_190.0 id_19_191.0 id_19_192.0 id_19_193.0 id_19_194.0 id_19_195.0 id_19_196.0 id_19_197.0 id_19_199.0 id_19_201.0 id_19_202.0 id_19_203.0 id_19_204.0 id_19_205.0 id_19_207.0 id_19_208.0 id_19_209.0 id_19_210.0 id_19_211.0 id_19_212.0 id_19_213.0 id_19_214.0 id_19_215.0 id_19_216.0 id_19_217.0 id_19_218.0 id_19_219.0 id_19_220.0 id_19_221.0 id_19_222.0 id_19_223.0 id_19_224.0 id_19_225.0 id_19_226.0 id_19_228.0 id_19_229.0 id_19_231.0 id_19_232.0 id_19_233.0 id_19_234.0 id_19_235.0 id_19_236.0 id_19_237.0 id_19_238.0 id_19_239.0 id_19_240.0 id_19_241.0 id_19_242.0 id_19_243.0 id_19_244.0 id_19_245.0 id_19_246.0 id_19_247.0 id_19_248.0 id_19_249.0 id_19_250.0 id_19_251.0 id_19_252.0 id_19_253.0 id_19_254.0 id_19_255.0 id_19_256.0 id_19_257.0 id_19_258.0 id_19_259.0 id_19_260.0 id_19_261.0 id_19_262.0 id_19_263.0 id_19_265.0 id_19_266.0 id_19_267.0 id_19_268.0 id_19_269.0 id_19_270.0 id_19_271.0 id_19_272.0 id_19_273.0 id_19_274.0 id_19_275.0 id_19_276.0 id_19_277.0 id_19_278.0 id_19_279.0 id_19_280.0 id_19_281.0 id_19_282.0 id_19_283.0 id_19_284.0 id_19_286.0 id_19_287.0 id_19_288.0 id_19_289.0 id_19_290.0 id_19_291.0 id_19_292.0 id_19_294.0 id_19_295.0 id_19_296.0 id_19_297.0 id_19_298.0 id_19_299.0 id_19_300.0 id_19_302.0 id_19_303.0 id_19_304.0 id_19_305.0 id_19_306.0 id_19_307.0 id_19_308.0 id_19_309.0 id_19_310.0 id_19_311.0 id_19_312.0 id_19_313.0 id_19_314.0 id_19_315.0 id_19_316.0 id_19_317.0 id_19_318.0 id_19_320.0 id_19_321.0 id_19_322.0 id_19_323.0 id_19_324.0 id_19_325.0 id_19_326.0 id_19_327.0 id_19_328.0 id_19_329.0 id_19_330.0 id_19_331.0 id_19_332.0 id_19_333.0 id_19_334.0 id_19_335.0 id_19_336.0 id_19_337.0 id_19_338.0 id_19_339.0 id_19_340.0 id_19_341.0 id_19_342.0 id_19_343.0 id_19_344.0 id_19_345.0 id_19_346.0 id_19_347.0 id_19_348.0 id_19_349.0 id_19_350.0 id_19_351.0 id_19_352.0 id_19_353.0 id_19_354.0 id_19_355.0 id_19_356.0 id_19_357.0 id_19_358.0 id_19_359.0 id_19_360.0 id_19_362.0 id_19_363.0 id_19_364.0 id_19_365.0 id_19_366.0 id_19_367.0 id_19_368.0 id_19_369.0 id_19_370.0 id_19_371.0 id_19_372.0 id_19_373.0 id_19_374.0 id_19_375.0 id_19_376.0 id_19_377.0 id_19_378.0 id_19_379.0 id_19_380.0 id_19_381.0 id_19_382.0 id_19_383.0 id_19_384.0 id_19_385.0 id_19_386.0 id_19_387.0 id_19_388.0 id_19_389.0 id_19_390.0 id_19_391.0 id_19_392.0 id_19_393.0 id_19_394.0 id_19_395.0 id_19_396.0 id_19_397.0 id_19_398.0 id_19_399.0 id_19_400.0 id_19_401.0 id_19_402.0 id_19_403.0 id_19_404.0 id_19_405.0 id_19_406.0 id_19_407.0 id_19_408.0 id_19_409.0 id_19_410.0 id_19_411.0 id_19_414.0 id_19_415.0 id_19_416.0 id_19_417.0 id_19_418.0 id_19_419.0 id_19_420.0 id_19_421.0 id_19_422.0 id_19_424.0 id_19_425.0 id_19_426.0 id_19_427.0 id_19_428.0 id_19_429.0 id_19_430.0 id_19_431.0 id_19_432.0 id_19_433.0 id_19_434.0 id_19_435.0 id_19_436.0 id_19_437.0 id_19_438.0 id_19_439.0 id_19_440.0 id_19_441.0 id_19_442.0 id_19_443.0 id_19_444.0 id_19_445.0 id_19_446.0 id_19_447.0 id_19_448.0 id_19_449.0 id_19_450.0 id_19_451.0 id_19_452.0 id_19_453.0 id_19_454.0 id_19_455.0 id_19_456.0 id_19_457.0 id_19_458.0 id_19_459.0 id_19_460.0 id_19_462.0 id_19_463.0 id_19_465.0 id_19_466.0 id_19_468.0 id_19_469.0 id_19_470.0 id_19_471.0 id_19_472.0 id_19_473.0 id_19_474.0 id_19_475.0 id_19_476.0 id_19_477.0 id_19_478.0 id_19_479.0 id_19_480.0 id_19_481.0 id_19_482.0 id_19_483.0 id_19_484.0 id_19_487.0 id_19_488.0 id_19_489.0 id_19_490.0 id_19_491.0 id_19_492.0 id_19_493.0 id_19_494.0 id_19_495.0 id_19_496.0 id_19_497.0 id_19_498.0 id_19_499.0 id_19_500.0 id_19_501.0 id_19_502.0 id_19_503.0 id_19_504.0 id_19_505.0 id_19_506.0 id_19_507.0 id_19_508.0 id_19_509.0 id_19_510.0 id_19_511.0 id_19_512.0 id_19_514.0 id_19_515.0 id_19_516.0 id_19_517.0 id_19_518.0 id_19_519.0 id_19_520.0 id_19_521.0 id_19_522.0 id_19_523.0 id_19_525.0 id_19_526.0 id_19_527.0 id_19_528.0 id_19_529.0 id_19_530.0 id_19_531.0 id_19_532.0 id_19_533.0 id_19_535.0 id_19_536.0 id_19_537.0 id_19_538.0 id_19_539.0 id_19_540.0 id_19_541.0 id_19_542.0 id_19_543.0 id_19_544.0 id_19_545.0 id_19_546.0 id_19_547.0 id_19_548.0 id_19_549.0 id_19_550.0 id_19_551.0 id_19_552.0 id_19_553.0 id_19_554.0 id_19_555.0 id_19_556.0 id_19_557.0 id_19_558.0 id_19_559.0 id_19_560.0 id_19_561.0 id_19_562.0 id_19_563.0 id_19_564.0 id_19_565.0 id_19_566.0 id_19_567.0 id_19_568.0 id_19_569.0 id_19_570.0 id_19_572.0 id_19_573.0 id_19_574.0 id_19_575.0 id_19_576.0 id_19_577.0 id_19_578.0 id_19_579.0 id_19_581.0 id_19_582.0 id_19_583.0 id_19_585.0 id_19_586.0 id_19_587.0 id_19_588.0 id_19_589.0 id_19_590.0 id_19_591.0 id_19_592.0 id_19_593.0 id_19_594.0 id_19_595.0 id_19_596.0 id_19_597.0 id_19_598.0 id_19_599.0 id_19_600.0 id_19_601.0 id_19_602.0 id_19_603.0 id_19_604.0 id_19_605.0 id_19_606.0 id_19_607.0 id_19_608.0 id_19_609.0 id_19_610.0 id_19_611.0 id_19_612.0 id_19_613.0 id_19_614.0 id_19_615.0 id_19_616.0 id_19_617.0 id_19_618.0 id_19_619.0 id_19_620.0 id_19_621.0 id_19_622.0 id_19_623.0 id_19_625.0 id_19_627.0 id_19_628.0 id_19_629.0 id_19_630.0 id_19_631.0 id_19_632.0 id_19_633.0 id_19_634.0 id_19_635.0 id_19_636.0 id_19_638.0 id_19_639.0 id_19_640.0 id_19_641.0 id_19_642.0 id_19_643.0 id_19_644.0 id_19_645.0 id_19_646.0 id_19_647.0 id_19_648.0 id_19_649.0 id_19_650.0 id_19_651.0 id_19_652.0 id_19_653.0 id_19_654.0 id_19_655.0 id_19_656.0 id_19_657.0 id_19_658.0 id_19_659.0 id_19_660.0 id_19_661.0 id_19_662.0 id_19_663.0 id_19_664.0 id_19_665.0 id_19_666.0 id_19_667.0 id_19_668.0 id_19_669.0 id_19_670.0 id_19_671.0 id_19_nan id_20_100.0 id_20_101.0 id_20_102.0 id_20_103.0 id_20_104.0 id_20_105.0 id_20_106.0 id_20_107.0 id_20_110.0 id_20_111.0 id_20_112.0 id_20_113.0 id_20_116.0 id_20_117.0 id_20_118.0 id_20_119.0 id_20_120.0 id_20_121.0 id_20_122.0 id_20_123.0 id_20_124.0 id_20_125.0 id_20_126.0 id_20_127.0 id_20_128.0 id_20_129.0 id_20_130.0 id_20_131.0 id_20_133.0 id_20_134.0 id_20_136.0 id_20_137.0 id_20_138.0 id_20_139.0 id_20_140.0 id_20_142.0 id_20_144.0 id_20_145.0 id_20_146.0 id_20_149.0 id_20_150.0 id_20_151.0 id_20_152.0 id_20_153.0 id_20_154.0 id_20_155.0 id_20_157.0 id_20_159.0 id_20_160.0 id_20_161.0 id_20_162.0 id_20_165.0 id_20_167.0 id_20_168.0 id_20_170.0 id_20_173.0 id_20_176.0 id_20_177.0 id_20_178.0 id_20_180.0 id_20_181.0 id_20_182.0 id_20_183.0 id_20_184.0 id_20_186.0 id_20_187.0 id_20_188.0 id_20_192.0 id_20_193.0 id_20_194.0 id_20_196.0 id_20_197.0 id_20_199.0 id_20_201.0 id_20_202.0 id_20_203.0 id_20_204.0 id_20_205.0 id_20_208.0 id_20_209.0 id_20_210.0 id_20_211.0 id_20_213.0 id_20_214.0 id_20_215.0 id_20_216.0 id_20_218.0 id_20_220.0 id_20_221.0 id_20_222.0 id_20_223.0 id_20_224.0 id_20_225.0 id_20_226.0 id_20_228.0 id_20_229.0 id_20_231.0 id_20_235.0 id_20_236.0 id_20_237.0 id_20_238.0 id_20_239.0 id_20_240.0 id_20_241.0 id_20_242.0 id_20_243.0 id_20_244.0 id_20_245.0 id_20_246.0 id_20_247.0 id_20_248.0 id_20_249.0 id_20_250.0 id_20_251.0 id_20_252.0 id_20_253.0 id_20_254.0 id_20_256.0 id_20_257.0 id_20_258.0 id_20_259.0 id_20_260.0 id_20_261.0 id_20_263.0 id_20_265.0 id_20_266.0 id_20_267.0 id_20_268.0 id_20_269.0 id_20_270.0 id_20_271.0 id_20_272.0 id_20_274.0 id_20_275.0 id_20_277.0 id_20_278.0 id_20_280.0 id_20_282.0 id_20_283.0 id_20_284.0 id_20_286.0 id_20_288.0 id_20_290.0 id_20_294.0 id_20_295.0 id_20_296.0 id_20_298.0 id_20_299.0 id_20_300.0 id_20_302.0 id_20_303.0 id_20_304.0 id_20_305.0 id_20_306.0 id_20_307.0 id_20_308.0 id_20_309.0 id_20_310.0 id_20_311.0 id_20_312.0 id_20_314.0 id_20_315.0 id_20_317.0 id_20_318.0 id_20_320.0 id_20_321.0 id_20_322.0 id_20_323.0 id_20_324.0 id_20_325.0 id_20_327.0 id_20_328.0 id_20_330.0 id_20_332.0 id_20_333.0 id_20_335.0 id_20_336.0 id_20_337.0 id_20_339.0 id_20_340.0 id_20_341.0 id_20_342.0 id_20_343.0 id_20_345.0 id_20_346.0 id_20_347.0 id_20_348.0 id_20_349.0 id_20_350.0 id_20_351.0 id_20_352.0 id_20_355.0 id_20_356.0 id_20_358.0 id_20_359.0 id_20_360.0 id_20_362.0 id_20_364.0 id_20_365.0 id_20_366.0 id_20_368.0 id_20_369.0 id_20_370.0 id_20_371.0 id_20_372.0 id_20_373.0 id_20_374.0 id_20_375.0 id_20_377.0 id_20_378.0 id_20_379.0 id_20_380.0 id_20_381.0 id_20_382.0 id_20_383.0 id_20_384.0 id_20_385.0 id_20_386.0 id_20_387.0 id_20_388.0 id_20_390.0 id_20_391.0 id_20_393.0 id_20_394.0 id_20_396.0 id_20_397.0 id_20_398.0 id_20_399.0 id_20_400.0 id_20_401.0 id_20_403.0 id_20_404.0 id_20_405.0 id_20_406.0 id_20_407.0 id_20_408.0 id_20_409.0 id_20_410.0 id_20_411.0 id_20_414.0 id_20_415.0 id_20_417.0 id_20_418.0 id_20_420.0 id_20_422.0 id_20_424.0 id_20_426.0 id_20_427.0 id_20_428.0 id_20_429.0 id_20_430.0 id_20_431.0 id_20_432.0 id_20_433.0 id_20_434.0 id_20_435.0 id_20_436.0 id_20_437.0 id_20_438.0 id_20_439.0 id_20_440.0 id_20_441.0 id_20_442.0 id_20_443.0 id_20_444.0 id_20_445.0 id_20_446.0 id_20_447.0 id_20_449.0 id_20_451.0 id_20_452.0 id_20_453.0 id_20_454.0 id_20_455.0 id_20_456.0 id_20_457.0 id_20_458.0 id_20_459.0 id_20_460.0 id_20_463.0 id_20_465.0 id_20_466.0 id_20_468.0 id_20_469.0 id_20_471.0 id_20_472.0 id_20_473.0 id_20_474.0 id_20_475.0 id_20_476.0 id_20_477.0 id_20_478.0 id_20_480.0 id_20_481.0 id_20_483.0 id_20_484.0 id_20_485.0 id_20_487.0 id_20_489.0 id_20_490.0 id_20_491.0 id_20_493.0 id_20_494.0 id_20_495.0 id_20_496.0 id_20_497.0 id_20_498.0 id_20_499.0 id_20_500.0 id_20_501.0 id_20_502.0 id_20_505.0 id_20_506.0 id_20_507.0 id_20_508.0 id_20_509.0 id_20_510.0 id_20_511.0 id_20_514.0 id_20_517.0 id_20_519.0 id_20_520.0 id_20_521.0 id_20_522.0 id_20_523.0 id_20_526.0 id_20_527.0 id_20_528.0 id_20_530.0 id_20_531.0 id_20_532.0 id_20_533.0 id_20_535.0 id_20_536.0 id_20_537.0 id_20_538.0 id_20_539.0 id_20_540.0 id_20_541.0 id_20_542.0 id_20_543.0 id_20_545.0 id_20_547.0 id_20_548.0 id_20_549.0 id_20_550.0 id_20_555.0 id_20_556.0 id_20_559.0 id_20_560.0 id_20_561.0 id_20_562.0 id_20_563.0 id_20_564.0 id_20_565.0 id_20_566.0 id_20_567.0 id_20_568.0 id_20_569.0 id_20_570.0 id_20_572.0 id_20_575.0 id_20_577.0 id_20_578.0 id_20_579.0 id_20_581.0 id_20_582.0 id_20_583.0 id_20_586.0 id_20_587.0 id_20_588.0 id_20_589.0 id_20_590.0 id_20_591.0 id_20_593.0 id_20_595.0 id_20_597.0 id_20_598.0 id_20_600.0 id_20_602.0 id_20_603.0 id_20_604.0 id_20_607.0 id_20_609.0 id_20_610.0 id_20_611.0 id_20_612.0 id_20_613.0 id_20_615.0 id_20_619.0 id_20_621.0 id_20_622.0 id_20_623.0 id_20_625.0 id_20_628.0 id_20_629.0 id_20_630.0 id_20_631.0 id_20_632.0 id_20_633.0 id_20_634.0 id_20_635.0 id_20_636.0 id_20_638.0 id_20_639.0 id_20_640.0 id_20_641.0 id_20_642.0 id_20_644.0 id_20_645.0 id_20_648.0 id_20_649.0 id_20_650.0 id_20_651.0 id_20_653.0 id_20_654.0 id_20_655.0 id_20_656.0 id_20_657.0 id_20_660.0 id_20_nan id_21_100.0 id_21_101.0 id_21_103.0 id_21_105.0 id_21_106.0 id_21_107.0 id_21_109.0 id_21_114.0 id_21_117.0 id_21_121.0 id_21_123.0 id_21_125.0 id_21_126.0 id_21_130.0 id_21_131.0 id_21_137.0 id_21_138.0 id_21_139.0 id_21_142.0 id_21_144.0 id_21_145.0 id_21_147.0 id_21_149.0 id_21_151.0 id_21_154.0 id_21_155.0 id_21_157.0 id_21_160.0 id_21_162.0 id_21_164.0 id_21_166.0 id_21_168.0 id_21_169.0 id_21_173.0 id_21_178.0 id_21_181.0 id_21_183.0 id_21_184.0 id_21_185.0 id_21_187.0 id_21_188.0 id_21_189.0 id_21_191.0 id_21_193.0 id_21_196.0 id_21_197.0 id_21_201.0 id_21_202.0 id_21_204.0 id_21_208.0 id_21_210.0 id_21_212.0 id_21_215.0 id_21_216.0 id_21_217.0 id_21_219.0 id_21_220.0 id_21_222.0 id_21_223.0 id_21_224.0 id_21_226.0 id_21_228.0 id_21_232.0 id_21_234.0 id_21_235.0 id_21_237.0 id_21_240.0 id_21_241.0 id_21_243.0 id_21_245.0 id_21_247.0 id_21_249.0 id_21_251.0 id_21_252.0 id_21_253.0 id_21_254.0 id_21_255.0 id_21_256.0 id_21_257.0 id_21_262.0 id_21_263.0 id_21_266.0 id_21_268.0 id_21_272.0 id_21_277.0 id_21_281.0 id_21_286.0 id_21_287.0 id_21_288.0 id_21_289.0 id_21_290.0 id_21_292.0 id_21_294.0 id_21_296.0 id_21_298.0 id_21_299.0 id_21_303.0 id_21_304.0 id_21_306.0 id_21_308.0 id_21_309.0 id_21_310.0 id_21_312.0 id_21_313.0 id_21_321.0 id_21_323.0 id_21_325.0 id_21_327.0 id_21_329.0 id_21_330.0 id_21_331.0 id_21_332.0 id_21_333.0 id_21_334.0 id_21_338.0 id_21_340.0 id_21_345.0 id_21_346.0 id_21_347.0 id_21_350.0 id_21_351.0 id_21_353.0 id_21_354.0 id_21_355.0 id_21_357.0 id_21_358.0 id_21_360.0 id_21_363.0 id_21_364.0 id_21_367.0 id_21_368.0 id_21_371.0 id_21_372.0 id_21_373.0 id_21_375.0 id_21_376.0 id_21_379.0 id_21_381.0 id_21_383.0 id_21_384.0 id_21_385.0 id_21_386.0 id_21_388.0 id_21_391.0 id_21_392.0 id_21_394.0 id_21_395.0 id_21_397.0 id_21_400.0 id_21_401.0 id_21_402.0 id_21_404.0 id_21_406.0 id_21_408.0 id_21_409.0 id_21_410.0 id_21_415.0 id_21_416.0 id_21_417.0 id_21_418.0 id_21_420.0 id_21_427.0 id_21_429.0 id_21_432.0 id_21_433.0 id_21_436.0 id_21_437.0 id_21_439.0 id_21_440.0 id_21_441.0 id_21_442.0 id_21_443.0 id_21_444.0 id_21_445.0 id_21_446.0 id_21_447.0 id_21_448.0 id_21_450.0 id_21_452.0 id_21_453.0 id_21_455.0 id_21_456.0 id_21_457.0 id_21_459.0 id_21_460.0 id_21_462.0 id_21_465.0 id_21_466.0 id_21_469.0 id_21_470.0 id_21_472.0 id_21_477.0 id_21_479.0 id_21_480.0 id_21_481.0 id_21_484.0 id_21_487.0 id_21_488.0 id_21_491.0 id_21_492.0 id_21_493.0 id_21_494.0 id_21_498.0 id_21_499.0 id_21_500.0 id_21_501.0 id_21_505.0 id_21_507.0 id_21_508.0 id_21_510.0 id_21_511.0 id_21_512.0 id_21_514.0 id_21_515.0 id_21_516.0 id_21_517.0 id_21_519.0 id_21_521.0 id_21_523.0 id_21_525.0 id_21_528.0 id_21_529.0 id_21_530.0 id_21_531.0 id_21_533.0 id_21_535.0 id_21_536.0 id_21_537.0 id_21_538.0 id_21_541.0 id_21_543.0 id_21_550.0 id_21_553.0 id_21_554.0 id_21_555.0 id_21_556.0 id_21_561.0 id_21_563.0 id_21_564.0 id_21_566.0 id_21_567.0 id_21_570.0 id_21_573.0 id_21_575.0 id_21_576.0 id_21_578.0 id_21_581.0 id_21_582.0 id_21_585.0 id_21_586.0 id_21_587.0 id_21_590.0 id_21_591.0 id_21_593.0 id_21_595.0 id_21_596.0 id_21_597.0 id_21_598.0 id_21_600.0 id_21_601.0 id_21_602.0 id_21_604.0 id_21_609.0 id_21_610.0 id_21_612.0 id_21_613.0 id_21_617.0 id_21_618.0 id_21_619.0 id_21_622.0 id_21_625.0 id_21_629.0 id_21_632.0 id_21_634.0 id_21_640.0 id_21_641.0 id_21_643.0 id_21_644.0 id_21_646.0 id_21_647.0 id_21_649.0 id_21_650.0 id_21_651.0 id_21_657.0 id_21_658.0 id_21_659.0 id_21_663.0 id_21_664.0 id_21_667.0 id_21_668.0 id_21_669.0 id_21_671.0 id_21_672.0 id_21_675.0 id_21_680.0 id_21_681.0 id_21_682.0 id_21_683.0 id_21_684.0 id_21_686.0 id_21_687.0 id_21_688.0 id_21_691.0 id_21_692.0 id_21_693.0 id_21_694.0 id_21_698.0 id_21_699.0 id_21_703.0 id_21_711.0 id_21_713.0 id_21_716.0 id_21_719.0 id_21_720.0 id_21_721.0 id_21_723.0 id_21_727.0 id_21_728.0 id_21_730.0 id_21_731.0 id_21_734.0 id_21_737.0 id_21_744.0 id_21_747.0 id_21_752.0 id_21_754.0 id_21_755.0 id_21_756.0 id_21_757.0 id_21_760.0 id_21_761.0 id_21_762.0 id_21_763.0 id_21_764.0 id_21_765.0 id_21_766.0 id_21_768.0 id_21_770.0 id_21_773.0 id_21_775.0 id_21_776.0 id_21_777.0 id_21_779.0 id_21_786.0 id_21_787.0 id_21_793.0 id_21_795.0 id_21_796.0 id_21_798.0 id_21_799.0 id_21_800.0 id_21_801.0 id_21_802.0 id_21_804.0 id_21_805.0 id_21_806.0 id_21_807.0 id_21_812.0 id_21_814.0 id_21_816.0 id_21_817.0 id_21_818.0 id_21_819.0 id_21_820.0 id_21_821.0 id_21_822.0 id_21_827.0 id_21_829.0 id_21_831.0 id_21_833.0 id_21_834.0 id_21_835.0 id_21_836.0 id_21_837.0 id_21_839.0 id_21_845.0 id_21_846.0 id_21_847.0 id_21_848.0 id_21_849.0 id_21_851.0 id_21_852.0 id_21_853.0 id_21_854.0 id_21_nan id_22_12.0 id_22_13.0 id_22_14.0 id_22_15.0 id_22_16.0 id_22_17.0 id_22_18.0 id_22_19.0 id_22_20.0 id_22_21.0 id_22_22.0 id_22_24.0 id_22_26.0 id_22_27.0 id_22_28.0 id_22_31.0 id_22_32.0 id_22_33.0 id_22_35.0 id_22_36.0 id_22_38.0 id_22_39.0 id_22_40.0 id_22_41.0 id_22_42.0 id_22_43.0 id_22_44.0 id_22_nan id_23_IP_PROXY:ANONYMOUS id_23_IP_PROXY:HIDDEN id_23_IP_PROXY:TRANSPARENT id_23_nan id_24_11.0 id_24_12.0 id_24_15.0 id_24_16.0 id_24_17.0 id_24_18.0 id_24_19.0 id_24_20.0 id_24_21.0 id_24_24.0 id_24_25.0 id_24_26.0 id_24_nan id_25_100.0 id_25_101.0 id_25_102.0 id_25_103.0 id_25_104.0 id_25_105.0 id_25_106.0 id_25_108.0 id_25_109.0 id_25_110.0 id_25_111.0 id_25_112.0 id_25_113.0 id_25_114.0 id_25_115.0 id_25_116.0 id_25_118.0 id_25_119.0 id_25_120.0 id_25_122.0 id_25_123.0 id_25_124.0 id_25_125.0 id_25_126.0 id_25_128.0 id_25_130.0 id_25_131.0 id_25_132.0 id_25_133.0 id_25_134.0 id_25_136.0 id_25_137.0 id_25_138.0 id_25_140.0 id_25_141.0 id_25_142.0 id_25_143.0 id_25_144.0 id_25_145.0 id_25_146.0 id_25_147.0 id_25_148.0 id_25_151.0 id_25_152.0 id_25_154.0 id_25_155.0 id_25_156.0 id_25_157.0 id_25_158.0 id_25_159.0 id_25_160.0 id_25_161.0 id_25_162.0 id_25_164.0 id_25_165.0 id_25_166.0 id_25_167.0 id_25_168.0 id_25_169.0 id_25_170.0 id_25_171.0 id_25_172.0 id_25_173.0 id_25_174.0 id_25_175.0 id_25_176.0 id_25_177.0 id_25_178.0 id_25_179.0 id_25_180.0 id_25_181.0 id_25_182.0 id_25_183.0 id_25_184.0 id_25_185.0 id_25_186.0 id_25_187.0 id_25_188.0 id_25_190.0 id_25_191.0 id_25_193.0 id_25_194.0 id_25_195.0 id_25_196.0 id_25_197.0 id_25_198.0 id_25_199.0 id_25_201.0 id_25_202.0 id_25_203.0 id_25_204.0 id_25_205.0 id_25_206.0 id_25_207.0 id_25_208.0 id_25_210.0 id_25_211.0 id_25_212.0 id_25_213.0 id_25_214.0 id_25_215.0 id_25_216.0 id_25_217.0 id_25_218.0 id_25_219.0 id_25_221.0 id_25_222.0 id_25_223.0 id_25_224.0 id_25_225.0 id_25_226.0 id_25_227.0 id_25_228.0 id_25_229.0 id_25_231.0 id_25_232.0 id_25_233.0 id_25_234.0 id_25_235.0 id_25_236.0 id_25_237.0 id_25_238.0 id_25_239.0 id_25_240.0 id_25_241.0 id_25_242.0 id_25_243.0 id_25_244.0 id_25_245.0 id_25_246.0 id_25_247.0 id_25_248.0 id_25_249.0 id_25_250.0 id_25_251.0 id_25_252.0 id_25_253.0 id_25_254.0 id_25_255.0 id_25_257.0 id_25_258.0 id_25_259.0 id_25_260.0 id_25_263.0 id_25_264.0 id_25_265.0 id_25_266.0 id_25_267.0 id_25_268.0 id_25_269.0 id_25_270.0 id_25_271.0 id_25_272.0 id_25_273.0 id_25_274.0 id_25_275.0 id_25_276.0 id_25_277.0 id_25_278.0 id_25_279.0 id_25_281.0 id_25_284.0 id_25_285.0 id_25_286.0 id_25_287.0 id_25_288.0 id_25_289.0 id_25_290.0 id_25_291.0 id_25_292.0 id_25_294.0 id_25_295.0 id_25_296.0 id_25_297.0 id_25_298.0 id_25_299.0 id_25_300.0 id_25_301.0 id_25_302.0 id_25_303.0 id_25_304.0 id_25_305.0 id_25_307.0 id_25_308.0 id_25_309.0 id_25_310.0 id_25_311.0 id_25_312.0 id_25_313.0 id_25_314.0 id_25_315.0 id_25_316.0 id_25_318.0 id_25_319.0 id_25_320.0 id_25_321.0 id_25_323.0 id_25_324.0 id_25_325.0 id_25_326.0 id_25_327.0 id_25_328.0 id_25_329.0 id_25_330.0 id_25_331.0 id_25_332.0 id_25_333.0 id_25_334.0 id_25_335.0 id_25_336.0 id_25_337.0 id_25_339.0 id_25_341.0 id_25_343.0 id_25_344.0 id_25_345.0 id_25_346.0 id_25_347.0 id_25_348.0 id_25_349.0 id_25_350.0 id_25_351.0 id_25_352.0 id_25_353.0 id_25_354.0 id_25_355.0 id_25_356.0 id_25_357.0 id_25_358.0 id_25_359.0 id_25_360.0 id_25_361.0 id_25_364.0 id_25_365.0 id_25_366.0 id_25_367.0 id_25_369.0 id_25_370.0 id_25_371.0 id_25_372.0 id_25_373.0 id_25_374.0 id_25_375.0 id_25_376.0 id_25_377.0 id_25_378.0 id_25_379.0 id_25_381.0 id_25_382.0 id_25_383.0 id_25_384.0 id_25_385.0 id_25_386.0 id_25_387.0 id_25_388.0 id_25_390.0 id_25_391.0 id_25_392.0 id_25_393.0 id_25_395.0 id_25_396.0 id_25_397.0 id_25_400.0 id_25_402.0 id_25_403.0 id_25_404.0 id_25_405.0 id_25_406.0 id_25_408.0 id_25_409.0 id_25_410.0 id_25_411.0 id_25_412.0 id_25_413.0 id_25_414.0 id_25_415.0 id_25_416.0 id_25_417.0 id_25_418.0 id_25_420.0 id_25_421.0 id_25_422.0 id_25_423.0 id_25_424.0 id_25_426.0 id_25_427.0 id_25_428.0 id_25_429.0 id_25_430.0 id_25_431.0 id_25_432.0 id_25_433.0 id_25_434.0 id_25_435.0 id_25_436.0 id_25_437.0 id_25_438.0 id_25_439.0 id_25_440.0 id_25_441.0 id_25_442.0 id_25_443.0 id_25_444.0 id_25_445.0 id_25_446.0 id_25_449.0 id_25_450.0 id_25_452.0 id_25_453.0 id_25_454.0 id_25_455.0 id_25_456.0 id_25_457.0 id_25_458.0 id_25_459.0 id_25_460.0 id_25_461.0 id_25_462.0 id_25_463.0 id_25_464.0 id_25_465.0 id_25_466.0 id_25_467.0 id_25_468.0 id_25_469.0 id_25_470.0 id_25_471.0 id_25_472.0 id_25_474.0 id_25_475.0 id_25_477.0 id_25_478.0 id_25_479.0 id_25_480.0 id_25_481.0 id_25_482.0 id_25_483.0 id_25_484.0 id_25_485.0 id_25_486.0 id_25_488.0 id_25_489.0 id_25_490.0 id_25_491.0 id_25_492.0 id_25_494.0 id_25_495.0 id_25_496.0 id_25_497.0 id_25_498.0 id_25_499.0 id_25_500.0 id_25_501.0 id_25_502.0 id_25_503.0 id_25_504.0 id_25_505.0 id_25_507.0 id_25_508.0 id_25_509.0 id_25_510.0 id_25_511.0 id_25_512.0 id_25_514.0 id_25_515.0 id_25_516.0 id_25_518.0 id_25_519.0 id_25_520.0 id_25_521.0 id_25_522.0 id_25_523.0 id_25_524.0 id_25_525.0 id_25_527.0 id_25_528.0 id_25_529.0 id_25_532.0 id_25_533.0 id_25_534.0 id_25_535.0 id_25_536.0 id_25_537.0 id_25_538.0 id_25_540.0 id_25_541.0 id_25_544.0 id_25_545.0 id_25_546.0 id_25_548.0 id_25_549.0 id_25_nan id_26_100.0 id_26_102.0 id_26_103.0 id_26_106.0 id_26_107.0 id_26_108.0 id_26_109.0 id_26_110.0 id_26_111.0 id_26_113.0 id_26_114.0 id_26_116.0 id_26_117.0 id_26_118.0 id_26_119.0 id_26_120.0 id_26_121.0 id_26_122.0 id_26_123.0 id_26_124.0 id_26_125.0 id_26_126.0 id_26_128.0 id_26_129.0 id_26_130.0 id_26_131.0 id_26_133.0 id_26_134.0 id_26_135.0 id_26_136.0 id_26_137.0 id_26_138.0 id_26_140.0 id_26_141.0 id_26_142.0 id_26_143.0 id_26_144.0 id_26_145.0 id_26_146.0 id_26_147.0 id_26_149.0 id_26_150.0 id_26_152.0 id_26_153.0 id_26_155.0 id_26_156.0 id_26_157.0 id_26_158.0 id_26_159.0 id_26_161.0 id_26_162.0 id_26_163.0 id_26_164.0 id_26_165.0 id_26_166.0 id_26_167.0 id_26_168.0 id_26_169.0 id_26_170.0 id_26_171.0 id_26_174.0 id_26_176.0 id_26_177.0 id_26_178.0 id_26_179.0 id_26_180.0 id_26_182.0 id_26_183.0 id_26_184.0 id_26_185.0 id_26_186.0 id_26_188.0 id_26_189.0 id_26_190.0 id_26_191.0 id_26_192.0 id_26_193.0 id_26_194.0 id_26_195.0 id_26_197.0 id_26_199.0 id_26_200.0 id_26_201.0 id_26_202.0 id_26_203.0 id_26_204.0 id_26_205.0 id_26_206.0 id_26_208.0 id_26_209.0 id_26_211.0 id_26_212.0 id_26_213.0 id_26_215.0 id_26_216.0 id_26_nan id_27_Found id_27_NotFound id_27_nan id_28_Found id_28_New id_28_nan id_29_Found id_29_NotFound id_29_nan id_30_Android id_30_Android_4.4.2 id_30_Android_5.0 id_30_Android_5.0.2 id_30_Android_5.1.1 id_30_Android_6.0 id_30_Android_6.0.1 id_30_Android_7.0 id_30_Android_7.1.1 id_30_Android_7.1.2 id_30_Android_8.0.0 id_30_Android_8.1.0 id_30_Android_9 id_30_Linux id_30_Mac id_30_Mac_OS_X_10.10 id_30_Mac_OS_X_10.11 id_30_Mac_OS_X_10.12 id_30_Mac_OS_X_10.13 id_30_Mac_OS_X_10.14 id_30_Mac_OS_X_10.6 id_30_Mac_OS_X_10.9 id_30_Mac_OS_X_10_10_5 id_30_Mac_OS_X_10_11_3 id_30_Mac_OS_X_10_11_4 id_30_Mac_OS_X_10_11_5 id_30_Mac_OS_X_10_11_6 id_30_Mac_OS_X_10_12 id_30_Mac_OS_X_10_12_1 id_30_Mac_OS_X_10_12_2 id_30_Mac_OS_X_10_12_3 id_30_Mac_OS_X_10_12_4 id_30_Mac_OS_X_10_12_5 id_30_Mac_OS_X_10_12_6 id_30_Mac_OS_X_10_13_1 id_30_Mac_OS_X_10_13_2 id_30_Mac_OS_X_10_13_3 id_30_Mac_OS_X_10_13_4 id_30_Mac_OS_X_10_13_5 id_30_Mac_OS_X_10_13_6 id_30_Mac_OS_X_10_14 id_30_Mac_OS_X_10_14_0 id_30_Mac_OS_X_10_14_1 id_30_Mac_OS_X_10_14_2 id_30_Mac_OS_X_10_6_8 id_30_Mac_OS_X_10_7_5 id_30_Mac_OS_X_10_8_5 id_30_Mac_OS_X_10_9_5 id_30_Windows id_30_Windows_10 id_30_Windows_7 id_30_Windows_8 id_30_Windows_8.1 id_30_Windows_Vista id_30_Windows_XP id_30_func id_30_iOS id_30_iOS_10.0.2 id_30_iOS_10.1.1 id_30_iOS_10.2.0 id_30_iOS_10.2.1 id_30_iOS_10.3.1 id_30_iOS_10.3.2 id_30_iOS_10.3.3 id_30_iOS_11.0.0 id_30_iOS_11.0.1 id_30_iOS_11.0.2 id_30_iOS_11.0.3 id_30_iOS_11.1.0 id_30_iOS_11.1.1 id_30_iOS_11.1.2 id_30_iOS_11.2.0 id_30_iOS_11.2.1 id_30_iOS_11.2.2 id_30_iOS_11.2.5 id_30_iOS_11.2.6 id_30_iOS_11.3.0 id_30_iOS_11.3.1 id_30_iOS_11.4.0 id_30_iOS_11.4.1 id_30_iOS_12.0.0 id_30_iOS_12.0.1 id_30_iOS_12.1.0 id_30_iOS_12.1.1 id_30_iOS_12.1.2 id_30_iOS_9.3.5 id_30_other id_30_nan id_31_Generic/Android id_31_Generic/Android_7.0 id_31_Lanix/Ilium id_31_Microsoft/Windows id_31_Mozilla/Firefox id_31_Samsung/SM-G531H id_31_Samsung/SM-G532M id_31_ZTE/Blade id_31_android_browser_4.0 id_31_android_webview_4.0 id_31_aol id_31_chrome id_31_chrome_39.0_for_android id_31_chrome_43.0_for_android id_31_chrome_46.0_for_android id_31_chrome_49.0 id_31_chrome_49.0_for_android id_31_chrome_50.0_for_android id_31_chrome_51.0 id_31_chrome_51.0_for_android id_31_chrome_52.0_for_android id_31_chrome_53.0_for_android id_31_chrome_54.0_for_android id_31_chrome_55.0 id_31_chrome_55.0_for_android id_31_chrome_56.0 id_31_chrome_56.0_for_android id_31_chrome_57.0 id_31_chrome_57.0_for_android id_31_chrome_58.0 id_31_chrome_58.0_for_android id_31_chrome_59.0 id_31_chrome_59.0_for_android id_31_chrome_60.0 id_31_chrome_60.0_for_android id_31_chrome_61.0 id_31_chrome_61.0_for_android id_31_chrome_62.0 id_31_chrome_62.0_for_android id_31_chrome_62.0_for_ios id_31_chrome_63.0 id_31_chrome_63.0_for_android id_31_chrome_63.0_for_ios id_31_chrome_64.0 id_31_chrome_64.0_for_android id_31_chrome_64.0_for_ios id_31_chrome_65.0 id_31_chrome_65.0_for_android id_31_chrome_65.0_for_ios id_31_chrome_66.0 id_31_chrome_66.0_for_android id_31_chrome_66.0_for_ios id_31_chrome_67.0 id_31_chrome_67.0_for_android id_31_chrome_67.0_for_ios id_31_chrome_68.0 id_31_chrome_68.0_for_android id_31_chrome_68.0_for_ios id_31_chrome_69.0 id_31_chrome_69.0_for_android id_31_chrome_69.0_for_ios id_31_chrome_70.0 id_31_chrome_70.0_for_android id_31_chrome_70.0_for_ios id_31_chrome_71.0 id_31_chrome_71.0_for_android id_31_chrome_71.0_for_ios id_31_chrome_generic id_31_chrome_generic_for_android id_31_comodo id_31_edge id_31_edge_13.0 id_31_edge_14.0 id_31_edge_15.0 id_31_edge_16.0 id_31_edge_17.0 id_31_edge_18.0 id_31_facebook id_31_firefox id_31_firefox_47.0 id_31_firefox_48.0 id_31_firefox_52.0 id_31_firefox_55.0 id_31_firefox_56.0 id_31_firefox_57.0 id_31_firefox_58.0 id_31_firefox_59.0 id_31_firefox_60.0 id_31_firefox_61.0 id_31_firefox_62.0 id_31_firefox_63.0 id_31_firefox_64.0 id_31_firefox_generic id_31_firefox_mobile_61.0 id_31_firefox_mobile_62.0 id_31_firefox_mobile_63.0 id_31_google id_31_google_search_application_48.0 id_31_google_search_application_49.0 id_31_google_search_application_52.0 id_31_google_search_application_54.0 id_31_google_search_application_56.0 id_31_google_search_application_58.0 id_31_google_search_application_59.0 id_31_google_search_application_60.0 id_31_google_search_application_61.0 id_31_google_search_application_62.0 id_31_google_search_application_63.0 id_31_google_search_application_64.0 id_31_google_search_application_65.0 id_31_icedragon id_31_ie id_31_ie_11.0_for_desktop id_31_ie_11.0_for_tablet id_31_line id_31_maxthon id_31_mobile id_31_mobile_safari_10.0 id_31_mobile_safari_11.0 id_31_mobile_safari_12.0 id_31_mobile_safari_8.0 id_31_mobile_safari_9.0 id_31_mobile_safari_generic id_31_mobile_safari_uiwebview id_31_opera id_31_opera_49.0 id_31_opera_51.0 id_31_opera_52.0 id_31_opera_53.0 id_31_opera_54.0 id_31_opera_55.0 id_31_opera_56.0 id_31_opera_generic id_31_other id_31_palemoon id_31_puffin id_31_safari id_31_safari_10.0 id_31_safari_11.0 id_31_safari_12.0 id_31_safari_9.0 id_31_safari_generic id_31_samsung id_31_samsung_browser_3.3 id_31_samsung_browser_4.0 id_31_samsung_browser_4.2 id_31_samsung_browser_5.2 id_31_samsung_browser_5.4 id_31_samsung_browser_6.2 id_31_samsung_browser_6.4 id_31_samsung_browser_7.0 id_31_samsung_browser_7.2 id_31_samsung_browser_7.4 id_31_samsung_browser_8.2 id_31_samsung_browser_generic id_31_silk id_31_uc id_31_waterfox id_31_nan id_32_0.0 id_32_8.0 id_32_16.0 id_32_24.0 id_32_32.0 id_32_48.0 id_32_nan id_33_0x0 id_33_1023x767 id_33_1023x768 id_33_1024x552 id_33_1024x576 id_33_1024x600 id_33_1024x640 id_33_1024x767 id_33_1024x768 id_33_1024x819 id_33_1024x820 id_33_1025x768 id_33_1092x614 id_33_1093x615 id_33_1136x640 id_33_1151x921 id_33_1152x648 id_33_1152x672 id_33_1152x720 id_33_1152x864 id_33_1184x720 id_33_1200x675 id_33_1200x720 id_33_1208x720 id_33_1229x691 id_33_1231x358 id_33_1239x697 id_33_1265x948 id_33_1279x1023 id_33_1279x1024 id_33_1279x800 id_33_1280x1023 id_33_1280x1024 id_33_1280x1025 id_33_1280x600 id_33_1280x712 id_33_1280x720 id_33_1280x740 id_33_1280x767 id_33_1280x768 id_33_1280x800 id_33_1280x900 id_33_1280x960 id_33_1281x1024 id_33_1281x720 id_33_1281x721 id_33_1281x800 id_33_1281x801 id_33_1296x774 id_33_1334x750 id_33_1344x720 id_33_1344x756 id_33_1344x840 id_33_1356x900 id_33_1359x767 id_33_1359x768 id_33_1360x767 id_33_1360x768 id_33_1364x767 id_33_1364x768 id_33_1365x767 id_33_1365x768 id_33_1366x767 id_33_1366x768 id_33_1366x769 id_33_1368x768 id_33_1371x857 id_33_1400x1050 id_33_1408x792 id_33_1408x880 id_33_1416x758 id_33_1416x805 id_33_1439x809 id_33_1439x899 id_33_1439x900 id_33_1440x720 id_33_1440x810 id_33_1440x899 id_33_1440x900 id_33_1440x960 id_33_1441x901 id_33_1480x720 id_33_1480x721 id_33_1496x844 id_33_1502x844 id_33_1502x845 id_33_1512x945 id_33_1536x1024 id_33_1536x864 id_33_1584x990 id_33_1599x899 id_33_1599x900 id_33_1600x1000 id_33_1600x1024 id_33_1600x1200 id_33_1600x837 id_33_1600x899 id_33_1600x900 id_33_1601x900 id_33_1622x1081 id_33_1624x1080 id_33_1624x750 id_33_1679x1049 id_33_1679x1050 id_33_1680x1049 id_33_1680x1050 id_33_1680x1051 id_33_1680x945 id_33_1681x1050 id_33_1684x947 id_33_1707x960 id_33_1720x947 id_33_1722x1440 id_33_1727x971 id_33_1728x972 id_33_1760x990 id_33_1768x992 id_33_1776x1000 id_33_1792x768 id_33_1792x828 id_33_1794x1080 id_33_1800x1125 id_33_1800x1200 id_33_1805x1015 id_33_1824x1026 id_33_1842x1047 id_33_1848x1155 id_33_1888x941 id_33_1912x1025 id_33_1916x901 id_33_1918x1078 id_33_1919x1079 id_33_1919x1080 id_33_1919x1199 id_33_1919x1200 id_33_1920x1018 id_33_1920x1079 id_33_1920x1080 id_33_1920x1081 id_33_1920x1199 id_33_1920x1200 id_33_1920x1201 id_33_1920x1279 id_33_1920x1280 id_33_1920x1281 id_33_1920x1440 id_33_1920x974 id_33_1920x975 id_33_1921x1080 id_33_1921x1081 id_33_1921x1200 id_33_2000x1125 id_33_2001x1125 id_33_2010x1080 id_33_2047x1152 id_33_2048x1080 id_33_2048x1152 id_33_2048x1280 id_33_2048x1536 id_33_2049x1152 id_33_2049x1536 id_33_2076x1080 id_33_2094x1080 id_33_2100x1312 id_33_2112x1188 id_33_2133x1080 id_33_2159x1439 id_33_2159x1440 id_33_2160x1080 id_33_2160x1081 id_33_2160x1215 id_33_2160x1439 id_33_2160x1440 id_33_2161x1080 id_33_2162x1081 id_33_2162x1082 id_33_2208x1242 id_33_2220x1080 id_33_2220x1081 id_33_2224x1668 id_33_2241x1080 id_33_2255x1503 id_33_2255x1504 id_33_2256x1504 id_33_2281x1081 id_33_2304x1296 id_33_2304x1440 id_33_2341x1081 id_33_2368x1440 id_33_2388x1668 id_33_2392x1440 id_33_2398x1599 id_33_2400x1350 id_33_2400x1500 id_33_2400x1600 id_33_2436x1125 id_33_2520x1575 id_33_2559x1439 id_33_2559x1440 id_33_2559x1599 id_33_2560x1080 id_33_2560x1439 id_33_2560x1440 id_33_2560x1441 id_33_2560x1599 id_33_2560x1600 id_33_2560x1700 id_33_2560x1800 id_33_2561x1442 id_33_2562x1314 id_33_2562x1442 id_33_2591x1619 id_33_2592x1728 id_33_2672x1440 id_33_2688x1242 id_33_2700x1800 id_33_2732x2048 id_33_2735x1823 id_33_2735x1824 id_33_2735x1825 id_33_2736x1823 id_33_2736x1824 id_33_2737x1825 id_33_2800x1575 id_33_2816x1584 id_33_2816x1760 id_33_2880x1440 id_33_2880x1442 id_33_2880x1620 id_33_2880x1800 id_33_2882x1442 id_33_2960x1440 id_33_2960x1442 id_33_2961x1440 id_33_2961x1442 id_33_2999x2000 id_33_3000x1999 id_33_3000x2000 id_33_3001x2000 id_33_3011x2007 id_33_3072x1728 id_33_3120x1440 id_33_3122x1442 id_33_3199x1800 id_33_3200x1799 id_33_3200x1800 id_33_3200x2000 id_33_3201x1799 id_33_3201x1800 id_33_3239x2160 id_33_3240x2160 id_33_3241x2161 id_33_3360x1890 id_33_3360x2100 id_33_3439x1440 id_33_3440x1440 id_33_3441x1440 id_33_3521x1980 id_33_3600x2250 id_33_3696x2310 id_33_3838x2158 id_33_3838x2160 id_33_3839x1599 id_33_3839x2159 id_33_3839x2160 id_33_3840x1080 id_33_3840x1600 id_33_3840x2159 id_33_3840x2160 id_33_3840x2161 id_33_3840x2400 id_33_3841x2161 id_33_3843x2163 id_33_4096x2304 id_33_4096x3072 id_33_4320x2700 id_33_4500x3000 id_33_4800x2700 id_33_5120x2880 id_33_5760x1080 id_33_5760x3240 id_33_6016x3384 id_33_6400x3600 id_33_640x360 id_33_6720x3780 id_33_768x576 id_33_792x480 id_33_800x600 id_33_801x480 id_33_855x480 id_33_910x512 id_33_960x480 id_33_960x540 id_33_960x640 id_33_993x664 id_33_nan id_34_match_status:-1 id_34_match_status:0 id_34_match_status:1 id_34_match_status:2 id_34_nan id_35_F id_35_T id_35_nan id_36_F id_36_T id_36_nan id_37_F id_37_T id_37_nan id_38_F id_38_T id_38_nan DeviceType_desktop DeviceType_mobile DeviceType_nan DeviceInfo_0PM92 DeviceInfo_2PS64_Build/NRD90M DeviceInfo_2PYB2 DeviceInfo_2PZC5 DeviceInfo_4009A DeviceInfo_4009F DeviceInfo_4013M_Build/KOT49H DeviceInfo_4027A_Build/KOT49H DeviceInfo_4034G DeviceInfo_4047A DeviceInfo_4047A_Build/NRD90M DeviceInfo_4047G DeviceInfo_4047G_Build/NRD90M DeviceInfo_5010G DeviceInfo_5010G_Build/MRA58K DeviceInfo_5010S_Build/MRA58K DeviceInfo_5011A DeviceInfo_5011A_Build/NRD90M DeviceInfo_5012G DeviceInfo_5012G_Build/MRA58K DeviceInfo_5015A DeviceInfo_5015A_Build/LMY47I DeviceInfo_5017A DeviceInfo_5025G DeviceInfo_5025G_Build/LMY47I DeviceInfo_5026A DeviceInfo_5026A_Build/NRD90M DeviceInfo_5042A DeviceInfo_5044A DeviceInfo_5049W DeviceInfo_5049W_Build/NRD90M DeviceInfo_5049Z DeviceInfo_5051A_Build/MMB29M DeviceInfo_5054N DeviceInfo_5054S DeviceInfo_5054S_Build/LMY47V DeviceInfo_5056A DeviceInfo_5056A_Build/MMB29M DeviceInfo_5056N DeviceInfo_5057M DeviceInfo_5058A DeviceInfo_5059A DeviceInfo_5080A DeviceInfo_5080A_Build/MRA58K DeviceInfo_5080X DeviceInfo_5085A DeviceInfo_5085B_Build/MRA58K DeviceInfo_5095I_Build/MRA58K DeviceInfo_5099A DeviceInfo_5099A_Build/O00623 DeviceInfo_6016A DeviceInfo_6036A_Build/JLS36C DeviceInfo_6037B DeviceInfo_6039A_Build/LRX22G DeviceInfo_6045I_Build/LRX22G DeviceInfo_6045O DeviceInfo_6055B DeviceInfo_7048A_Build/LRX22G DeviceInfo_7048X DeviceInfo_7055A_Build/KVT49L DeviceInfo_8050G DeviceInfo_8050G_Build/LMY47I DeviceInfo_8062_Build/MRA58K DeviceInfo_8080_Build/LRX21M DeviceInfo_831C DeviceInfo_8_Plus DeviceInfo_9003A DeviceInfo_9003A_Build/MRA58K DeviceInfo_9008A_Build/NRD90M DeviceInfo_9024W DeviceInfo_9203A_Build/MRA58K DeviceInfo_A0001 DeviceInfo_A0001_Build/MHC19Q DeviceInfo_A10_Pro_Build/LMY47I DeviceInfo_A1601_Build/LMY47I DeviceInfo_A37f DeviceInfo_A3_mini DeviceInfo_A466BG DeviceInfo_A50LT DeviceInfo_A574BL_Build/NMF26F DeviceInfo_A577VL DeviceInfo_A96_Build/LMY47I DeviceInfo_AERIAL DeviceInfo_AERIAL_Build/NRD90M DeviceInfo_AGS-L03 DeviceInfo_AGS-L09 DeviceInfo_AGS-W09 DeviceInfo_ALCATEL DeviceInfo_ALCATEL_ONE_TOUCH_5036A_Build/JDQ39 DeviceInfo_ALCATEL_ONE_TOUCH_7040A_Build/JDQ39 DeviceInfo_ALCATEL_ONE_TOUCH_7042A_Build/JDQ39 DeviceInfo_ALCATEL_ONE_TOUCH_7047A_Build/JDQ39 DeviceInfo_ALCATELONETOUCH DeviceInfo_ALE-L21 DeviceInfo_ALE-L21_Build/HuaweiALE-L21 DeviceInfo_ALE-L23 DeviceInfo_ALE-L23_Build/HuaweiALE-L23 DeviceInfo_ALP-L09 DeviceInfo_ALP-L09_Build/HUAWEIALP-L09 DeviceInfo_ALP-L09_Build/HUAWEIALP-L09S DeviceInfo_ALP-L29 DeviceInfo_ALUMINI DeviceInfo_AM508 DeviceInfo_ANE-LX1 DeviceInfo_ANE-LX1_Build/HUAWEIANE-LX1 DeviceInfo_ANE-LX3 DeviceInfo_ANE-LX3_Build/HUAWEIANE-LX3 DeviceInfo_ASTRO DeviceInfo_ASUS_A007 DeviceInfo_ASUS_P00J DeviceInfo_ASUS_X008D_Build/NRD90M DeviceInfo_ASUS_X008DC_Build/NRD90M DeviceInfo_ASUS_X00AD DeviceInfo_ASUS_X00DD DeviceInfo_ASUS_X00DDA DeviceInfo_ASUS_X00HD DeviceInfo_ASUS_X00HD_Build/NMF26F DeviceInfo_ASUS_X00ID DeviceInfo_ASUS_X00LDA DeviceInfo_ASUS_X015D_Build/NRD90M DeviceInfo_ASUS_X018D DeviceInfo_ASUS_Z00AD_Build/LRX21V DeviceInfo_ASUS_Z012DC DeviceInfo_ASUS_Z017D DeviceInfo_ASUS_Z01HD DeviceInfo_ASUS_Z01MD DeviceInfo_ATT DeviceInfo_ATT-IE11 DeviceInfo_ATU-L11 DeviceInfo_ATU-LX3 DeviceInfo_ATU-LX3_Build/HUAWEIATU-LX3 DeviceInfo_AUM-L29 DeviceInfo_AW790 DeviceInfo_AX1060 DeviceInfo_AX1070 DeviceInfo_AX820_Build/MRA58K DeviceInfo_AX821_Build/MRA58K DeviceInfo_AX920 DeviceInfo_AX921 DeviceInfo_AX921_Build/MRA58K DeviceInfo_Advance DeviceInfo_Alcatel DeviceInfo_Alcatel_4060A DeviceInfo_Alcatel_4060O_Build/MMB29M DeviceInfo_Alcatel_5044R DeviceInfo_Alcatel_5044R_Build/NRD90M DeviceInfo_Alcatel_5054O DeviceInfo_Alcatel_5098O_Build/MMB29M DeviceInfo_Alpha_950 DeviceInfo_Alumini3_Build/MRA58K DeviceInfo_Alumini3Plus DeviceInfo_Alumini_3_Plus DeviceInfo_Android DeviceInfo_Android_4.4.2 DeviceInfo_Android_5.1 DeviceInfo_Android_5.1.1 DeviceInfo_Android_6.0 DeviceInfo_Android_6.0.1 DeviceInfo_Android_7.0 DeviceInfo_Android_7.1.2 DeviceInfo_Android_8.0.0 DeviceInfo_Aquaris DeviceInfo_Aquaris_U_Plus_Build/NMF26F DeviceInfo_Aquaris_V_Build/N2G47H DeviceInfo_Aquaris_X_Build/NMF26F DeviceInfo_Aquaris_X5_Plus_Build/NMF26F DeviceInfo_Aquaris_A4.5 DeviceInfo_Aquaris_M4.5 DeviceInfo_Archos DeviceInfo_B1-750 DeviceInfo_B3-A40 DeviceInfo_BAC-L03 DeviceInfo_BAC-L03_Build/HUAWEIBAC-L03 DeviceInfo_BAH-L09_Build/HUAWEIBAH-L09 DeviceInfo_BAH-W09 DeviceInfo_BBB100-1 DeviceInfo_BBB100-1_Build/OPM1.171019.026 DeviceInfo_BBB100-2 DeviceInfo_BBB100-3 DeviceInfo_BBF100-2 DeviceInfo_BG2-W09 DeviceInfo_BKL-L09 DeviceInfo_BLA-A09 DeviceInfo_BLA-A09_Build/HUAWEIBLA-A09 DeviceInfo_BLA-AL00 DeviceInfo_BLA-L09 DeviceInfo_BLA-L09_Build/HUAWEIBLA-L09 DeviceInfo_BLA-L29 DeviceInfo_BLA-L29_Build/HUAWEIBLA-L29 DeviceInfo_BLA-L29_Build/HUAWEIBLA-L29S DeviceInfo_BLADE DeviceInfo_BLADE_A520 DeviceInfo_BLADE_A520_Build/NRD90M DeviceInfo_BLADE_A6_MAX_Build/N2G47H DeviceInfo_BLADE_A602 DeviceInfo_BLADE_A602_Build/MRA58K DeviceInfo_BLADE_L7 DeviceInfo_BLADE_L7_Build/MRA58K DeviceInfo_BLADE_V7_Build/MRA58K DeviceInfo_BLADE_V8_Build/NRD90M DeviceInfo_BLADE_V8_SE DeviceInfo_BLADE_V8_SE_Build/NRD90M DeviceInfo_BLADE_V8Q DeviceInfo_BLADE_V8Q_Build/N2G47H DeviceInfo_BLADE_V9 DeviceInfo_BLADE_V9_Build/OPR1.170623.032 DeviceInfo_BLL-L22 DeviceInfo_BLL-L23 DeviceInfo_BLL-L23_Build/HUAWEIBLL-L23 DeviceInfo_BLN-L21 DeviceInfo_BLN-L21_Build/HONORBLN-L21 DeviceInfo_BLN-L24 DeviceInfo_BLN-L24_Build/HONORBLN-L24 DeviceInfo_BLU DeviceInfo_BLU_ENERGY_X_PLUS_Build/LRX21M DeviceInfo_BLU_LIFE_XL_Build/L050U DeviceInfo_BLU_STUDIO_C_5+5_Build/LRX21M DeviceInfo_BND-L21 DeviceInfo_BND-L21_Build/HONORBND-L21 DeviceInfo_BND-L24 DeviceInfo_BND-L34 DeviceInfo_BNTV400 DeviceInfo_BOIE9 DeviceInfo_BV6000S DeviceInfo_BV7000 DeviceInfo_BV8000Pro DeviceInfo_Blade DeviceInfo_Blade_A460_Build/LMY47O DeviceInfo_Blade_A465_Build/LMY47D DeviceInfo_Blade_A475_Build/LMY47D DeviceInfo_Blade_A510_Build/MRA58K DeviceInfo_Blade_L2_Plus DeviceInfo_Blade_L2_Plus_Build/KOT49H DeviceInfo_Blade_L3_Build/KOT49H DeviceInfo_Blade_L5_Build/LMY47I DeviceInfo_Blade_V580 DeviceInfo_Blade_V580_Build/LMY47D DeviceInfo_Blade_V6 DeviceInfo_Blade_V6_Build/LRX22G DeviceInfo_Blade_V6_Max_Build/MRA58K DeviceInfo_Blade_V6_Plus DeviceInfo_Blade_V6_Plus_Build/MRA58K DeviceInfo_Bluboo DeviceInfo_Bolt DeviceInfo_Build/KOT49H DeviceInfo_Build/OPM1.171019.011 DeviceInfo_Build/OPR1.170623.032 DeviceInfo_Build/OPR6.170623.013 DeviceInfo_C1904 DeviceInfo_C2105 DeviceInfo_C6506 DeviceInfo_C6506_Build/10.7.A.0.222 DeviceInfo_C6603 DeviceInfo_C6743_Build/LMY47V DeviceInfo_C6902 DeviceInfo_C6903 DeviceInfo_C6906 DeviceInfo_C6906_Build/14.6.A.1.236 DeviceInfo_CAM-L03 DeviceInfo_CAM-L03_Build/HUAWEICAM-L03 DeviceInfo_CAM-L21 DeviceInfo_CAM-L23 DeviceInfo_CHC-U03 DeviceInfo_CHC-U03_Build/HuaweiCHC-U03 DeviceInfo_CLT-L04 DeviceInfo_CLT-L04_Build/HUAWEICLT-L04 DeviceInfo_CLT-L09 DeviceInfo_CLT-L29 DeviceInfo_CLT-L29_Build/HUAWEICLT-L29 DeviceInfo_CMR-AL09 DeviceInfo_CMR-W09 DeviceInfo_COL-L29 DeviceInfo_COVET_Build/NRD90M DeviceInfo_CPH1701 DeviceInfo_CPH1723 DeviceInfo_CPH1725 DeviceInfo_CPH1835_Build/O11019 DeviceInfo_CRO-L03 DeviceInfo_CRO-L03_Build/HUAWEICRO-L03 DeviceInfo_Coolpad DeviceInfo_D2206 DeviceInfo_D2306 DeviceInfo_D2306_Build/18.6.A.0.182 DeviceInfo_D2406 DeviceInfo_D5306 DeviceInfo_D5306_Build/19.4.A.0.182 DeviceInfo_D5316 DeviceInfo_D5316_Build/19.4.A.0.182 DeviceInfo_D5503_Build/14.6.A.0.368 DeviceInfo_D5803_Build/23.5.A.1.291 DeviceInfo_D6503 DeviceInfo_D6603 DeviceInfo_D6603_Build/23.5.A.1.291 DeviceInfo_D6708 DeviceInfo_DLI-L22_Build/HONORDLI-L22 DeviceInfo_DRA-L21 DeviceInfo_DRA-LX3 DeviceInfo_DRA-LX3_Build/HUAWEIDRA-LX3 DeviceInfo_DT0704K08 DeviceInfo_DUO DeviceInfo_Dash DeviceInfo_Dream DeviceInfo_E2104 DeviceInfo_E2104_Build/24.0.A.5.14 DeviceInfo_E2306_Build/26.1.A.3.111 DeviceInfo_E2306_Build/26.3.A.1.33 DeviceInfo_E5306 DeviceInfo_E5306_Build/27.1.A.1.81 DeviceInfo_E5306_Build/27.3.A.0.129 DeviceInfo_E5306_Build/27.3.A.0.165 DeviceInfo_E5306_Build/27.3.A.0.173 DeviceInfo_E5506 DeviceInfo_E5506_Build/29.1.A.0.101 DeviceInfo_E5506_Build/29.2.A.0.166 DeviceInfo_E5603 DeviceInfo_E5606 DeviceInfo_E5606_Build/30.2.A.1.21 DeviceInfo_E5803 DeviceInfo_E5803_Build/32.4.A.1.54 DeviceInfo_E5823 DeviceInfo_E5823_Build/32.4.A.1.54 DeviceInfo_E6553 DeviceInfo_E6603 DeviceInfo_E6603_Build/32.4.A.1.54 DeviceInfo_E6633 DeviceInfo_E6653_Build/32.4.A.1.54 DeviceInfo_E6810 DeviceInfo_E6810_Build/5.320VZ.03.r DeviceInfo_E6833 DeviceInfo_E6853 DeviceInfo_E6853_Build/32.4.A.1.54 DeviceInfo_EGO DeviceInfo_EML-L09 DeviceInfo_EML-L09_Build/HUAWEIEML-L09 DeviceInfo_EML-L29 DeviceInfo_EML-L29_Build/HUAWEIEML-L29 DeviceInfo_EVA-L09 DeviceInfo_EVA-L09_Build/HUAWEIEVA-L09 DeviceInfo_EVA-L19 DeviceInfo_EVA-L19_Build/HUAWEIEVA-L19 DeviceInfo_Edison DeviceInfo_Energy DeviceInfo_Energy_X_2_Build/E050L DeviceInfo_F1f_Build/LMY47V DeviceInfo_F3111 DeviceInfo_F3111_Build/33.3.A.1.115 DeviceInfo_F3111_Build/33.3.A.1.97 DeviceInfo_F3113 DeviceInfo_F3113_Build/33.2.A.3.81 DeviceInfo_F3113_Build/33.2.A.4.70 DeviceInfo_F3113_Build/33.3.A.1.97 DeviceInfo_F3213 DeviceInfo_F3213_Build/36.0.A.2.146 DeviceInfo_F3213_Build/36.1.A.1.86 DeviceInfo_F3216 DeviceInfo_F3311 DeviceInfo_F3313 DeviceInfo_F3313_Build/37.0.A.2.108 DeviceInfo_F3313_Build/37.0.A.2.248 DeviceInfo_F5121 DeviceInfo_F5121_Build/34.3.A.0.228 DeviceInfo_F5121_Build/34.3.A.0.238 DeviceInfo_F5121_Build/34.3.A.0.252 DeviceInfo_F5121_Build/34.4.A.2.107 DeviceInfo_F5121_Build/34.4.A.2.19 DeviceInfo_F5122 DeviceInfo_F5321 DeviceInfo_F5321_Build/34.2.A.2.47 DeviceInfo_F5321_Build/34.3.A.0.238 DeviceInfo_F80_PIABELLA_Build/MRA58K DeviceInfo_F80'S+ DeviceInfo_F8331 DeviceInfo_F8331_Build/41.2.A.7.76 DeviceInfo_F8332 DeviceInfo_FEVER DeviceInfo_FIG-LX1 DeviceInfo_FIG-LX1_Build/HUAWEIFIG-LX1 DeviceInfo_FIG-LX3 DeviceInfo_FIG-LX3_Build/HUAWEIFIG-LX3 DeviceInfo_FLA-LX3 DeviceInfo_FLA-LX3_Build/HUAWEIFLA-LX3 DeviceInfo_FP1U DeviceInfo_FP2 DeviceInfo_FRD-L04 DeviceInfo_FRD-L04_Build/HUAWEIFRD-L04 DeviceInfo_FRD-L09 DeviceInfo_FRD-L09_Build/HUAWEIFRD-L09 DeviceInfo_FRD-L14_Build/HUAWEIFRD-L14 DeviceInfo_FRD-L19 DeviceInfo_Fractal DeviceInfo_G3112 DeviceInfo_G3121_Build/48.1.A.2.21 DeviceInfo_G3123 DeviceInfo_G3123_Build/40.0.A.6.135 DeviceInfo_G3123_Build/40.0.A.6.175 DeviceInfo_G3123_Build/40.0.A.6.189 DeviceInfo_G3123_Build/48.1.A.2.21 DeviceInfo_G3123_Build/48.1.A.2.50 DeviceInfo_G3223 DeviceInfo_G3223_Build/42.0.A.4.101 DeviceInfo_G3223_Build/42.0.A.4.167 DeviceInfo_G3223_Build/48.1.A.2.21 DeviceInfo_G3223_Build/48.1.A.2.50 DeviceInfo_G3311 DeviceInfo_G3312 DeviceInfo_G3313 DeviceInfo_G3313_Build/43.0.A.5.79 DeviceInfo_G3313_Build/43.0.A.7.25 DeviceInfo_G3313_Build/43.0.A.7.55 DeviceInfo_G3313_Build/43.0.A.7.70 DeviceInfo_G3412 DeviceInfo_G3423 DeviceInfo_G527-U081 DeviceInfo_G620S-L03 DeviceInfo_G8141 DeviceInfo_G8141_Build/47.1.A.12.270 DeviceInfo_G8141_Build/47.1.A.5.51 DeviceInfo_G8142 DeviceInfo_G8231 DeviceInfo_G8341 DeviceInfo_G8441 DeviceInfo_GHIA_AXIS7P DeviceInfo_GRANT DeviceInfo_GT-I8190L_Build/JZO54K DeviceInfo_GT-I9060L DeviceInfo_GT-I9060L_Build/JDQ39 DeviceInfo_GT-I9060M DeviceInfo_GT-I9060M_Build/KTU84P DeviceInfo_GT-I9195_Build/KOT49H DeviceInfo_GT-I9195L DeviceInfo_GT-I9300 DeviceInfo_GT-I9301I DeviceInfo_GT-I9500 DeviceInfo_GT-I9505_Build/LRX22C DeviceInfo_GT-I9506 DeviceInfo_GT-I9515 DeviceInfo_GT-N5110 DeviceInfo_GT-N5110_Build/JDQ39 DeviceInfo_GT-N7100 DeviceInfo_GT-N8000 DeviceInfo_GT-N8010 DeviceInfo_GT-P5110 DeviceInfo_GT-P5113 DeviceInfo_GT-P5210_Build/JDQ39 DeviceInfo_GT-P5210_Build/KOT49H DeviceInfo_GT-S6810M DeviceInfo_GT-S7390 DeviceInfo_GT-S7580L_Build/JDQ39 DeviceInfo_Gini_s5Pro_Build/NRD90M DeviceInfo_Grand DeviceInfo_Gravity DeviceInfo_Gravity_Build/NRD90M DeviceInfo_H1611 DeviceInfo_H1711_Build/HUAWEIH1711 DeviceInfo_H3123 DeviceInfo_H3223 DeviceInfo_H3223_Build/50.1.A.10.40 DeviceInfo_H3321 DeviceInfo_H8216 DeviceInfo_HELIO DeviceInfo_HIGHWAY DeviceInfo_HK-914581 DeviceInfo_HMA-L09 DeviceInfo_HP DeviceInfo_HTC DeviceInfo_HTC_10 DeviceInfo_HTC_10_Build/NRD90M DeviceInfo_HTC_10_Build/OPR1.170623.027 DeviceInfo_HTC_Desire_10_lifestyle DeviceInfo_HTC_Desire_10_lifestyle_Build/MMB29M DeviceInfo_HTC_Desire_510_Build/KOT49H DeviceInfo_HTC_Desire_526G_Build/KOT49H DeviceInfo_HTC_Desire_530 DeviceInfo_HTC_Desire_530_Build/MMB29M DeviceInfo_HTC_Desire_626s DeviceInfo_HTC_Desire_626s_Build/LMY47O DeviceInfo_HTC_Desire_650 DeviceInfo_HTC_Desire_650_Build/MMB29M DeviceInfo_HTC_One DeviceInfo_HTC_One_A9_Build/NRD90M DeviceInfo_HTC_One_A9s DeviceInfo_HTC_One_A9s_Build/MRA58K DeviceInfo_HTC_One_Build/LRX22G DeviceInfo_HTC_One_M9_Build/NRD90M DeviceInfo_HTC_One_M9PLUS DeviceInfo_HTC_One_mini_Build/KOT49H DeviceInfo_HTC_One_M8_Build/MRA58K DeviceInfo_HTC_U11_Build/NMF26X DeviceInfo_HTC_U11_Build/OPR6.170623.013 DeviceInfo_HTC6535LVW DeviceInfo_HTC6545LVW DeviceInfo_HTCD100LVWPP DeviceInfo_HTCD160LVWPP DeviceInfo_HTCD200LVW DeviceInfo_HTC_One_M8/4.28.502.2 DeviceInfo_HTL23 DeviceInfo_HUAWEI DeviceInfo_HUAWEI_Build/MMB28B DeviceInfo_HUAWEI_CAN-L01_Build/HUAWEICAN-L01 DeviceInfo_HUAWEI_CAN-L11_Build/HUAWEICAN-L11 DeviceInfo_HUAWEI_CUN-L03 DeviceInfo_HUAWEI_CUN-L03_Build/HUAWEICUN-L03 DeviceInfo_HUAWEI_G7-L03 DeviceInfo_HUAWEI_G7-L03_Build/HuaweiG7-L03 DeviceInfo_HUAWEI_GRA-L09_Build/HUAWEIGRA-L09 DeviceInfo_HUAWEI_LUA-U23_Build/HUAWEILUA-U23 DeviceInfo_HUAWEI_LYO-L21_Build/HUAWEILYO-L21 DeviceInfo_HUAWEI_M2-801W_Build/HUAWEIM2-801W DeviceInfo_HUAWEI_NXT-L09_Build/HUAWEINXT-L09 DeviceInfo_HUAWEI_RIO-L03 DeviceInfo_HUAWEI_RIO-L03_Build/HUAWEIRIO-L03 DeviceInfo_HUAWEI_TAG-L13 DeviceInfo_HUAWEI_TAG-L13_Build/HUAWEITAG-L13 DeviceInfo_HUAWEI_VNS-L21_Build/HUAWEIVNS-L21 DeviceInfo_HUAWEI_VNS-L23 DeviceInfo_HUAWEI_VNS-L23_Build/HUAWEIVNS-L23 DeviceInfo_HUAWEI_VNS-L31 DeviceInfo_HUAWEI_VNS-L31_Build/HUAWEIVNS-L31 DeviceInfo_HUAWEI_VNS-L53 DeviceInfo_HUAWEI_VNS-L53_Build/HUAWEIVNS-L53 DeviceInfo_HUAWEI_Y360-U23_Build/HUAWEIY360-U23 DeviceInfo_HUAWEI_Y520-U03_Build/HUAWEIY520-U03 DeviceInfo_HUAWEI_Y560-L03 DeviceInfo_HUAWEI_Y560-L03_Build/HUAWEIY560-L03 DeviceInfo_HUAWEI_Y625-U13_Build/HUAWEIY625-U13 DeviceInfo_Hisense DeviceInfo_Hisense_E51_Build/LMY47V DeviceInfo_Hisense_F102_Build/NRD90M DeviceInfo_Hisense_F20 DeviceInfo_Hisense_F20_Build/MMB29M DeviceInfo_Hisense_F23 DeviceInfo_Hisense_F23_Build/NRD90M DeviceInfo_Hisense_F24 DeviceInfo_Hisense_F24_Build/NRD90M DeviceInfo_Hisense_F32_Build/NMF26F DeviceInfo_Hisense_F8_MINI DeviceInfo_Hisense_F8_MINI_Build/NRD90M DeviceInfo_Hisense_Hi_3_Build/NRD90M DeviceInfo_Hisense_L675 DeviceInfo_Hisense_L675_Build/MRA58K DeviceInfo_Hisense_L675_PRO_Build/NRD90M DeviceInfo_Hisense_T963 DeviceInfo_Hisense_T963_Build/MRA58K DeviceInfo_Hisense_U963 DeviceInfo_Hisense_U963_Build/MRA58K DeviceInfo_ILIUM DeviceInfo_IM6 DeviceInfo_INE-LX2_Build/HUAWEIINE-LX2 DeviceInfo_INFINIT_1 DeviceInfo_IdeaTab DeviceInfo_Ilium DeviceInfo_Ilium_L1000_Build/LRX22G DeviceInfo_Ilium_L1120 DeviceInfo_Ilium_L1120_Build/NRD90M DeviceInfo_Ilium_L610_Build/MRA58K DeviceInfo_Ilium_L620_Build/NRD90M DeviceInfo_Ilium_L910_Build/MRA58K DeviceInfo_Ilium_L950_Build/KTU84P DeviceInfo_Ilium_LT500_Build/LMY47O DeviceInfo_Ilium_LT510_Build/MRA58K DeviceInfo_Ilium_LT520_Build/NRD90M DeviceInfo_Ilium_M3_Build/NRD90M DeviceInfo_Ilium_Pad_T7X_Build/LMY47I DeviceInfo_Ilium_X210_Build/LMY47I DeviceInfo_Ilium_X220_Build/MRA58K DeviceInfo_Ilium_X510 DeviceInfo_Ilium_X510_Build/MRA58K DeviceInfo_Ilium_X520 DeviceInfo_Ilium_X520_Build/NRD90M DeviceInfo_Ilium_X710 DeviceInfo_Ilium_X710_Build/MRA58K DeviceInfo_Infinit DeviceInfo_Infinit_MX_Build/NRD90M DeviceInfo_Infinit_X_CAM DeviceInfo_Intel DeviceInfo_JKM-LX3 DeviceInfo_Joy DeviceInfo_K011_Build/KOT49H DeviceInfo_K014 DeviceInfo_K81 DeviceInfo_K88 DeviceInfo_K88_Build/MMB29M DeviceInfo_K90U DeviceInfo_KEMPLER_TV DeviceInfo_KFAPWI DeviceInfo_KFAPWI_Build/KTU84M DeviceInfo_KFARWI DeviceInfo_KFASWI DeviceInfo_KFASWI_Build/LVY48F DeviceInfo_KFAUWI DeviceInfo_KFAUWI_Build/LVY48F DeviceInfo_KFDOWI DeviceInfo_KFDOWI_Build/LVY48F DeviceInfo_KFFOWI DeviceInfo_KFFOWI_Build/LVY48F DeviceInfo_KFGIWI DeviceInfo_KFGIWI_Build/LVY48F DeviceInfo_KFJWI DeviceInfo_KFKAWI DeviceInfo_KFMEWI DeviceInfo_KFSAWI DeviceInfo_KFSOWI DeviceInfo_KFSUWI DeviceInfo_KFSUWI_Build/LVY48F DeviceInfo_KFTBWI DeviceInfo_KFTBWI_Build/LVY48F DeviceInfo_KFTHWI DeviceInfo_KFTHWI_Build/KTU84M DeviceInfo_KFTT_Build/IML74K DeviceInfo_KIW-L24 DeviceInfo_KYOCERA-C6742A DeviceInfo_KYOCERA-C6742A_Build/LMY47V DeviceInfo_L-03K DeviceInfo_LAVA_A3 DeviceInfo_LAVA_R1 DeviceInfo_LDN-LX3 DeviceInfo_LDN-LX3_Build/HUAWEILDN-LX3 DeviceInfo_LG-D120_Build/KOT49I.V10a DeviceInfo_LG-D213 DeviceInfo_LG-D320 DeviceInfo_LG-D320_Build/KOT49I.V10a DeviceInfo_LG-D331 DeviceInfo_LG-D331_Build/LRX22G DeviceInfo_LG-D373 DeviceInfo_LG-D373_Build/KOT49I.V10a DeviceInfo_LG-D400 DeviceInfo_LG-D625 DeviceInfo_LG-D680 DeviceInfo_LG-D680_Build/KOT49I DeviceInfo_LG-D690 DeviceInfo_LG-D693n DeviceInfo_LG-D693n_Build/KOT49I.V10a DeviceInfo_LG-D693n_Build/LRX22G DeviceInfo_LG-D722 DeviceInfo_LG-D802 DeviceInfo_LG-D850 DeviceInfo_LG-D851 DeviceInfo_LG-D852 DeviceInfo_LG-D852G DeviceInfo_LG-D855 DeviceInfo_LG-D855_Build/LRX21R DeviceInfo_LG-E450f DeviceInfo_LG-E975 DeviceInfo_LG-G710 DeviceInfo_LG-H320_Build/LRX21Y DeviceInfo_LG-H345 DeviceInfo_LG-H420_Build/LRX21Y DeviceInfo_LG-H443/H44312g DeviceInfo_LG-H500 DeviceInfo_LG-H500_Build/LRX21Y DeviceInfo_LG-H520 DeviceInfo_LG-H525n_Build/MRA58K DeviceInfo_LG-H540 DeviceInfo_LG-H542 DeviceInfo_LG-H542_Build/LRX22G DeviceInfo_LG-H542_Build/MRA58K DeviceInfo_LG-H631 DeviceInfo_LG-H634 DeviceInfo_LG-H650 DeviceInfo_LG-H650_Build/LMY47V DeviceInfo_LG-H650_Build/MRA58K DeviceInfo_LG-H700_Build/NRD90U DeviceInfo_LG-H735_Build/LMY47V DeviceInfo_LG-H810 DeviceInfo_LG-H811_Build/MRA58K DeviceInfo_LG-H812 DeviceInfo_LG-H815 DeviceInfo_LG-H815_Build/MRA58K DeviceInfo_LG-H820 DeviceInfo_LG-H820_Build/NRD90U DeviceInfo_LG-H830 DeviceInfo_LG-H830_Build/NRD90U DeviceInfo_LG-H831_Build/NRD90U DeviceInfo_LG-H840 DeviceInfo_LG-H840_Build/MMB29M DeviceInfo_LG-H840_Build/NRD90U DeviceInfo_LG-H850 DeviceInfo_LG-H850_Build/MMB29M DeviceInfo_LG-H860 DeviceInfo_LG-H870 DeviceInfo_LG-H870_Build/NRD90U DeviceInfo_LG-H870DS DeviceInfo_LG-H870DS_Build/NRD90U DeviceInfo_LG-H870DS_Build/OPR1.170623.032 DeviceInfo_LG-H871 DeviceInfo_LG-H872 DeviceInfo_LG-H872_Build/NRD90U DeviceInfo_LG-H873 DeviceInfo_LG-H873_Build/NRD90U DeviceInfo_LG-H900/H90022b DeviceInfo_LG-H901 DeviceInfo_LG-H910 DeviceInfo_LG-H910_Build/NRD90M DeviceInfo_LG-H918 DeviceInfo_LG-H918_Build/NRD90M DeviceInfo_LG-H930 DeviceInfo_LG-H931 DeviceInfo_LG-H931_Build/OPR1.170623.026 DeviceInfo_LG-H932 DeviceInfo_LG-H960 DeviceInfo_LG-H990_Build/NRD90M DeviceInfo_LG-K120 DeviceInfo_LG-K200 DeviceInfo_LG-K200_Build/MXB48T DeviceInfo_LG-K210 DeviceInfo_LG-K220 DeviceInfo_LG-K220_Build/MXB48T DeviceInfo_LG-K240 DeviceInfo_LG-K240_Build/MXB48T DeviceInfo_LG-K330 DeviceInfo_LG-K371 DeviceInfo_LG-K373 DeviceInfo_LG-K410 DeviceInfo_LG-K410_Build/LRX22G DeviceInfo_LG-K420 DeviceInfo_LG-K428_Build/MMB29M DeviceInfo_LG-K428_Build/NRD90U DeviceInfo_LG-K430 DeviceInfo_LG-K430_Build/MRA58K DeviceInfo_LG-K450_Build/MXB48T DeviceInfo_LG-K500 DeviceInfo_LG-K500_Build/MMB29M DeviceInfo_LG-K520 DeviceInfo_LG-K530 DeviceInfo_LG-K530_Build/MMB29M DeviceInfo_LG-K530_Build/NRD90U DeviceInfo_LG-K540_Build/MMB29M DeviceInfo_LG-K550 DeviceInfo_LG-K550_Build/NRD90U DeviceInfo_LG-K557_Build/MXB48T DeviceInfo_LG-K580 DeviceInfo_LG-K580_Build/MRA58K DeviceInfo_LG-LK460 DeviceInfo_LG-LS777 DeviceInfo_LG-LS777_Build/NRD90U DeviceInfo_LG-LS993 DeviceInfo_LG-LS993_Build/NRD90U DeviceInfo_LG-LS997_Build/NRD90M DeviceInfo_LG-LS997_Build/OPR1.170623.032 DeviceInfo_LG-LS998 DeviceInfo_LG-M150 DeviceInfo_LG-M153 DeviceInfo_LG-M153_Build/MXB48T DeviceInfo_LG-M154 DeviceInfo_LG-M200_Build/NRD90U DeviceInfo_LG-M210_Build/NRD90U DeviceInfo_LG-M250 DeviceInfo_LG-M250_Build/NRD90U DeviceInfo_LG-M255 DeviceInfo_LG-M257 DeviceInfo_LG-M320 DeviceInfo_LG-M320_Build/NRD90U DeviceInfo_LG-M322 DeviceInfo_LG-M327_Build/NRD90U DeviceInfo_LG-M400 DeviceInfo_LG-M400_Build/NRD90U DeviceInfo_LG-M430 DeviceInfo_LG-M430_Build/NRD90U DeviceInfo_LG-M700 DeviceInfo_LG-M700_Build/NMF26X DeviceInfo_LG-M700_Build/OPM1.171019.026 DeviceInfo_LG-M703 DeviceInfo_LG-M710 DeviceInfo_LG-M710_Build/NRD90U DeviceInfo_LG-P708g DeviceInfo_LG-P714 DeviceInfo_LG-Q710AL DeviceInfo_LG-SP200 DeviceInfo_LG-SP320 DeviceInfo_LG-TP260 DeviceInfo_LG-TP260_Build/NRD90U DeviceInfo_LG-TP450 DeviceInfo_LG-TP450_Build/NRD90U DeviceInfo_LG-UK495 DeviceInfo_LG-V400 DeviceInfo_LG-V410 DeviceInfo_LG-V495 DeviceInfo_LG-V496 DeviceInfo_LG-V500 DeviceInfo_LG-V521 DeviceInfo_LG-V700 DeviceInfo_LG-X165g DeviceInfo_LG-X165g_Build/LRX21M DeviceInfo_LG-X180g DeviceInfo_LG-X180g_Build/LMY47I DeviceInfo_LG-X210 DeviceInfo_LG-X210_Build/LMY47I DeviceInfo_LG-X220 DeviceInfo_LG-X220_Build/LMY47I DeviceInfo_LG-X230 DeviceInfo_LG-X230_Build/MRA58K DeviceInfo_LG-X240 DeviceInfo_LG-X240_Build/MRA58K DeviceInfo_LGL158VL DeviceInfo_LGL163BL DeviceInfo_LGL164VL DeviceInfo_LGL164VL_Build/NRD90U DeviceInfo_LGL52VL_Build/LMY47V DeviceInfo_LGL58VL DeviceInfo_LGL62VL DeviceInfo_LGL82VL DeviceInfo_LGL83BL DeviceInfo_LGL84VL DeviceInfo_LGL84VL_Build/NRD90U DeviceInfo_LGLS665_Build/LMY47V DeviceInfo_LGLS675_Build/LMY47V DeviceInfo_LGLS676 DeviceInfo_LGLS676_Build/MXB48T DeviceInfo_LGLS751 DeviceInfo_LGLS755 DeviceInfo_LGLS770 DeviceInfo_LGLS775 DeviceInfo_LGLS775_Build/MMB29M DeviceInfo_LGLS775_Build/NRD90U DeviceInfo_LGLS990 DeviceInfo_LGLS991 DeviceInfo_LGLS992 DeviceInfo_LGMP260 DeviceInfo_LGMP260_Build/NRD90U DeviceInfo_LGMP450 DeviceInfo_LGMP450_Build/NRD90U DeviceInfo_LGMS210 DeviceInfo_LGMS210_Build/NRD90U DeviceInfo_LGMS330 DeviceInfo_LGMS330_Build/LMY47V DeviceInfo_LGMS428 DeviceInfo_LGMS550 DeviceInfo_LGMS550_Build/MXB48T DeviceInfo_LGMS550_Build/NRD90U DeviceInfo_LGMS631 DeviceInfo_LGMS631_Build/MRA58K DeviceInfo_LGUS215_Build/NRD90U DeviceInfo_LGUS991 DeviceInfo_LGUS992 DeviceInfo_LIMIT DeviceInfo_LLD-L21 DeviceInfo_LLD-L31 DeviceInfo_LLD-L31_Build/HONORLLD-L31 DeviceInfo_LM-G710 DeviceInfo_LM-G710VM DeviceInfo_LM-Q610(FGN DeviceInfo_LM-Q610.FG DeviceInfo_LM-Q710(FGN DeviceInfo_LM-Q710.FG DeviceInfo_LM-V350 DeviceInfo_LM-V405 DeviceInfo_LM-X210 DeviceInfo_LM-X210_Build/N2G47H DeviceInfo_LM-X210(G DeviceInfo_LM-X210CM DeviceInfo_LM-X212(G DeviceInfo_LM-X410(FG DeviceInfo_LM-X410.F DeviceInfo_LM-X410PM DeviceInfo_LML413DL DeviceInfo_LOGIC DeviceInfo_LS5 DeviceInfo_LT22i_Build/6.2.A.1.100 DeviceInfo_LT30p DeviceInfo_LYA-L09 DeviceInfo_Le DeviceInfo_Le_X520_Build/IEXCNFN5902303111S DeviceInfo_Lenovo DeviceInfo_Lenovo_A2016b30 DeviceInfo_Lenovo_A2016b30_Build/MRA58K DeviceInfo_Lenovo_A6020l37_Build/LMY47V DeviceInfo_Lenovo_K33b36 DeviceInfo_Lenovo_K33b36_Build/MMB29M DeviceInfo_Lenovo_K33b36_Build/NRD90N DeviceInfo_Lenovo_P2a42 DeviceInfo_Lenovo_PB1-750M_Build/S100 DeviceInfo_Lenovo_PB2-650Y DeviceInfo_Lenovo_PB2-650Y_Build/MRA58K DeviceInfo_Lenovo_PB2-670Y DeviceInfo_Lenovo_PB2-670Y_Build/MRA58K DeviceInfo_Lenovo_TAB_2_A7-30GC_Build/KOT49H DeviceInfo_Lenovo_TB-7104F_Build/O11019 DeviceInfo_Lenovo_TB-7703X_Build/S100 DeviceInfo_Lenovo_TB-X103F_Build/LenovoTB-X103F DeviceInfo_Lenovo_TB2-X30F_Build/LenovoTB2-X30F DeviceInfo_Lenovo_TB3-710F_Build/LRX21M DeviceInfo_Lenovo_TB3-710I_Build/LMY47I DeviceInfo_Lenovo_YT3-850F_Build/MMB29M DeviceInfo_Lenovo_YT3-850M_Build/MMB29M DeviceInfo_Lenovo_YT3-X50F_Build/MMB29M DeviceInfo_Lenovo-A6020l36_Build/LMY47V DeviceInfo_LenovoA3300-GV_Build/JDQ39 DeviceInfo_Life DeviceInfo_Linux_i686 DeviceInfo_Linux_x86_64 DeviceInfo_Lumia DeviceInfo_M4 DeviceInfo_M4_SS4450_Build/MRA58K DeviceInfo_M4_SS4451_Build/LMY47D DeviceInfo_M4_SS4452_Build/LMY47V DeviceInfo_M4_SS4453 DeviceInfo_M4_SS4453_Build/MMB29M DeviceInfo_M4_SS4456 DeviceInfo_M4_SS4456_Build/LMY47V DeviceInfo_M4_SS4457 DeviceInfo_M4_SS4457_Build/MRA58K DeviceInfo_M4_SS4457-R_Build/NRD90M DeviceInfo_M4_SS4458 DeviceInfo_M4_SS4458_Build/MMB29M DeviceInfo_M4_SS4458-R DeviceInfo_MAGNO DeviceInfo_MALC DeviceInfo_MAMI DeviceInfo_MDDRJS DeviceInfo_MHA-L09 DeviceInfo_MHA-L09_Build/HUAWEIMHA-L09 DeviceInfo_MHA-L29_Build/HUAWEIMHA-L29 DeviceInfo_MI DeviceInfo_MI_4W_Build/MMB29M DeviceInfo_MI_MAX_2_Build/NMF26F DeviceInfo_MI_MAX_3 DeviceInfo_MIX DeviceInfo_MIX_Build/OPR1.170623.032 DeviceInfo_MOT-A6020l37_Build/LMY47V DeviceInfo_MTT DeviceInfo_MXG401 DeviceInfo_MYA-L03 DeviceInfo_MYA-L03_Build/HUAWEIMYA-L03 DeviceInfo_MYA-L11 DeviceInfo_MYA-L13 DeviceInfo_MYA-L13_Build/HUAWEIMYA-L13 DeviceInfo_MYA-L23 DeviceInfo_MacOS DeviceInfo_Max DeviceInfo_Max10_Build/LMY47I DeviceInfo_Mi DeviceInfo_Mi_A1 DeviceInfo_Mi_A1_Build/N2G47H DeviceInfo_Mi_A1_Build/OPM1.171019.026 DeviceInfo_Mi_A1_Build/OPR1.170623.026 DeviceInfo_Mi_A2 DeviceInfo_Mi_A2_Lite DeviceInfo_Microsoft DeviceInfo_Miracle DeviceInfo_Moto DeviceInfo_Moto_C DeviceInfo_Moto_C_Build/NRD90M.046 DeviceInfo_Moto_C_Build/NRD90M.050 DeviceInfo_Moto_C_Build/NRD90M.054 DeviceInfo_Moto_C_Build/NRD90M.057 DeviceInfo_Moto_C_Build/NRD90M.063 DeviceInfo_Moto_C_Build/NRD90M.070 DeviceInfo_Moto_C_Plus DeviceInfo_Moto_C_Plus_Build/NRD90M.05.022 DeviceInfo_Moto_C_Plus_Build/NRD90M.05.034 DeviceInfo_Moto_E_(4) DeviceInfo_Moto_E_(4)_Build/NCQ26.69-56 DeviceInfo_Moto_E_(4)_Build/NDQ26.69-64-9 DeviceInfo_Moto_E_(4)_Build/NDQS26.69-23-2-3 DeviceInfo_Moto_E_(4)_Build/NDQS26.69-64-2 DeviceInfo_Moto_E_(4)_Build/NMA26.42-11-3 DeviceInfo_Moto_E_(4)_Build/NMA26.42-157 DeviceInfo_Moto_E_(4)_Build/NMA26.42-167 DeviceInfo_Moto_E_(4)_Build/NMA26.42-19 DeviceInfo_Moto_E_(4)_Build/NMA26.42-69 DeviceInfo_Moto_E_(4)_Plus DeviceInfo_Moto_E_(4)_Plus_Build/NMA26.42-11-3 DeviceInfo_Moto_E_(4)_Plus_Build/NMA26.42-142 DeviceInfo_Moto_E_(4)_Plus_Build/NMA26.42-152 DeviceInfo_Moto_E_(4)_Plus_Build/NMA26.42-162 DeviceInfo_Moto_E_(4)_Plus_Build/NMA26.42-167 DeviceInfo_Moto_E_(4)_Plus_Build/NMA26.42-69 DeviceInfo_Moto_G_(4) DeviceInfo_Moto_G_(4)_Build/NPJ25.93-14 DeviceInfo_Moto_G_(4)_Build/NPJ25.93-14.5 DeviceInfo_Moto_G_(4)_Build/NPJ25.93-14.7 DeviceInfo_Moto_G_(4)_Build/NPJS25.93-14-10 DeviceInfo_Moto_G_(4)_Build/NPJS25.93-14-13 DeviceInfo_Moto_G_(4)_Build/NPJS25.93-14-15 DeviceInfo_Moto_G_(4)_Build/NPJS25.93-14-18 DeviceInfo_Moto_G_(4)_Build/NPJS25.93-14-8 DeviceInfo_Moto_G_(4)_Build/NPJS25.93-14-8.1-4 DeviceInfo_Moto_G_(4)_Build/NPJS25.93-14-8.1-9 DeviceInfo_Moto_G_(4)_Build/NPJS25.93-14.7-8 DeviceInfo_Moto_G_(5) DeviceInfo_Moto_G_(5)_Build/NPP25.137-15 DeviceInfo_Moto_G_(5)_Build/NPP25.137-33 DeviceInfo_Moto_G_(5)_Build/NPP25.137-38 DeviceInfo_Moto_G_(5)_Build/NPP25.137-72 DeviceInfo_Moto_G_(5)_Build/NPP25.137-82 DeviceInfo_Moto_G_(5)_Build/NPP25.137-93 DeviceInfo_Moto_G_(5)_Build/NPPS25.137-15-11 DeviceInfo_Moto_G_(5)_Build/NPPS25.137-93-12 DeviceInfo_Moto_G_(5)_Build/NPPS25.137-93-14 DeviceInfo_Moto_G_(5)_Build/NPPS25.137-93-4 DeviceInfo_Moto_G_(5)_Build/NPPS25.137-93-8 DeviceInfo_Moto_G_(5)_Build/OPP28.85-13 DeviceInfo_Moto_G_(5)_Build/OPPS28.85-13-2 DeviceInfo_Moto_G_(5)_Plus DeviceInfo_Moto_G_(5)_Plus_Build/NPN25.137-15 DeviceInfo_Moto_G_(5)_Plus_Build/NPN25.137-35 DeviceInfo_Moto_G_(5)_Plus_Build/NPN25.137-72 DeviceInfo_Moto_G_(5)_Plus_Build/NPN25.137-82 DeviceInfo_Moto_G_(5)_Plus_Build/NPN25.137-83 DeviceInfo_Moto_G_(5)_Plus_Build/NPN25.137-92 DeviceInfo_Moto_G_(5)_Plus_Build/NPNS25.137-15-11 DeviceInfo_Moto_G_(5)_Plus_Build/NPNS25.137-92-10 DeviceInfo_Moto_G_(5)_Plus_Build/NPNS25.137-92-14 DeviceInfo_Moto_G_(5)_Plus_Build/NPNS25.137-92-4 DeviceInfo_Moto_G_(5)_Plus_Build/NPNS25.137-92-8 DeviceInfo_Moto_G_(5)_Plus_Build/NPNS25.137-93-14 DeviceInfo_Moto_G_(5)_Plus_Build/NPNS25.137-93-8 DeviceInfo_Moto_G_(5)_Plus_Build/OPS28.85-13 DeviceInfo_Moto_G_(5)_Plus_Build/OPSS28.85-13-3 DeviceInfo_Moto_G_(5S DeviceInfo_Moto_G_Play DeviceInfo_Moto_G_Play_Build/MPIS24.241-15.3-26 DeviceInfo_Moto_G_Play_Build/MPIS24.241-15.3-7 DeviceInfo_Moto_G_Play_Build/NJH47F DeviceInfo_Moto_G_Play_Build/NPI26.48-36 DeviceInfo_Moto_G_Play_Build/NPIS26.48-36-2 DeviceInfo_Moto_G_Play_Build/NPIS26.48-36-5 DeviceInfo_Moto_G_Play_Build/NPIS26.48-43-2 DeviceInfo_Moto_X_Play DeviceInfo_Moto_X_Play_Build/NPD26.48-24-1 DeviceInfo_Moto_Z_(2 DeviceInfo_Moto_Z2_Play DeviceInfo_Moto_Z2_Play_Build/NPS26.118-19 DeviceInfo_Moto_Z2_Play_Build/NPS26.74-16-1 DeviceInfo_Moto_Z2_Play_Build/NPSS26.118-19-11 DeviceInfo_Moto_Z2_Play_Build/NPSS26.118-19-14 DeviceInfo_Moto_Z2_Play_Build/NPSS26.118-19-22 DeviceInfo_Moto_Z2_Play_Build/NPSS26.118-19-4 DeviceInfo_Moto_Z2_Play_Build/NPSS26.118-19-6 DeviceInfo_Moto_Z2_Play_Build/OPS27.76-12-25 DeviceInfo_Moto_Z2_Play_Build/OPSS27.76-12-25-3 DeviceInfo_Moto_Z2_Play_Build/OPSS27.76-12-25-7 DeviceInfo_Moto_Z3_Play DeviceInfo_Moto_Z3_Play_Build/OPW28.70-22 DeviceInfo_MotoE2_Build/LPCS23.13-56-5 DeviceInfo_MotoE2(4G-LTE DeviceInfo_MotoG3 DeviceInfo_MotoG3_Build/MPI24.65-25 DeviceInfo_MotoG3_Build/MPI24.65-25.1 DeviceInfo_MotoG3_Build/MPI24.65-33.1-2 DeviceInfo_MotoG3_Build/MPIS24.107-55-2-17 DeviceInfo_MotoG3_Build/MPIS24.65-25.1-19 DeviceInfo_MotoG3_Build/MPIS24.65-33.1-2-10 DeviceInfo_MotoG3_Build/MPIS24.65-33.1-2-16 DeviceInfo_MotoG3-TE_Build/MPD24.65-33 DeviceInfo_MotoG3-TE_Build/MPDS24.65-33-1-3 DeviceInfo_MotoG3-TE_Build/MPDS24.65-33-1-30 DeviceInfo_N5702L DeviceInfo_N817 DeviceInfo_N9136 DeviceInfo_N9519 DeviceInfo_N9560 DeviceInfo_N9560_Build/NMF26F DeviceInfo_NATIVO_Build/NRD90M DeviceInfo_NEM-L51 DeviceInfo_NEM-L51_Build/HONORNEM-L51 DeviceInfo_NOKIA DeviceInfo_NX521J DeviceInfo_NYX_A1 DeviceInfo_Neffos DeviceInfo_Neffos_C5_Build/LMY47D DeviceInfo_Neffos_X1_Max DeviceInfo_Neffos_X1_Max_Build/NRD90M DeviceInfo_Nexus DeviceInfo_Nexus_5 DeviceInfo_Nexus_5_Build/M4B30Z DeviceInfo_Nexus_5X DeviceInfo_Nexus_5X_Build/N2G48C DeviceInfo_Nexus_5X_Build/OPM3.171019.013 DeviceInfo_Nexus_5X_Build/OPM7.181005.003 DeviceInfo_Nexus_5X_Build/OPR4.170623.006 DeviceInfo_Nexus_6_Build/MOB30M DeviceInfo_Nexus_6_Build/N6F27M DeviceInfo_Nexus_6P DeviceInfo_Nexus_6P_Build/OPR5.170623.011 DeviceInfo_Nexus_6P_Build/OPR5.170623.014 DeviceInfo_Nokia DeviceInfo_Nokia_2_Build/NMF26F DeviceInfo_Nokia_6.1_Build/OPR1.170623.026 DeviceInfo_Nokia_X DeviceInfo_ONE DeviceInfo_ONE_A2003_Build/MMB29M DeviceInfo_ONE_A2005_Build/MMB29M DeviceInfo_ONE_TOUCH_4016A_Build/JDQ39 DeviceInfo_ONE_TOUCH_4033A_Build/JDQ39 DeviceInfo_ONEPLUS DeviceInfo_ONEPLUS_A3000 DeviceInfo_ONEPLUS_A3003 DeviceInfo_ONEPLUS_A3003_Build/OPR1.170623.032 DeviceInfo_ONEPLUS_A3010 DeviceInfo_ONEPLUS_A5000 DeviceInfo_ONEPLUS_A5000_Build/NMF26X DeviceInfo_ONEPLUS_A5000_Build/OPM1.171019.011 DeviceInfo_ONEPLUS_A5010 DeviceInfo_ONEPLUS_A5010_Build/OPM1.171019.011 DeviceInfo_ONEPLUS_A6003 DeviceInfo_ONEPLUS_A6003_Build/PKQ1.180716.001 DeviceInfo_ONEPLUS_A6013 DeviceInfo_ORION DeviceInfo_Origins DeviceInfo_P008 DeviceInfo_P008_Build/NRD90M DeviceInfo_P00A DeviceInfo_P00C DeviceInfo_P00I DeviceInfo_P027 DeviceInfo_P4526A_Build/NRD90M DeviceInfo_P5006A DeviceInfo_P5006A_Build/NRD90M DeviceInfo_P5026A DeviceInfo_P5046A DeviceInfo_P5526A DeviceInfo_P5526A_Build/NRD90M DeviceInfo_PAR-LX9 DeviceInfo_PE-TL10 DeviceInfo_PH-1 DeviceInfo_PLK-L01_Build/HONORPLK-L01 DeviceInfo_PLUS DeviceInfo_PMID7102DC DeviceInfo_PRA-LX1 DeviceInfo_PRA-LX1_Build/HUAWEIPRA-LX1 DeviceInfo_PRA-LX3 DeviceInfo_PRA-LX3_Build/HUAWEIPRA-LX3 DeviceInfo_PSPC550_Build/LMY47D DeviceInfo_PSPCM20A0 DeviceInfo_PULP_4G_Build/LMY47V DeviceInfo_Phone DeviceInfo_Pixel DeviceInfo_Pixel_2 DeviceInfo_Pixel_2_Build/OPM1.171019.011 DeviceInfo_Pixel_2_Build/OPM1.171019.019 DeviceInfo_Pixel_2_Build/OPM1.171019.021 DeviceInfo_Pixel_2_Build/OPM2.171019.016 DeviceInfo_Pixel_2_Build/OPM2.171026.006.C1 DeviceInfo_Pixel_2_Build/OPM2.171026.006.G1 DeviceInfo_Pixel_2_Build/PPR1.180610.009 DeviceInfo_Pixel_2_Build/PPR2.180905.005 DeviceInfo_Pixel_2_Build/PPR2.181005.003 DeviceInfo_Pixel_2_XL DeviceInfo_Pixel_2_XL_Build/OPM1.171019.011 DeviceInfo_Pixel_2_XL_Build/OPM1.171019.013 DeviceInfo_Pixel_2_XL_Build/OPM1.171019.021 DeviceInfo_Pixel_2_XL_Build/OPM2.171019.029 DeviceInfo_Pixel_2_XL_Build/OPM2.171019.029.B1 DeviceInfo_Pixel_2_XL_Build/OPM2.171026.006.H1 DeviceInfo_Pixel_2_XL_Build/PPR2.180905.005 DeviceInfo_Pixel_2_XL_Build/PPR2.181005.003 DeviceInfo_Pixel_3 DeviceInfo_Pixel_3_XL DeviceInfo_Pixel_Build/OPM1.171019.011 DeviceInfo_Pixel_Build/OPM1.171019.012 DeviceInfo_Pixel_Build/OPM1.171019.016 DeviceInfo_Pixel_Build/OPM2.171019.029 DeviceInfo_Pixel_Build/OPM4.171019.016.B1 DeviceInfo_Pixel_Build/OPM4.171019.021.P1 DeviceInfo_Pixel_Build/OPR3.170623.013 DeviceInfo_Pixel_XL DeviceInfo_Pixel_XL_Build/OPM1.171019.011 DeviceInfo_Pixel_XL_Build/OPM1.171019.016 DeviceInfo_Pixel_XL_Build/OPM1.171019.021 DeviceInfo_Pixel_XL_Build/OPM4.171019.016.B1 DeviceInfo_Pixel_XL_Build/OPM4.171019.021.P1 DeviceInfo_Pixel_XL_Build/PPR2.181005.003 DeviceInfo_Q01A DeviceInfo_QTAIR7_Build/LMY47D DeviceInfo_QTAQZ3_Build/KOT49H DeviceInfo_QTAQZ3_Build/LMY47V DeviceInfo_QTASUN1 DeviceInfo_QTASUN1_Build/NRD90M DeviceInfo_R1 DeviceInfo_R2 DeviceInfo_R505 DeviceInfo_R8106 DeviceInfo_R831L DeviceInfo_RAINBOW DeviceInfo_RCT6203W46_Build/KOT49H DeviceInfo_RCT6223W87 DeviceInfo_RCT6303W87M7_Build/MRA58K DeviceInfo_RCT6513W87_Build/MRA58K DeviceInfo_RCT6773W22B DeviceInfo_RCT6973W43MD DeviceInfo_RCT6S03W12 DeviceInfo_REVVLPLUS DeviceInfo_REX DeviceInfo_RNE-L03 DeviceInfo_RNE-L03_Build/HUAWEIRNE-L03 DeviceInfo_RNE-L21 DeviceInfo_RNE-L21_Build/HUAWEIRNE-L21 DeviceInfo_RNE-L22 DeviceInfo_RNE-L22_Build/HUAWEIRNE-L22 DeviceInfo_RNE-L23 DeviceInfo_RNE-L23_Build/HUAWEIRNE-L23 DeviceInfo_RS988 DeviceInfo_RS988_Build/MMB29M DeviceInfo_Redmi DeviceInfo_Redmi_3S_Build/MMB29M DeviceInfo_Redmi_4A DeviceInfo_Redmi_4A_Build/MMB29M DeviceInfo_Redmi_4A_Build/N2G47H DeviceInfo_Redmi_4X DeviceInfo_Redmi_4X_Build/N2G47H DeviceInfo_Redmi_5_Plus DeviceInfo_Redmi_5_Plus_Build/N2G47H DeviceInfo_Redmi_5_Plus_Build/OPM1.171019.019 DeviceInfo_Redmi_5A_Build/N2G47H DeviceInfo_Redmi_6 DeviceInfo_Redmi_6A DeviceInfo_Redmi_Note_3 DeviceInfo_Redmi_Note_3_Build/MMB29M DeviceInfo_Redmi_Note_3_Build/NMF26Q DeviceInfo_Redmi_Note_4 DeviceInfo_Redmi_Note_4_Build/MMB29M DeviceInfo_Redmi_Note_4_Build/NRD90M DeviceInfo_Redmi_Note_4X_Build/MRA58K DeviceInfo_Redmi_Note_5 DeviceInfo_Redmi_Note_5_Build/OPM1.171019.011 DeviceInfo_Redmi_Note_5A DeviceInfo_Redmi_Note_5A_Build/N2G47H DeviceInfo_Redmi_Note_6_Pro DeviceInfo_Redmi_S2 DeviceInfo_Rex_Build/MRA58K DeviceInfo_S.N.O.W.4 DeviceInfo_S57_Build/KTU84P DeviceInfo_S60_Build/MMB29M DeviceInfo_S60_Lite_Build/NRD90M DeviceInfo_S70V DeviceInfo_SAMSUNG DeviceInfo_SAMSUNG_SM-A300H_Build/LRX22G DeviceInfo_SAMSUNG_SM-A310F_Build/NRD90M DeviceInfo_SAMSUNG_SM-A310F/A310FXXU4CRB1_Build/NRD90M DeviceInfo_SAMSUNG_SM-A310M_Build/LMY47X DeviceInfo_SAMSUNG_SM-A320FL_Build/NRD90M DeviceInfo_SAMSUNG_SM-A320FL_Build/R16NW DeviceInfo_SAMSUNG_SM-A320Y_Build/NRD90M DeviceInfo_SAMSUNG_SM-A510F_Build/NRD90M DeviceInfo_SAMSUNG_SM-A510M_Build/MMB29K DeviceInfo_SAMSUNG_SM-A510M_Build/NRD90M DeviceInfo_SAMSUNG_SM-A520F_Build/NRD90M DeviceInfo_SAMSUNG_SM-A520F_Build/R16NW DeviceInfo_SAMSUNG_SM-A520W_Build/NRD90M DeviceInfo_SAMSUNG_SM-A530F_Build/NMF26X DeviceInfo_SAMSUNG_SM-A530F_Build/R16NW DeviceInfo_SAMSUNG_SM-A605GN_Build/R16NW DeviceInfo_SAMSUNG_SM-A710M_Build/NRD90M DeviceInfo_SAMSUNG_SM-A720F_Build/NRD90M DeviceInfo_SAMSUNG_SM-A730F_Build/NMF26X DeviceInfo_SAMSUNG_SM-G390F_Build/NRD90M DeviceInfo_SAMSUNG_SM-G530H_Build/LRX22G DeviceInfo_SAMSUNG_SM-G530T_Build/LMY47X DeviceInfo_SAMSUNG_SM-G531H_Build/LMY48B DeviceInfo_SAMSUNG_SM-G532F_Build/MMB29T DeviceInfo_SAMSUNG_SM-G532M_Build/MMB29T DeviceInfo_SAMSUNG_SM-G550T1_Build/MMB29K DeviceInfo_SAMSUNG_SM-G570M_Build/MMB29K DeviceInfo_SAMSUNG_SM-G570M_Build/NRD90M DeviceInfo_SAMSUNG_SM-G610M_Build/M1AJQ DeviceInfo_SAMSUNG_SM-G610M_Build/MMB29K DeviceInfo_SAMSUNG_SM-G610M_Build/NRD90M DeviceInfo_SAMSUNG_SM-G800F_Build/MMB29K DeviceInfo_SAMSUNG_SM-G850F/G850FXXS2CQD9_Build/LRX22G DeviceInfo_SAMSUNG_SM-G890A_Build/NRD90M DeviceInfo_SAMSUNG_SM-G891A_Build/NRD90M DeviceInfo_SAMSUNG_SM-G892A_Build/NRD90M DeviceInfo_SAMSUNG_SM-G892A_Build/R16NW DeviceInfo_SAMSUNG_SM-G900A_Build/MMB29M DeviceInfo_SAMSUNG_SM-G900F_Build/MMB29M DeviceInfo_SAMSUNG_SM-G900I_Build/MMB29M DeviceInfo_SAMSUNG_SM-G900M_Build/LRX21T DeviceInfo_SAMSUNG_SM-G900M_Build/MMB29M DeviceInfo_SAMSUNG_SM-G900T_Build/MMB29M DeviceInfo_SAMSUNG_SM-G903F_Build/MMB29K DeviceInfo_SAMSUNG_SM-G920A_Build/NRD90M DeviceInfo_SAMSUNG_SM-G920F_Build/LRX22G DeviceInfo_SAMSUNG_SM-G920F_Build/NRD90M DeviceInfo_SAMSUNG_SM-G920I_Build/NRD90M DeviceInfo_SAMSUNG_SM-G920P_Build/NRD90M DeviceInfo_SAMSUNG_SM-G920T_Build/NRD90M DeviceInfo_SAMSUNG_SM-G925F_Build/NRD90M DeviceInfo_SAMSUNG_SM-G925I_Build/NRD90M DeviceInfo_SAMSUNG_SM-G925P_Build/MMB29K DeviceInfo_SAMSUNG_SM-G925P_Build/NRD90M DeviceInfo_SAMSUNG_SM-G925T_Build/NRD90M DeviceInfo_SAMSUNG_SM-G928G_Build/NRD90M DeviceInfo_SAMSUNG_SM-G930A_Build/NRD90M DeviceInfo_SAMSUNG_SM-G930A_Build/R16NW DeviceInfo_SAMSUNG_SM-G930F_Build/NRD90M DeviceInfo_SAMSUNG_SM-G930F_Build/R16NW DeviceInfo_SAMSUNG_SM-G930F/XXU2DRC1_Build/NRD90M DeviceInfo_SAMSUNG_SM-G930P_Build/NRD90M DeviceInfo_SAMSUNG_SM-G930P_Build/R16NW DeviceInfo_SAMSUNG_SM-G930R4_Build/NRD90M DeviceInfo_SAMSUNG_SM-G930T_Build/NRD90M DeviceInfo_SAMSUNG_SM-G930T_Build/R16NW DeviceInfo_SAMSUNG_SM-G935A_Build/NRD90M DeviceInfo_SAMSUNG_SM-G935A_Build/R16NW DeviceInfo_SAMSUNG_SM-G935F_Build/MMB29K DeviceInfo_SAMSUNG_SM-G935F_Build/NRD90M DeviceInfo_SAMSUNG_SM-G935F_Build/R16NW DeviceInfo_SAMSUNG_SM-G935P_Build/NRD90M DeviceInfo_SAMSUNG_SM-G935T_Build/NRD90M DeviceInfo_SAMSUNG_SM-G935T_Build/R16NW DeviceInfo_SAMSUNG_SM-G935W8_Build/NRD90M DeviceInfo_SAMSUNG_SM-G950F_Build/NRD90M DeviceInfo_SAMSUNG_SM-G950F_Build/R16NW DeviceInfo_SAMSUNG_SM-G950U_Build/NRD90M DeviceInfo_SAMSUNG_SM-G950U_Build/R16NW DeviceInfo_SAMSUNG_SM-G950U1_Build/NRD90M DeviceInfo_SAMSUNG_SM-G950U1_Build/R16NW DeviceInfo_SAMSUNG_SM-G955F_Build/NRD90M DeviceInfo_SAMSUNG_SM-G955F_Build/R16NW DeviceInfo_SAMSUNG_SM-G955U_Build/NRD90M DeviceInfo_SAMSUNG_SM-G955U_Build/R16NW DeviceInfo_SAMSUNG_SM-G9600_Build/R16NW DeviceInfo_SAMSUNG_SM-G960F_Build/R16NW DeviceInfo_SAMSUNG_SM-G960U_Build/R16NW DeviceInfo_SAMSUNG_SM-G960U1_Build/R16NW DeviceInfo_SAMSUNG_SM-G9650_Build/R16NW DeviceInfo_SAMSUNG_SM-G965F_Build/R16NW DeviceInfo_SAMSUNG_SM-G965U_Build/R16NW DeviceInfo_SAMSUNG_SM-G965U1_Build/R16NW DeviceInfo_SAMSUNG_SM-J111M_Build/LMY47V DeviceInfo_SAMSUNG_SM-J120H_Build/LMY47V DeviceInfo_SAMSUNG_SM-J250M_Build/NMF26X DeviceInfo_SAMSUNG_SM-J320F_Build/LMY47V DeviceInfo_SAMSUNG_SM-J320FN_Build/LMY47V DeviceInfo_SAMSUNG_SM-J320M_Build/LMY47V DeviceInfo_SAMSUNG_SM-J327A_Build/NRD90M DeviceInfo_SAMSUNG_SM-J327AZ_Build/NRD90M DeviceInfo_SAMSUNG_SM-J327P_Build/MMB29M DeviceInfo_SAMSUNG_SM-J327T_Build/NRD90M DeviceInfo_SAMSUNG_SM-J327T1_Build/NRD90M DeviceInfo_SAMSUNG_SM-J330FN_Build/NRD90M DeviceInfo_SAMSUNG_SM-J400M_Build/R16NW DeviceInfo_SAMSUNG_SM-J500FN_Build/MMB29M DeviceInfo_SAMSUNG_SM-J500M_Build/LMY48B DeviceInfo_SAMSUNG_SM-J500M_Build/MMB29M DeviceInfo_SAMSUNG_SM-J510FN_Build/NMF26X DeviceInfo_SAMSUNG_SM-J510MN_Build/MMB29M DeviceInfo_SAMSUNG_SM-J510MN_Build/NMF26X DeviceInfo_SAMSUNG_SM-J530F_Build/NRD90M DeviceInfo_SAMSUNG_SM-J530GM_Build/NRD90M DeviceInfo_SAMSUNG_SM-J600G_Build/R16NW DeviceInfo_SAMSUNG_SM-J610G_Build/M1AJQ DeviceInfo_SAMSUNG_SM-J700M_Build/LMY48B DeviceInfo_SAMSUNG_SM-J700M_Build/MMB29K DeviceInfo_SAMSUNG_SM-J700T_Build/NMF26X DeviceInfo_SAMSUNG_SM-J700T1_Build/NMF26X DeviceInfo_SAMSUNG_SM-J701M_Build/NRD90M DeviceInfo_SAMSUNG_SM-J710MN_Build/MMB29K DeviceInfo_SAMSUNG_SM-J710MN_Build/NRD90M DeviceInfo_SAMSUNG_SM-J727T1_Build/NRD90M DeviceInfo_SAMSUNG_SM-J730GM_Build/NRD90M DeviceInfo_SAMSUNG_SM-J737P_Build/R16NW DeviceInfo_SAMSUNG_SM-J737T_Build/R16NW DeviceInfo_SAMSUNG_SM-J810M_Build/R16NW DeviceInfo_SAMSUNG_SM-N900T_Build/LRX21V DeviceInfo_SAMSUNG_SM-N900W8_Build/LRX21V DeviceInfo_SAMSUNG_SM-N910A_Build/MMB29M DeviceInfo_SAMSUNG_SM-N910F/N910FXXU1DQL2_Build/MMB29M DeviceInfo_SAMSUNG_SM-N910V_Build/MMB29M DeviceInfo_SAMSUNG_SM-N920A_Build/NRD90M DeviceInfo_SAMSUNG_SM-N920P_Build/NRD90M DeviceInfo_SAMSUNG_SM-N920T_Build/NRD90M DeviceInfo_SAMSUNG_SM-N920V_Build/NRD90M DeviceInfo_SAMSUNG_SM-N950F_Build/NMF26X DeviceInfo_SAMSUNG_SM-N950F_Build/R16NW DeviceInfo_SAMSUNG_SM-N950N_Build/R16NW DeviceInfo_SAMSUNG_SM-N950U_Build/NMF26X DeviceInfo_SAMSUNG_SM-N950U_Build/R16NW DeviceInfo_SAMSUNG_SM-N950U1_Build/NMF26X DeviceInfo_SAMSUNG_SM-N950U1_Build/R16NW DeviceInfo_SAMSUNG_SM-N960U_Build/M1AJQ DeviceInfo_SAMSUNG_SM-P580_Build/NRD90M DeviceInfo_SAMSUNG_SM-P900_Build/LRX22G DeviceInfo_SAMSUNG_SM-S727VL_Build/MMB29M DeviceInfo_SAMSUNG_SM-T377W_Build/NMF26X DeviceInfo_SAMSUNG_SM-T530NU_Build/LRX22G DeviceInfo_SAMSUNG_SM-T550_Build/NMF26X DeviceInfo_SAMSUNG_SM-T580_Build/M1AJQ DeviceInfo_SAMSUNG_SM-T580_Build/NRD90M DeviceInfo_SAMSUNG_SM-T587P_Build/NRD90M DeviceInfo_SAMSUNG_SM-T710_Build/NRD90M DeviceInfo_SAMSUNG_SM-T800_Build/MMB29K DeviceInfo_SAMSUNG_SM-T810_Build/NRD90M DeviceInfo_SAMSUNG_SM-T813_Build/NRD90M DeviceInfo_SAMSUNG_SM-T820_Build/R16NW DeviceInfo_SAMSUNG-SGH-I337 DeviceInfo_SAMSUNG-SGH-I337_Build/KOT49H DeviceInfo_SAMSUNG-SGH-I497 DeviceInfo_SAMSUNG-SM-G530A DeviceInfo_SAMSUNG-SM-G530AZ_Build/LMY48B DeviceInfo_SAMSUNG-SM-G870A DeviceInfo_SAMSUNG-SM-G870A_Build/LRX21T DeviceInfo_SAMSUNG-SM-G870A_Build/MMB29M DeviceInfo_SAMSUNG-SM-G890A DeviceInfo_SAMSUNG-SM-G890A_Build/MMB29K DeviceInfo_SAMSUNG-SM-G890A_Build/NRD90M DeviceInfo_SAMSUNG-SM-G891A DeviceInfo_SAMSUNG-SM-G891A_Build/NRD90M DeviceInfo_SAMSUNG-SM-G891A_Build/R16NW DeviceInfo_SAMSUNG-SM-G900A DeviceInfo_SAMSUNG-SM-G900A_Build/KOT49H DeviceInfo_SAMSUNG-SM-G900A_Build/LMY47X DeviceInfo_SAMSUNG-SM-G900A_Build/LRX21T DeviceInfo_SAMSUNG-SM-G900A_Build/MMB29M DeviceInfo_SAMSUNG-SM-G920A DeviceInfo_SAMSUNG-SM-G920A_Build/MMB29K DeviceInfo_SAMSUNG-SM-G920A_Build/NRD90M DeviceInfo_SAMSUNG-SM-G920AZ DeviceInfo_SAMSUNG-SM-G925A DeviceInfo_SAMSUNG-SM-G925A_Build/MMB29K DeviceInfo_SAMSUNG-SM-G925A_Build/NRD90M DeviceInfo_SAMSUNG-SM-G928A DeviceInfo_SAMSUNG-SM-G928A_Build/NRD90M DeviceInfo_SAMSUNG-SM-G930A DeviceInfo_SAMSUNG-SM-G930A_Build/NRD90M DeviceInfo_SAMSUNG-SM-G930A_Build/R16NW DeviceInfo_SAMSUNG-SM-G930AZ DeviceInfo_SAMSUNG-SM-G935A DeviceInfo_SAMSUNG-SM-G935A_Build/NRD90M DeviceInfo_SAMSUNG-SM-J120A DeviceInfo_SAMSUNG-SM-J320A DeviceInfo_SAMSUNG-SM-J320A_Build/MMB29K DeviceInfo_SAMSUNG-SM-J320A_Build/NMF26X DeviceInfo_SAMSUNG-SM-J320AZ DeviceInfo_SAMSUNG-SM-J320AZ_Build/MMB29K DeviceInfo_SAMSUNG-SM-J321AZ DeviceInfo_SAMSUNG-SM-J327A DeviceInfo_SAMSUNG-SM-J327A_Build/NRD90M DeviceInfo_SAMSUNG-SM-J327AZ DeviceInfo_SAMSUNG-SM-J727A DeviceInfo_SAMSUNG-SM-J727A_Build/NRD90M DeviceInfo_SAMSUNG-SM-J727AZ DeviceInfo_SAMSUNG-SM-N900A DeviceInfo_SAMSUNG-SM-N900A_Build/LRX21V DeviceInfo_SAMSUNG-SM-N910A DeviceInfo_SAMSUNG-SM-N915A_Build/KTU84P DeviceInfo_SAMSUNG-SM-N920A DeviceInfo_SAMSUNG-SM-N920A_Build/NRD90M DeviceInfo_SAMSUNG-SM-T337A_Build/LMY47X DeviceInfo_SAMSUNG-SM-T377A_Build/MMB29K DeviceInfo_SAMSUNG-SM-T677A DeviceInfo_SAMSUNG-SM-T817A DeviceInfo_SC-02H DeviceInfo_SCH-I545_Build/LRX22C DeviceInfo_SGH-I317M DeviceInfo_SGH-I337M DeviceInfo_SGH-I337M_Build/LRX22C DeviceInfo_SGH-M919_Build/KTU84P DeviceInfo_SGH-M919V DeviceInfo_SGH-T999L DeviceInfo_SGP311 DeviceInfo_SGP511 DeviceInfo_SGP512 DeviceInfo_SGP521 DeviceInfo_SGP621_Build/23.5.A.1.291 DeviceInfo_SH-01K DeviceInfo_SH-04F DeviceInfo_SHIFT4.2 DeviceInfo_SHV39 DeviceInfo_SLA-L03 DeviceInfo_SLA-L03_Build/HUAWEISLA-L03 DeviceInfo_SLA-L22 DeviceInfo_SLA-L23 DeviceInfo_SM-A300FU DeviceInfo_SM-A300FU_Build/MMB29M DeviceInfo_SM-A300H DeviceInfo_SM-A300H_Build/LRX22G DeviceInfo_SM-A300M DeviceInfo_SM-A300M_Build/KTU84P DeviceInfo_SM-A310F DeviceInfo_SM-A310F_Build/MMB29K DeviceInfo_SM-A310F_Build/NRD90M DeviceInfo_SM-A310M DeviceInfo_SM-A310M_Build/LMY47X DeviceInfo_SM-A310M_Build/NRD90M DeviceInfo_SM-A320F DeviceInfo_SM-A320FL DeviceInfo_SM-A320FL_Build/MMB29K DeviceInfo_SM-A320FL_Build/NRD90M DeviceInfo_SM-A320FL_Build/R16NW DeviceInfo_SM-A320Y DeviceInfo_SM-A320Y_Build/NRD90M DeviceInfo_SM-A500FU_Build/MMB29M DeviceInfo_SM-A500M DeviceInfo_SM-A500M_Build/KTU84P DeviceInfo_SM-A500M_Build/LRX22G DeviceInfo_SM-A510F DeviceInfo_SM-A510F_Build/MMB29K DeviceInfo_SM-A510F_Build/NRD90M DeviceInfo_SM-A510M DeviceInfo_SM-A510M_Build/LMY47X DeviceInfo_SM-A510M_Build/MMB29K DeviceInfo_SM-A510M_Build/NRD90M DeviceInfo_SM-A520F DeviceInfo_SM-A520F_Build/MMB29K DeviceInfo_SM-A520F_Build/NRD90M DeviceInfo_SM-A520F_Build/R16NW DeviceInfo_SM-A520W DeviceInfo_SM-A520W_Build/NRD90M DeviceInfo_SM-A520W_Build/R16NW DeviceInfo_SM-A530F DeviceInfo_SM-A530F_Build/NMF26X DeviceInfo_SM-A530F_Build/R16NW DeviceInfo_SM-A530W DeviceInfo_SM-A600FN DeviceInfo_SM-A605GN DeviceInfo_SM-A605GN_Build/R16NW DeviceInfo_SM-A710M DeviceInfo_SM-A710M_Build/LMY47X DeviceInfo_SM-A710M_Build/NRD90M DeviceInfo_SM-A720F DeviceInfo_SM-A720F_Build/MMB29K DeviceInfo_SM-A720F_Build/NRD90M DeviceInfo_SM-A730F DeviceInfo_SM-A730F_Build/NMF26X DeviceInfo_SM-A750G DeviceInfo_SM-A920F DeviceInfo_SM-E500M DeviceInfo_SM-E500M_Build/KTU84P DeviceInfo_SM-E700M DeviceInfo_SM-G318ML DeviceInfo_SM-G350M DeviceInfo_SM-G355M_Build/KOT49H DeviceInfo_SM-G357FZ DeviceInfo_SM-G360T1_Build/LMY47X DeviceInfo_SM-G360V_Build/LMY48B DeviceInfo_SM-G361F DeviceInfo_SM-G386T DeviceInfo_SM-G388F DeviceInfo_SM-G390F DeviceInfo_SM-G530H DeviceInfo_SM-G530H_Build/KTU84P DeviceInfo_SM-G530H_Build/LRX22G DeviceInfo_SM-G530M DeviceInfo_SM-G530P DeviceInfo_SM-G530T DeviceInfo_SM-G530T1 DeviceInfo_SM-G531H DeviceInfo_SM-G531H_Build/LMY48B DeviceInfo_SM-G532M DeviceInfo_SM-G532M_Build/MMB29T DeviceInfo_SM-G532MT DeviceInfo_SM-G550T_Build/MMB29K DeviceInfo_SM-G550T1 DeviceInfo_SM-G550T1_Build/MMB29K DeviceInfo_SM-G570M DeviceInfo_SM-G570M_Build/MMB29K DeviceInfo_SM-G570M_Build/NRD90M DeviceInfo_SM-G570M_Build/R16NW DeviceInfo_SM-G610F DeviceInfo_SM-G610F_Build/NRD90M DeviceInfo_SM-G610M DeviceInfo_SM-G610M_Build/M1AJQ DeviceInfo_SM-G610M_Build/MMB29K DeviceInfo_SM-G610M_Build/NRD90M DeviceInfo_SM-G615F DeviceInfo_SM-G720AX DeviceInfo_SM-G730W8_Build/KOT49H DeviceInfo_SM-G800F DeviceInfo_SM-G800F_Build/KOT49H DeviceInfo_SM-G800F_Build/MMB29K DeviceInfo_SM-G800M_Build/KOT49H DeviceInfo_SM-G850M DeviceInfo_SM-G850M_Build/LRX22G DeviceInfo_SM-G892A DeviceInfo_SM-G892U DeviceInfo_SM-G892U_Build/R16NW DeviceInfo_SM-G900F DeviceInfo_SM-G900F_Build/KOT49H DeviceInfo_SM-G900F_Build/LRX21T DeviceInfo_SM-G900F_Build/MMB29M DeviceInfo_SM-G900F_Build/NJH47F DeviceInfo_SM-G900H DeviceInfo_SM-G900H_Build/MMB29K DeviceInfo_SM-G900I DeviceInfo_SM-G900M DeviceInfo_SM-G900M_Build/KOT49H DeviceInfo_SM-G900M_Build/LRX21T DeviceInfo_SM-G900M_Build/MMB29M DeviceInfo_SM-G900P DeviceInfo_SM-G900P_Build/LRX21T DeviceInfo_SM-G900P_Build/MMB29M DeviceInfo_SM-G900R4 